1247 128
725 0.0184987 -0.0560927 -0.0148695 0.0168601 0.0884879 -0.0488207 -0.0080359 -0.0413453 0.0267426 0.0182478 0.0175921 0.0288176 -0.0219193 0.0105044 0.0446563 0.00260852 0.0180176 -0.0565969 -0.0367623 0.00272624 0.0108934 -0.0707145 0.00803241 0.0428482 -0.0439113 0.0154163 0.00689532 -0.0566536 0.0141338 -0.0408285 -0.029491 0.0524324 0.0679847 0.078239 -0.043698 0.0415986 0.00126352 -0.0141521 0.0560244 0.0257228 0.0266532 0.0226469 -0.0685049 -0.00076897 -0.0392558 -0.00841522 -0.00459615 0.0474507 0.0128072 0.0119386 0.00989343 -0.043808 0.0365435 -0.0753855 -0.0622495 -0.02374 0.0717696 0.00235355 0.0333594 0.032122 -0.00280964 -0.0430347 -0.0449746 0.0174393 -0.0474521 -0.0100892 0.0029197 -0.0119696 -0.0181805 0.0354044 0.0037864 0.0397193 -0.00162416 0.013907 0.0172589 0.00981163 0.0019328 0.00285848 0.00163305 -0.00835375 0.000509126 -0.0924555 -0.0221155 -0.0231879 0.0118675 -0.00897852 -0.0393313 -0.0341199 0.00740033 0.00109633 0.0175679 0.0201788 -0.0216329 -0.00872857 -0.0226274 -0.0313412 -0.0261492 0.0253455 0.00149907 0.0189324 0.00241716 0.00935381 -0.0243008 0.0488684 -0.00557105 -0.0281247 -0.0191276 0.0161872 0.0273357 -0.0266075 -0.0239391 -0.0210761 0.0290906 -0.0132006 0.0284478 -0.0436986 -0.0412035 -0.0647879 -0.00497583 -0.0374111 -0.0503484 0.050908 0.0270986 0.00663923 0.0190171 0.0391469 0.00786576 0.0425497
1212 0.247361 -0.0216169 -0.114778 0.116211 0.17363 -0.210835 -0.265924 -0.224119 0.21601 0.179762 0.224397 0.273674 -0.094097 0.273895 0.19355 0.278309 0.255675 -0.170733 -0.149643 -0.194184 0.139133 -0.137325 0.00614272 0.140743 -0.104922 0.0825264 0.237323 -0.179288 0.125806 -0.127195 -0.134747 0.211209 0.0543731 0.120511 -0.175885 0.230542 0.228348 0.0782945 0.229604 0.309975 0.141745 0.0407037 -0.250471 -0.0445301 -0.27202 -0.0397515 0.0948333 0.153492 0.0889333 -0.137553 0.181601 -0.225821 0.260178 -0.113928 -0.1781 -0.0148365 0.271886 -0.112318 0.224734 0.218393 -0.034342 -0.303333 -0.228662 0.117114 -0.0280318 -0.0427475 -0.00752594 -0.0609556 -0.120449 0.145004 -0.323919 0.0657554 -0.168239 -0.0687792 -0.195157 -0.1542 0.0232632 -0.0697094 0.0912011 -0.331009 -0.159548 -0.211303 -0.349989 -0.229055 -0.124775 -0.0661452 -0.187595 0.0642136 -0.164623 -0.116876 0.218709 0.162543 -0.0393961 -0.0441665 0.22794 0.0956601 -0.167701 -0.00496877 0.0572944 -0.102044 0.0114017 0.168035 -0.0135799 0.126607 -0.0559711 -0.0557914 -0.0663031 -0.132345 0.083709 -0.0621534 -0.144685 -0.1872 0.0820238 -0.0230606 0.371013 -0.211193 -0.17483 -0.245493 -0.0751364 -0.252252 -0.222379 0.101079 0.268059 -0.0610554 -0.100796 0.21629 -0.0233091 0.101784
0 0.378089 0.00566227 -0.158225 0.203813 0.202577 -0.298521 -0.430129 -0.333992 0.335108 0.238319 0.345165 0.39641 -0.126365 0.406517 0.250411 0.454886 0.382038 -0.275962 -0.226803 -0.331463 0.201364 -0.178699 0.0187151 0.186354 -0.171261 0.106599 0.367633 -0.223801 0.189499 -0.16203 -0.203966 0.32127 0.054789 0.0924155 -0.28709 0.272642 0.35075 0.168705 0.293174 0.472603 0.206766 0.0219643 -0.321402 -0.0602408 -0.417126 -0.0355408 0.112138 0.210247 0.13842 -0.244633 0.293216 -0.341104 0.391527 -0.104168 -0.241948 -0.00733663 0.374127 -0.160495 0.318823 0.355603 -0.0466756 -0.408614 -0.309813 0.202243 -0.0299837 -0.0790621 -0.0248753 -0.120254 -0.151139 0.204923 -0.479236 0.0625786 -0.249472 -0.144055 -0.345576 -0.26676 0.0575081 -0.0815704 0.139131 -0.500334 -0.245853 -0.249297 -0.573022 -0.382973 -0.22108 -0.110977 -0.356228 0.126378 -0.250812 -0.199024 0.336508 0.215932 -0.0154312 -0.0616581 0.384062 0.143222 -0.245541 -0.00445649 0.0938742 -0.126229 0.0223667 0.230996 -0.0353756 0.158167 -0.0998795 -0.10192 -0.113813 -0.259665 0.139003 -0.101981 -0.205739 -0.253747 0.136326 -0.0528465 0.567956 -0.317054 -0.283158 -0.342947 -0.16616 -0.38498 -0.304902 0.0943856 0.388215 -0.0689694 -0.197756 0.260519 -0.0601802 0.11934
89 0.0366292 -0.0467157 -0.0239048 0.0299546 0.0851426 -0.0627153 -0.0363553 -0.0508499 0.0438427 0.0347983 0.035372 0.0512812 -0.0307522 0.0339455 0.0501431 0.0265353 0.0359474 -0.0620309 -0.0435244 -0.0174807 0.0194872 -0.0692018 0.0121841 0.0497572 -0.0493222 0.0189342 0.0325961 -0.0602737 0.0188933 -0.0493274 -0.0357993 0.058213 0.0550816 0.0727924 -0.0433959 0.0542362 0.0217915 -0.00222433 0.0713424 0.0477867 0.0324719 0.0181708 -0.0787401 -0.00184921 -0.0568924 -0.0130047 0.00478222 0.0536098 0.0162489 0.000712815 0.028305 -0.0574343 0.0496663 -0.0718467 -0.0622882 -0.0167315 0.0815102 -0.00913604 0.0431435 0.0458083 -0.00340122 -0.0616505 -0.0602895 0.0286635 -0.0399461 -0.0105151 0.00365954 -0.0168092 -0.0210536 0.0479527 -0.0339959 0.0431221 -0.0156592 0.00574397 -0.00309685 -0.00620321 0.0038371 -0.0067832 0.0043557 -0.0412006 -0.0170767 -0.0947737 -0.0544602 -0.0454268 -0.00555286 -0.0191696 -0.0463599 -0.0247463 -0.00882459 -0.00819034 0.0374459 0.0287746 -0.0221504 -0.0135613 0.00791189 -0.0105791 -0.0387407 0.0193166 0.0064394 0.00321135 0.00396367 0.0293395 -0.0147791 0.0517454 -0.00532719 -0.0269961 -0.0251521 0.000949617 0.0273783 -0.0264864 -0.0337543 -0.0324231 0.0313251 -0.0140154 0.0603509 -0.0554414 -0.0482078 -0.0722294 -0.0130913 -0.0541235 -0.0616234 0.0518607 0.049174 0.00207456 0.00614845 0.0537524 0.000842513 0.0430769
579 0.0718264 -0.0309435 -0.0362556 0.0388588 0.088252 -0.0780249 -0.0690995 -0.0775011 0.0652229 0.058639 0.0684629 0.0866944 -0.0392546 0.0713001 0.0629177 0.0682897 0.0640724 -0.0706947 -0.0569766 -0.0505942 0.0379907 -0.0627829 0.00828712 0.0598449 -0.0487421 0.0229413 0.0670312 -0.072145 0.037899 -0.0519045 -0.04266 0.0809081 0.0432667 0.0673048 -0.0578129 0.0822731 0.0568392 0.0117648 0.0837433 0.0872132 0.0450654 0.0158446 -0.0915386 -0.00855853 -0.0823111 -0.0137454 0.0169377 0.0672968 0.0250469 -0.0240364 0.0492781 -0.0757604 0.0796665 -0.0700116 -0.0722276 -0.0171345 0.106278 -0.0251641 0.0733787 0.0697524 -0.0123313 -0.101849 -0.0853523 0.0415875 -0.0312245 -0.013962 -0.00248304 -0.0236104 -0.0347772 0.0567875 -0.0777627 0.0403452 -0.0448057 -0.009389 -0.0413482 -0.0312957 0.00619474 -0.0107326 0.0181009 -0.0885175 -0.0375836 -0.093548 -0.0974139 -0.0643243 -0.0252017 -0.0245735 -0.0661969 -0.00201013 -0.0360336 -0.0313253 0.0632797 0.0466622 -0.0227236 -0.0132604 0.0503369 0.0104432 -0.0502182 0.0124314 0.0147755 -0.0132623 0.0031456 0.0503622 -0.0107817 0.0559861 -0.0120637 -0.0285332 -0.0293075 -0.0272359 0.0336866 -0.0270508 -0.048314 -0.0538581 0.0351286 -0.00774716 0.10747 -0.0814004 -0.0617609 -0.091906 -0.022593 -0.0755866 -0.0770171 0.0482296 0.0741201 -0.00979364 -0.0175455 0.0716881 -0.00434109 0.0492412
126 0.0897121 -0.193291 -0.0715746 0.080395 0.338356 -0.209284 -0.065911 -0.15559 0.132333 0.096077 0.0905747 0.137566 -0.0891433 0.0789926 0.168649 0.0430838 0.0878604 -0.208321 -0.1384 -0.0324444 0.0434166 -0.246232 0.0345845 0.155772 -0.17458 0.0582606 0.0640747 -0.226857 0.0551929 -0.168155 -0.108282 0.206675 0.228082 0.273305 -0.155831 0.178765 0.0378326 -0.033112 0.230579 0.13319 0.108068 0.070965 -0.256978 -0.0157882 -0.164102 -0.0477703 -0.0145654 0.184728 0.0549418 0.0307638 0.0696097 -0.173691 0.164697 -0.287097 -0.226024 -0.0833639 0.276144 -0.0103628 0.138849 0.14169 -0.00576299 -0.186734 -0.194031 0.0761909 -0.16537 -0.0287819 0.000763533 -0.0360628 -0.0709889 0.153429 -0.0374407 0.152097 -0.032241 0.0408378 0.034906 0.0117359 0.00631911 0.000150658 0.00291172 -0.0726074 -0.0235387 -0.340012 -0.120705 -0.113536 0.0310393 -0.0558419 -0.152455 -0.109737 -0.0032558 -0.0116823 0.0994387 0.0891991 -0.0783217 -0.0423192 -0.0458595 -0.0850595 -0.109781 0.0903633 0.0263809 0.0496342 0.0151911 0.0644749 -0.0731446 0.182356 -0.0299872 -0.107124 -0.0745402 0.0467164 0.10641 -0.103645 -0.103384 -0.106184 0.111942 -0.0484521 0.153795 -0.180547 -0.169084 -0.244944 -0.0337231 -0.158293 -0.203894 0.185758 0.120752 0.0113705 0.0611968 0.153527 0.0147359 0.168968
801 0.0427039 -0.0921523 -0.034872 0.0398519 0.16283 -0.0975321 -0.0382884 -0.0811304 0.0661876 0.0478006 0.0494272 0.0663712 -0.041186 0.0430343 0.0780188 0.0287537 0.0456055 -0.103509 -0.0680685 -0.0160209 0.020663 -0.123514 0.0187636 0.0774181 -0.088107 0.0268875 0.0374554 -0.111714 0.0251053 -0.0823244 -0.0512374 0.10508 0.111187 0.131399 -0.0754814 0.0904706 0.017718 -0.0111159 0.114635 0.0723838 0.0555747 0.0367656 -0.128892 -0.00647492 -0.08029 -0.024181 -0.00807284 0.0932642 0.0304233 0.0148668 0.0367669 -0.0858588 0.0785503 -0.136968 -0.108551 -0.0388635 0.132342 -0.00701927 0.0650525 0.0749072 -0.0043837 -0.0903042 -0.0925342 0.0411717 -0.0828382 -0.0135186 0.000277185 -0.0168886 -0.0378949 0.0704136 -0.0229193 0.0742055 -0.0175659 0.0161937 0.0133603 0.00327657 0.00279236 -0.000484998 0.000924308 -0.0364677 -0.0134015 -0.161641 -0.0639334 -0.0567702 0.00795356 -0.023532 -0.0748619 -0.0517096 -0.00628231 -0.00649083 0.0492006 0.0458019 -0.0377285 -0.0156148 -0.0162368 -0.0397354 -0.0512391 0.0429229 0.0102569 0.0224162 0.00383351 0.0328519 -0.038206 0.0883624 -0.0124775 -0.0513851 -0.0318681 0.0212633 0.0524268 -0.0488772 -0.0461577 -0.0526634 0.0560752 -0.0196767 0.0792823 -0.0881468 -0.0795712 -0.121737 -0.0151067 -0.076612 -0.0980987 0.0885987 0.0662575 0.00161166 0.0283695 0.0778226 0.00864793 0.0819888
924 0.0316188 -0.0890635 -0.0323113 0.0304219 0.150438 -0.0850854 -0.022269 -0.0650583 0.0496376 0.0401706 0.0333837 0.0590321 -0.0351938 0.0291969 0.0689254 0.00704875 0.0321657 -0.0946568 -0.0612903 -0.00431459 0.0139065 -0.106856 0.0159815 0.0669521 -0.0784946 0.027295 0.0211462 -0.0954059 0.0227734 -0.0722907 -0.0495415 0.0906896 0.10552 0.123053 -0.0694247 0.075327 0.0102249 -0.0155281 0.101069 0.054666 0.0453848 0.0313045 -0.114977 -0.00271103 -0.0689872 -0.0211755 -0.00705191 0.0827825 0.0219947 0.0150547 0.0248116 -0.0752539 0.0681207 -0.124641 -0.0966552 -0.0365668 0.11905 0.000460577 0.0576145 0.0605829 -0.00375529 -0.073146 -0.0782277 0.0336187 -0.0715846 -0.0152081 -0.00036539 -0.0136882 -0.027749 0.0651186 -0.0109963 0.0678432 -0.00982854 0.0179607 0.0202947 0.00955992 0.00256189 8.8828e-05 -0.00173024 -0.0190204 -0.00860931 -0.148995 -0.0464446 -0.0449934 0.0144932 -0.021534 -0.0628686 -0.0523671 0.00632468 -0.000241156 0.0389996 0.0345298 -0.0342619 -0.017186 -0.025841 -0.0430658 -0.044968 0.0411798 0.00693934 0.0245366 0.00639365 0.0210533 -0.0335937 0.0788672 -0.00950533 -0.0450806 -0.0319097 0.0273822 0.0439047 -0.0471168 -0.0396232 -0.041221 0.0509462 -0.0204297 0.0572652 -0.0755644 -0.0688909 -0.104137 -0.0103968 -0.0621464 -0.0891149 0.0788354 0.0470945 0.00912611 0.028526 0.0641144 0.00798319 0.0758986
952 0.0808771 -0.110461 -0.0529271 0.0608075 0.216153 -0.143258 -0.0685655 -0.12142 0.103247 0.0761593 0.0788138 0.110563 -0.0668808 0.0766845 0.119774 0.0588158 0.0757311 -0.144832 -0.0981169 -0.0439133 0.0385409 -0.158539 0.018638 0.110698 -0.110703 0.0467509 0.0637101 -0.150015 0.0465237 -0.104903 -0.0761096 0.144394 0.133885 0.169498 -0.106225 0.129093 0.0477517 -0.00768743 0.156609 0.116358 0.0782644 0.0467093 -0.177039 -0.0135795 -0.123383 -0.0321685 0.00668501 0.126508 0.0425896 0.000484561 0.0598904 -0.129101 0.123979 -0.177403 -0.15424 -0.0516798 0.191383 -0.0220725 0.108788 0.112527 -0.011986 -0.147469 -0.140651 0.060309 -0.0933577 -0.0207193 0.000431103 -0.0300314 -0.054522 0.105351 -0.067693 0.0980358 -0.0345845 0.0149504 -0.00537602 -0.0124854 0.0102538 -0.0108247 0.0108215 -0.0854012 -0.0365413 -0.214548 -0.110284 -0.0902881 -0.00304025 -0.0400381 -0.108778 -0.0535029 -0.0245284 -0.019428 0.0813734 0.0691591 -0.0490675 -0.0231807 0.00828929 -0.0335669 -0.0809809 0.0488248 0.0201715 0.0100493 0.00712175 0.0605349 -0.044823 0.11691 -0.0227465 -0.0684273 -0.0455775 0.00864844 0.071278 -0.0677395 -0.0734809 -0.0802453 0.0708525 -0.0282645 0.130271 -0.136067 -0.117611 -0.168855 -0.0260366 -0.118968 -0.147001 0.115215 0.10149 0.000554083 0.018642 0.11224 0.00828966 0.113382
1027 0.038867 -0.0702585 -0.0262437 0.0326651 0.128639 -0.0805502 -0.0333195 -0.0627212 0.0506771 0.0402591 0.0432306 0.0587294 -0.0381516 0.0346405 0.0681144 0.0196869 0.0357121 -0.0824382 -0.0589047 -0.0147242 0.0200904 -0.0957028 0.0116346 0.0635128 -0.0693225 0.0224098 0.0310784 -0.0849127 0.0227895 -0.0634192 -0.0441321 0.0833089 0.0860764 0.10573 -0.0602149 0.0727232 0.0182961 -0.0117793 0.0898922 0.0598442 0.0453741 0.0283656 -0.102341 -0.00568567 -0.0685528 -0.0208237 -0.00196411 0.072664 0.025555 0.00609241 0.0314022 -0.0721096 0.068432 -0.11015 -0.0891927 -0.0281361 0.111304 -0.00285967 0.0581554 0.0552122 -0.00595033 -0.0767045 -0.0731356 0.0293193 -0.0647954 -0.0145343 -0.000929302 -0.0182222 -0.0286005 0.0577025 -0.0209912 0.0550699 -0.0155699 0.0137161 0.00714424 0.00247455 -0.00048423 -0.000785052 0.00124832 -0.0373618 -0.00910127 -0.13468 -0.0484469 -0.0470258 0.00521209 -0.0202862 -0.0636318 -0.0382947 -0.00730729 -0.0113428 0.0437218 0.039817 -0.0333131 -0.0114338 -0.0116236 -0.0276215 -0.0429749 0.0327453 0.0132558 0.0173788 0.00657449 0.0289568 -0.029839 0.0721624 -0.0103192 -0.0384811 -0.028812 0.0158548 0.0448781 -0.0439346 -0.0402197 -0.045646 0.0415778 -0.0191671 0.061899 -0.0766702 -0.0660723 -0.100345 -0.0114066 -0.0653636 -0.0825329 0.0721958 0.0531397 0.000368788 0.0183209 0.0660266 0.00742961 0.0652099
663 0.0302165 -0.0516107 -0.0249124 0.0255855 0.0947863 -0.0557339 -0.0217902 -0.0432052 0.0419188 0.0261689 0.028799 0.0453064 -0.0242296 0.0285457 0.0489171 0.0188722 0.0282759 -0.0585744 -0.0430258 -0.0113332 0.0165738 -0.0687934 0.0117942 0.0455719 -0.0467191 0.0161283 0.0184341 -0.0645595 0.0184642 -0.0464828 -0.0346785 0.0564034 0.063177 0.0770032 -0.047213 0.0507115 0.0171704 -0.00841756 0.0662444 0.0393911 0.0334013 0.017226 -0.0707459 -0.0011987 -0.0520163 -0.012532 -0.00381467 0.0502434 0.0159128 0.00742526 0.0267864 -0.0494443 0.0449758 -0.0782451 -0.0618764 -0.0203961 0.0811415 -0.00859408 0.0424921 0.0456367 -0.000283814 -0.052163 -0.0560251 0.0203444 -0.0474903 -0.00869436 0.00410706 -0.0138592 -0.0191668 0.0408812 -0.0190266 0.042807 -0.00816125 0.00668953 0.00449603 0.00033632 0.00169695 -0.000568126 0.00423465 -0.026972 -0.00752894 -0.0959369 -0.0378446 -0.0317833 0.0072667 -0.0133086 -0.0421571 -0.0291131 -0.00303953 -0.00554509 0.0316214 0.0252859 -0.0188514 -0.0103106 -0.00370596 -0.0170571 -0.0297141 0.0215389 0.00882632 0.0114476 0.000122278 0.0238757 -0.0206421 0.0526305 -0.0103622 -0.0287378 -0.0169749 0.00582959 0.033093 -0.0266543 -0.0285668 -0.0320694 0.0345152 -0.0130628 0.0507159 -0.0498956 -0.0452513 -0.0721317 -0.013699 -0.0462003 -0.0597141 0.0511757 0.0369172 -0.00166089 0.0113908 0.0462701 0.000615807 0.0498666
1005 0.114831 -0.161932 -0.0778033 0.0920683 0.314514 -0.210584 -0.108527 -0.16884 0.143175 0.104475 0.114924 0.158149 -0.0899831 0.108806 0.167868 0.0769541 0.107301 -0.203247 -0.139775 -0.0544017 0.0531074 -0.23524 0.0326691 0.156002 -0.168724 0.0623946 0.094375 -0.213238 0.063755 -0.157272 -0.118845 0.209003 0.198754 0.24189 -0.158513 0.182698 0.0721196 -0.01765 0.225127 0.161075 0.107867 0.0676224 -0.256309 -0.0156113 -0.178496 -0.0412709 0.00474677 0.182591 0.0635937 -0.00368692 0.0869183 -0.186822 0.172451 -0.25477 -0.221696 -0.0672882 0.274002 -0.026162 0.152916 0.148378 -0.0119932 -0.205344 -0.191142 0.0909198 -0.147129 -0.0374783 -0.00101012 -0.0423832 -0.0686752 0.145857 -0.0898956 0.137701 -0.0447473 0.0200237 -0.00183093 -0.0234013 0.0140155 -0.00644193 0.0201703 -0.108346 -0.0447509 -0.316288 -0.161463 -0.132969 0.000378459 -0.058454 -0.159151 -0.0829639 -0.0220815 -0.0381954 0.11004 0.101245 -0.0690852 -0.0380807 0.00120311 -0.0531309 -0.116923 0.0711547 0.0283709 0.0209561 0.011427 0.0782588 -0.0636298 0.17056 -0.0339714 -0.0980004 -0.0801912 0.0178072 0.105033 -0.102505 -0.102945 -0.119668 0.105385 -0.039249 0.188864 -0.192095 -0.173761 -0.253191 -0.0418319 -0.168186 -0.207287 0.164529 0.14765 -0.00204666 0.0286045 0.163028 0.00511752 0.160785
1142 0.152859 -0.10135 -0.0750917 0.0823336 0.238129 -0.182792 -0.136017 -0.169243 0.145826 0.122393 0.135698 0.172398 -0.0793596 0.146468 0.150298 0.139474 0.141348 -0.172041 -0.124005 -0.0961002 0.0673023 -0.176465 0.0168546 0.141014 -0.129721 0.0541287 0.129546 -0.184378 0.078935 -0.128265 -0.0987518 0.184835 0.132137 0.181047 -0.144147 0.181645 0.106804 0.014649 0.201984 0.188143 0.106183 0.0453786 -0.231143 -0.024685 -0.183058 -0.0414097 0.0287646 0.158257 0.0660555 -0.0337507 0.107435 -0.179805 0.172036 -0.178815 -0.180921 -0.0485603 0.250873 -0.0459325 0.151755 0.156916 -0.0201761 -0.220095 -0.193099 0.0826262 -0.0989605 -0.0295161 0.000741096 -0.0491898 -0.0770504 0.130476 -0.144779 0.105559 -0.0837052 -0.00579619 -0.0632935 -0.0590862 0.010277 -0.0236127 0.0364435 -0.170192 -0.0715238 -0.247573 -0.195377 -0.153262 -0.0399063 -0.0523635 -0.153303 -0.0357171 -0.0632599 -0.0477658 0.132577 0.110479 -0.0570098 -0.0339995 0.0786475 5.87733e-06 -0.121197 0.0455143 0.0394162 -0.0204575 0.00634483 0.102845 -0.0420111 0.133641 -0.0264383 -0.0777624 -0.0625819 -0.0300755 0.0898384 -0.0728156 -0.107202 -0.118823 0.091904 -0.0313659 0.219362 -0.181371 -0.154902 -0.221859 -0.0446117 -0.172141 -0.191626 0.124329 0.165139 -0.0239346 -0.0153396 0.168797 -0.00465721 0.133671
1079 0.056029 -0.00973857 -0.0207543 0.0255598 0.0440639 -0.0482474 -0.0600767 -0.0475408 0.0420202 0.03844 0.0496023 0.0624413 -0.0215246 0.0583845 0.0403863 0.0585077 0.0516123 -0.0429918 -0.0355039 -0.0389568 0.0309652 -0.0340073 0.00427511 0.0338569 -0.0230628 0.0173714 0.0484533 -0.0423786 0.0268103 -0.0247252 -0.0250405 0.049665 0.0137583 0.0325013 -0.0380431 0.0541114 0.0520033 0.0160132 0.0517043 0.0637337 0.0307888 0.009411 -0.0530856 -0.00540455 -0.0556036 -0.00717573 0.0180962 0.0348747 0.0161706 -0.0289961 0.0423728 -0.0560605 0.0544136 -0.0296997 -0.0405142 -0.000528626 0.0588158 -0.0256156 0.0456463 0.0442102 -0.00536635 -0.068784 -0.0551932 0.0300209 -0.00901729 -0.0106978 -0.00136902 -0.0170336 -0.0196197 0.0335749 -0.0717527 0.0212904 -0.0337067 -0.011056 -0.038084 -0.0295423 0.00332665 -0.013662 0.0203739 -0.0672466 -0.0320616 -0.0453976 -0.078113 -0.0496377 -0.0257702 -0.0147681 -0.0410498 0.00634359 -0.0335486 -0.022787 0.0424897 0.0377804 -0.00652669 -0.0120367 0.0472027 0.0229009 -0.0376562 0.00392543 0.0139494 -0.0180135 0.00273611 0.0370163 -0.00674649 0.0286644 -0.00539031 -0.00909827 -0.0151212 -0.0248512 0.024632 -0.0132967 -0.0277492 -0.0348169 0.0216486 -0.00782237 0.0822553 -0.0516582 -0.0361052 -0.0525829 -0.0125319 -0.0512798 -0.0500538 0.0220435 0.0536735 -0.0141846 -0.0252787 0.0478986 -0.00687483 0.022628
328 0.0209124 -0.0640648 -0.0208123 0.0232717 0.100877 -0.0582765 -0.0121591 -0.0388845 0.0302825 0.026694 0.0195091 0.0306621 -0.0218129 0.0103059 0.0433778 0.000244919 0.0156064 -0.0578349 -0.0363982 0.00373772 0.00588396 -0.0770253 0.00904645 0.0464156 -0.0528309 0.0140733 0.0117703 -0.0683487 0.0103719 -0.0460226 -0.0277674 0.0550107 0.071787 0.0818532 -0.0426259 0.0496665 0.00567618 -0.0187426 0.0652086 0.0314774 0.0281357 0.0196168 -0.0749904 0.000159227 -0.043879 -0.0109136 -0.010474 0.0513685 0.0111272 0.0157656 0.0113136 -0.0435458 0.0403875 -0.086714 -0.0676619 -0.0237104 0.0772707 -0.000615074 0.0350575 0.0349312 -0.00022089 -0.0487534 -0.0518 0.0175642 -0.0487779 -0.011077 0.00340301 -0.00671888 -0.0140033 0.0430302 0.000843021 0.0481447 -0.000498033 0.012089 0.0176706 0.00919299 0.00208485 0.00617042 -0.00288433 -0.00483752 0.00266676 -0.101113 -0.0256337 -0.028947 0.0175407 -0.0115549 -0.0370511 -0.0414384 0.00686033 0.00229802 0.0196794 0.020686 -0.0218183 -0.00761711 -0.0283395 -0.0293453 -0.0288423 0.0287162 0.00769591 0.0235017 0.00543753 0.00914448 -0.0228225 0.0524642 -0.00334435 -0.0340731 -0.0201982 0.0190216 0.0324584 -0.0279998 -0.0280448 -0.0230244 0.028315 -0.0127929 0.0294913 -0.0464002 -0.0440194 -0.0731151 -0.00491368 -0.0385903 -0.0541621 0.0544139 0.026533 0.00713342 0.0209616 0.0403384 0.0079343 0.0470178
575 0.096586 -0.185175 -0.0724895 0.0847352 0.331288 -0.206151 -0.0763767 -0.160626 0.133884 0.0970219 0.100147 0.148094 -0.0889047 0.0850265 0.169266 0.0570219 0.0945984 -0.207574 -0.138753 -0.037545 0.0521127 -0.244827 0.0379493 0.163183 -0.173029 0.061551 0.0711604 -0.219835 0.0617618 -0.161765 -0.110375 0.206621 0.219826 0.265589 -0.157996 0.181874 0.0445403 -0.0282066 0.233784 0.147619 0.108034 0.0718429 -0.264513 -0.0153851 -0.166974 -0.0442815 -0.00967739 0.187095 0.06051 0.0201601 0.0778245 -0.176905 0.166736 -0.276876 -0.229693 -0.0749087 0.281531 -0.0171124 0.143067 0.145966 -0.00627744 -0.191566 -0.191964 0.0776429 -0.157555 -0.0301185 0.00466645 -0.0398953 -0.071856 0.151631 -0.0571682 0.143982 -0.0357629 0.0349807 0.0197779 0.00264544 0.00554361 -0.000929298 0.0092936 -0.0844166 -0.0331469 -0.335521 -0.126943 -0.124148 0.0239071 -0.0537435 -0.154373 -0.100705 -0.012002 -0.0229992 0.106514 0.0962031 -0.0756903 -0.0352403 -0.0274434 -0.0779085 -0.110034 0.0891331 0.021805 0.0390886 0.0147916 0.0665175 -0.0677332 0.182318 -0.0274819 -0.10285 -0.0733295 0.0410968 0.109536 -0.100631 -0.0983655 -0.107784 0.110632 -0.0454788 0.163026 -0.185945 -0.168569 -0.245398 -0.0379984 -0.157803 -0.205529 0.180119 0.127933 0.00768321 0.0479899 0.156981 0.0149978 0.170914
921 0.13625 -0.116264 -0.082838 0.0849839 0.253774 -0.193762 -0.130538 -0.165476 0.149793 0.114673 0.129234 0.17683 -0.0854665 0.139429 0.157638 0.126742 0.1287 -0.179828 -0.133225 -0.0848251 0.0700345 -0.190671 0.0258838 0.140047 -0.136951 0.059164 0.116792 -0.186798 0.0748 -0.138565 -0.105378 0.192906 0.146423 0.193475 -0.146456 0.177489 0.102799 0.00488262 0.210318 0.185035 0.107787 0.0550126 -0.235384 -0.0217626 -0.186117 -0.0341967 0.0229218 0.158324 0.0633055 -0.0291348 0.105209 -0.182908 0.175707 -0.199932 -0.190285 -0.0522646 0.251032 -0.0410456 0.150026 0.160548 -0.0200008 -0.212316 -0.18901 0.0890825 -0.108686 -0.0289857 -0.00466985 -0.0467447 -0.0771228 0.137653 -0.129525 0.112431 -0.0770038 -0.00105019 -0.0502387 -0.0517487 0.0133205 -0.0174789 0.0308193 -0.151137 -0.071247 -0.263781 -0.190025 -0.146319 -0.0274479 -0.051691 -0.15643 -0.0445321 -0.0575302 -0.0462167 0.129825 0.106377 -0.0554115 -0.0404639 0.0526986 -0.0107249 -0.117556 0.0564172 0.0342742 -0.00976708 0.00534065 0.0913543 -0.0451037 0.148873 -0.0346491 -0.0802221 -0.0684307 -0.0232078 0.0916584 -0.0776984 -0.102392 -0.120071 0.0949517 -0.0356194 0.210063 -0.184869 -0.156634 -0.228159 -0.0488262 -0.170367 -0.196934 0.137837 0.157627 -0.0177502 -0.00365667 0.165408 0.000561649 0.13604
214 0.0411006 -0.111654 -0.0376655 0.0425078 0.193674 -0.118916 -0.0305896 -0.0867675 0.0725086 0.0481014 0.0495644 0.0733968 -0.052552 0.0384617 0.0922454 0.0160709 0.0416377 -0.120169 -0.0759911 -0.0133565 0.023133 -0.141858 0.0221391 0.0916845 -0.0988089 0.0349739 0.0311785 -0.126228 0.0319948 -0.0939308 -0.0584402 0.112785 0.130405 0.159156 -0.0844998 0.098132 0.0178216 -0.0216265 0.128267 0.0682299 0.0594478 0.0411873 -0.149589 -0.00896027 -0.0867931 -0.0218654 -0.00901199 0.103113 0.0312719 0.0255135 0.0343816 -0.0944523 0.0835406 -0.16182 -0.126003 -0.0510364 0.154541 -0.00304312 0.0768875 0.0748745 -0.00676527 -0.09824 -0.10861 0.042128 -0.0938027 -0.0147479 0.00090276 -0.0184242 -0.0344581 0.0801601 -0.00998252 0.0829519 -0.0140895 0.0280337 0.0251267 0.00954593 0.00122875 0.00217875 -0.000754294 -0.0290785 -0.0064364 -0.191201 -0.057123 -0.0561628 0.0229835 -0.0286942 -0.0829093 -0.0651336 0.00321209 -0.00578394 0.0497941 0.0481599 -0.0427681 -0.0182549 -0.034469 -0.0533147 -0.0534969 0.0507245 0.0145877 0.032447 0.00881764 0.0314052 -0.0454415 0.104209 -0.0124456 -0.0619698 -0.0411685 0.0291333 0.0603493 -0.0611447 -0.0539009 -0.0528681 0.0633265 -0.0288161 0.0738732 -0.100727 -0.0964073 -0.135201 -0.0189729 -0.0876059 -0.112445 0.108563 0.0637026 0.0102738 0.0379337 0.0823826 0.00808188 0.100861
883 0.0581663 -0.101208 -0.0399658 0.0482105 0.187851 -0.121602 -0.0490229 -0.0939548 0.0787189 0.0601125 0.0574745 0.0850622 -0.0495337 0.0477269 0.0984936 0.0289676 0.0557049 -0.122564 -0.0817315 -0.02135 0.027353 -0.136778 0.0204033 0.0934486 -0.0940242 0.0354083 0.0393987 -0.122685 0.0338136 -0.0906026 -0.0649275 0.117728 0.122856 0.15334 -0.0934034 0.106775 0.028651 -0.012207 0.134438 0.083301 0.063779 0.0432231 -0.146709 -0.00587042 -0.100691 -0.0218804 -0.00190567 0.104069 0.0353484 0.010215 0.0421723 -0.0993559 0.0909144 -0.155091 -0.131051 -0.0416459 0.154726 -0.00940133 0.0819455 0.0870552 -0.00478413 -0.109502 -0.106538 0.0441864 -0.0893882 -0.0215871 0.0048449 -0.0214857 -0.0413464 0.0880988 -0.0313107 0.0842774 -0.022887 0.0148447 0.00772944 0.000772169 0.00204012 -0.00202736 0.00925808 -0.0513778 -0.018396 -0.19108 -0.0754597 -0.0703848 0.00820691 -0.0346543 -0.0886454 -0.0554794 -0.00563427 -0.0099643 0.0569575 0.0506984 -0.0393757 -0.0236005 -0.0134041 -0.0430817 -0.0623323 0.0455035 0.0169086 0.021413 0.0108321 0.0351918 -0.0399413 0.105459 -0.0164305 -0.0563823 -0.0382749 0.0185175 0.0599 -0.0587282 -0.0604494 -0.0590667 0.0638735 -0.024243 0.0966916 -0.104672 -0.0960636 -0.139847 -0.0234916 -0.0951222 -0.114173 0.102312 0.0733977 0.0017326 0.024569 0.0892982 0.00808503 0.0940306
315 0.0163387 -0.0518921 -0.018581 0.0157454 0.0805112 -0.0498555 -0.0100305 -0.0313489 0.0243332 0.0224434 0.0181252 0.0273214 -0.0229653 0.0153032 0.0343679 0.00382802 0.0125671 -0.0491735 -0.0349393 -0.000173461 0.00952362 -0.0630633 0.0130705 0.0330345 -0.0458051 0.0143109 0.0110051 -0.0518671 0.0145676 -0.0398832 -0.0252137 0.0480505 0.0533674 0.0661667 -0.0352103 0.0390805 0.00278468 -0.0118292 0.0498971 0.0294599 0.020132 0.015539 -0.0580456 -0.00220537 -0.0342311 -0.0138409 -0.00501528 0.0402295 0.00846003 0.0132009 0.010371 -0.0358235 0.030855 -0.0683519 -0.0512459 -0.0194822 0.0666 0.00347367 0.0303544 0.029324 -0.00384093 -0.0415339 -0.0420276 0.0189483 -0.0434985 -0.0072255 -0.000136609 -0.00536567 -0.0124442 0.0333397 -0.00447309 0.0362682 -0.00635562 0.00892612 0.0160845 0.00611871 -0.00187691 0.00446647 0.0022931 -0.00923213 0.00140956 -0.0830089 -0.0235467 -0.0262304 0.0116962 -0.0137455 -0.0301027 -0.0315062 0.00200178 0.000693224 0.022856 0.0190062 -0.021544 -0.00793895 -0.0180036 -0.0267595 -0.0205633 0.0221186 0.00499851 0.0125837 0.00130587 0.0115399 -0.015961 0.0447699 -0.00511469 -0.0261957 -0.0154947 0.0187748 0.0209189 -0.0249609 -0.024868 -0.0204784 0.027238 -0.0112947 0.0314497 -0.0368786 -0.0391649 -0.0562608 -0.00920046 -0.0344473 -0.0439823 0.0464024 0.0270538 0.00184747 0.0183664 0.0324305 0.00563158 0.0443767
906 0.238121 -0.0362919 -0.100511 0.118279 0.187514 -0.206333 -0.242404 -0.210701 0.19908 0.171278 0.205745 0.255403 -0.0935003 0.244861 0.176088 0.246805 0.216398 -0.171821 -0.149601 -0.177012 0.121305 -0.146794 0.00966269 0.139157 -0.108596 0.0742474 0.211122 -0.177628 0.114234 -0.127493 -0.119915 0.207289 0.0675947 0.127037 -0.158535 0.220234 0.205313 0.0622448 0.216706 0.280537 0.129228 0.0377894 -0.243822 -0.0309737 -0.246057 -0.0348397 0.0787454 0.161816 0.0819642 -0.111264 0.164918 -0.227734 0.234398 -0.121308 -0.175319 -0.0210078 0.275134 -0.0975027 0.203189 0.211416 -0.0326575 -0.291505 -0.227799 0.110954 -0.0396249 -0.0318258 -0.0132357 -0.0652668 -0.101964 0.15211 -0.282181 0.0849831 -0.15358 -0.0544693 -0.167733 -0.133506 0.0244568 -0.0471348 0.0749294 -0.299403 -0.141589 -0.212054 -0.318151 -0.212387 -0.108904 -0.0654997 -0.183237 0.040043 -0.138993 -0.108236 0.188993 0.143894 -0.0398714 -0.0396365 0.205736 0.085513 -0.150319 0.0124794 0.0533038 -0.0829989 0.000892081 0.159834 -0.0173561 0.12817 -0.0400457 -0.0597813 -0.0710936 -0.113346 0.0949867 -0.0621817 -0.135014 -0.168983 0.091918 -0.018339 0.337451 -0.21374 -0.176548 -0.240619 -0.0656218 -0.231231 -0.208661 0.101268 0.232477 -0.0533013 -0.0875261 0.208412 -0.0247881 0.107744
993 0.154669 -0.0431256 -0.0708995 0.0811915 0.147565 -0.144135 -0.156672 -0.14315 0.138518 0.111292 0.137445 0.165927 -0.0664532 0.15591 0.12698 0.153103 0.141807 -0.133587 -0.108665 -0.106285 0.0741985 -0.110584 0.0114442 0.100527 -0.0910565 0.0511525 0.132598 -0.133941 0.0762511 -0.0965053 -0.0876887 0.154295 0.0636304 0.105226 -0.117952 0.146314 0.12774 0.0344475 0.160499 0.185443 0.0842687 0.0337716 -0.179759 -0.0169158 -0.170084 -0.0293852 0.0488307 0.116357 0.0591612 -0.0664602 0.106206 -0.157207 0.158069 -0.11063 -0.131895 -0.0189594 0.195276 -0.0602503 0.13662 0.141037 -0.0238204 -0.196564 -0.154146 0.0767638 -0.0447299 -0.021673 -0.00727022 -0.0404686 -0.0635412 0.110716 -0.172502 0.0659423 -0.0932183 -0.0315653 -0.101546 -0.0858759 0.0170408 -0.0268637 0.0462311 -0.185839 -0.0894897 -0.166596 -0.210517 -0.143236 -0.0644768 -0.0439552 -0.12586 0.0113702 -0.0842541 -0.065049 0.12091 0.0963089 -0.0343432 -0.0321326 0.115789 0.0386663 -0.106691 0.0222489 0.0360425 -0.0421592 0.00444489 0.0996836 -0.0236599 0.0983548 -0.0320624 -0.0469066 -0.0530544 -0.0635999 0.068853 -0.0497064 -0.0911515 -0.110984 0.0667479 -0.0148404 0.224859 -0.149353 -0.12095 -0.170333 -0.0432355 -0.156672 -0.151613 0.0872758 0.157509 -0.0294288 -0.0464636 0.140715 -0.0126094 0.0844362
374 0.0418704 -0.119155 -0.0366632 0.0427116 0.19785 -0.117308 -0.0278807 -0.0902358 0.0732647 0.0523625 0.051397 0.0783407 -0.0559999 0.034479 0.0935456 0.0170135 0.0437051 -0.122737 -0.0807589 -0.00921949 0.0258729 -0.145464 0.0263839 0.0889552 -0.1036 0.0342606 0.0308256 -0.129789 0.03191 -0.0957855 -0.0601783 0.118901 0.141339 0.158802 -0.0875686 0.103103 0.0131391 -0.0278705 0.134336 0.0698314 0.0597677 0.0487682 -0.152348 -0.0102032 -0.0904998 -0.0242818 -0.00879396 0.1063 0.0312911 0.026655 0.035063 -0.0938728 0.092734 -0.167361 -0.130901 -0.0535057 0.159015 -0.000905112 0.0760179 0.0760044 -0.00163506 -0.097957 -0.106352 0.0393617 -0.0987552 -0.0180713 0.00477834 -0.0190482 -0.0370514 0.0847943 -0.0105592 0.0911311 -0.0102093 0.024103 0.0312647 0.0117329 0.00432069 0.003013 -0.00247936 -0.0346448 -0.0060545 -0.198355 -0.0577866 -0.0643123 0.0198611 -0.0328724 -0.0800947 -0.0735599 0.00810391 -0.00642864 0.050486 0.0496072 -0.0432272 -0.0190774 -0.0371397 -0.0555162 -0.0585861 0.0556725 0.0139892 0.032768 0.00997723 0.0344552 -0.0396458 0.106047 -0.01303 -0.0653384 -0.0372147 0.0316609 0.0637735 -0.0646112 -0.0527547 -0.0553543 0.0620761 -0.0305517 0.0761686 -0.101563 -0.0962891 -0.140291 -0.0183393 -0.0878936 -0.119361 0.11103 0.0621949 0.00587683 0.037345 0.0901007 0.0114093 0.0981783
417 0.0683881 -0.176958 -0.0598814 0.0673799 0.304997 -0.178509 -0.0492742 -0.137135 0.112695 0.0847391 0.0763487 0.121116 -0.0829668 0.0610797 0.145322 0.02615 0.0696987 -0.185116 -0.121321 -0.016999 0.0342445 -0.224476 0.0343935 0.13799 -0.158066 0.0515349 0.0505878 -0.197539 0.0480292 -0.142305 -0.090819 0.178609 0.20666 0.246278 -0.138014 0.159035 0.0241618 -0.0363043 0.200853 0.111273 0.0932311 0.0695612 -0.230002 -0.0132526 -0.13704 -0.0405122 -0.00960142 0.162112 0.0447542 0.0295926 0.0596158 -0.14602 0.136279 -0.259644 -0.205942 -0.0745927 0.243473 -0.0079799 0.119465 0.125993 -0.00427786 -0.156862 -0.162807 0.0642871 -0.151371 -0.0259898 0.00561478 -0.0301938 -0.0606869 0.128145 -0.0226604 0.138171 -0.0194689 0.0346636 0.0390604 0.0151911 0.00733055 0.00410863 -0.000368012 -0.0530128 -0.0174156 -0.298571 -0.0932043 -0.0948188 0.0337917 -0.0473518 -0.128103 -0.10397 0.00548256 -0.0133001 0.080777 0.0754789 -0.0713518 -0.0358134 -0.0488556 -0.0804353 -0.0918541 0.0817567 0.0226042 0.0431663 0.011876 0.0490487 -0.0618033 0.162688 -0.0211854 -0.0994336 -0.0643855 0.050797 0.0908416 -0.0949756 -0.0834442 -0.0902099 0.0959534 -0.0443184 0.12304 -0.160453 -0.150447 -0.214677 -0.0270949 -0.136506 -0.180026 0.161329 0.10151 0.0166107 0.0614086 0.132895 0.0196996 0.15064
741 0.0782134 -0.132214 -0.0544654 0.0578673 0.239414 -0.153118 -0.0637694 -0.121292 0.10088 0.0728612 0.0795498 0.111108 -0.0639418 0.0702292 0.122153 0.0473046 0.0704842 -0.1519 -0.0997852 -0.028249 0.0375466 -0.179907 0.0245057 0.117923 -0.127994 0.0478406 0.0530099 -0.163611 0.0454677 -0.119068 -0.0804516 0.155798 0.155234 0.193102 -0.118204 0.136483 0.0348357 -0.0200782 0.173834 0.106401 0.0789282 0.0491052 -0.192394 -0.00960116 -0.127005 -0.0282112 0.00118267 0.13813 0.0408072 0.0115042 0.0596968 -0.12774 0.121963 -0.196569 -0.169419 -0.0582373 0.20615 -0.0152361 0.105959 0.111328 -0.00723434 -0.14293 -0.147474 0.0562965 -0.115601 -0.0246374 0.00489 -0.0279231 -0.0562359 0.114176 -0.047155 0.104834 -0.0304426 0.0200266 0.00987939 -3.25738e-05 0.00695694 -0.00210379 0.00698786 -0.070776 -0.0237604 -0.239714 -0.10103 -0.0932619 0.0123235 -0.0386249 -0.111576 -0.070669 -0.0109653 -0.0163312 0.0743871 0.0706105 -0.054486 -0.0248885 -0.0183342 -0.0523337 -0.0811677 0.0616265 0.0234982 0.0259944 0.00935724 0.0487103 -0.0527951 0.129406 -0.0189405 -0.0796356 -0.0563873 0.0235017 0.0744145 -0.0764368 -0.07555 -0.0827506 0.0785988 -0.0348617 0.119636 -0.138754 -0.122642 -0.180516 -0.0261721 -0.11584 -0.154414 0.128942 0.0975803 0.00382312 0.0308323 0.116945 0.00806779 0.12363
743 0.0281419 -0.0442509 -0.0168257 0.020051 0.0753426 -0.0514303 -0.0240687 -0.0353001 0.0326128 0.0257779 0.0250992 0.0326196 -0.0199585 0.0216555 0.0367509 0.015815 0.024206 -0.0512224 -0.0322998 -0.00780449 0.0132316 -0.0534049 0.00880086 0.0385334 -0.0401034 0.0162293 0.0218103 -0.0533467 0.0148742 -0.0352922 -0.0282032 0.0519902 0.0516336 0.0613472 -0.0344561 0.0408356 0.0150528 -0.00399413 0.0510765 0.0387217 0.0274245 0.0191043 -0.0636648 -0.00719657 -0.0423218 -0.0113601 -0.000394589 0.0444597 0.0103823 0.00483545 0.0192824 -0.0438775 0.0410955 -0.0591887 -0.052972 -0.0183395 0.0673424 -0.0018985 0.0309439 0.033024 0.000642196 -0.0433969 -0.0475017 0.0193765 -0.0391181 -0.00816734 0.00278395 -0.00702215 -0.0156488 0.0355044 -0.016664 0.0301118 -0.00813731 0.00368962 0.00577097 -0.0018728 0.00175202 -0.00268933 0.000265868 -0.0248495 -0.00668526 -0.0804514 -0.0350961 -0.0290214 0.00101701 -0.0164693 -0.0378453 -0.0232664 -0.00160082 -0.00334193 0.0240488 0.0242193 -0.0174858 -0.006273 -0.00694583 -0.0192274 -0.0236231 0.0199259 0.00468235 0.00727344 0.00338432 0.0198147 -0.0189869 0.0416151 -0.00479377 -0.0206819 -0.0168361 0.00659293 0.0218603 -0.0257619 -0.026046 -0.0258683 0.0279305 -0.0133402 0.0394309 -0.042724 -0.0426655 -0.0551107 -0.0102439 -0.0412225 -0.047408 0.0433944 0.0291023 0.00229694 0.00830133 0.0353044 0.00325147 0.0373265
1009 0.0750348 -0.126573 -0.0564068 0.0671673 0.24268 -0.157187 -0.0636181 -0.126311 0.099186 0.0769481 0.0764901 0.115396 -0.0688154 0.0751778 0.128263 0.0535554 0.0766691 -0.15915 -0.106752 -0.0384754 0.0412909 -0.179822 0.0265217 0.118395 -0.123808 0.045203 0.0613764 -0.163 0.0464967 -0.122935 -0.084337 0.15305 0.160002 0.194344 -0.116783 0.134917 0.0426825 -0.0155286 0.174903 0.111277 0.082003 0.0522423 -0.192178 -0.0109448 -0.129069 -0.0327175 -0.00176772 0.13547 0.0417794 0.00651925 0.0614276 -0.131498 0.128816 -0.203878 -0.169308 -0.0519784 0.206899 -0.0122013 0.104849 0.110661 -0.0114045 -0.14663 -0.145457 0.0592855 -0.112119 -0.0274116 0.000893376 -0.0341914 -0.0508009 0.112659 -0.0518942 0.103947 -0.0283981 0.0182013 0.00804987 -0.004563 0.00530028 -0.00598258 0.00675458 -0.0713193 -0.0321673 -0.242836 -0.108354 -0.0928926 0.0135749 -0.0448819 -0.119181 -0.0699379 -0.00956081 -0.0183495 0.0782679 0.0701679 -0.0524438 -0.032322 -0.0131156 -0.0526266 -0.0882788 0.0633922 0.0189384 0.0227915 0.0117833 0.0567071 -0.0467321 0.129044 -0.0255506 -0.0794499 -0.0554574 0.0224346 0.0783314 -0.0740794 -0.0808517 -0.0836477 0.083046 -0.028239 0.133057 -0.14024 -0.129283 -0.186931 -0.0316126 -0.123313 -0.153547 0.127141 0.106146 0.0046159 0.0326947 0.116411 0.00819195 0.126891
1058 0.0941087 -0.147558 -0.0632261 0.0707234 0.28272 -0.183021 -0.0740548 -0.145685 0.1207 0.0858704 0.092035 0.136192 -0.0813568 0.0804221 0.148664 0.0554115 0.0891459 -0.179398 -0.122717 -0.0415247 0.0449105 -0.205943 0.0293119 0.138191 -0.145457 0.0577328 0.0693784 -0.191717 0.0585814 -0.135706 -0.0989899 0.181742 0.183258 0.223943 -0.140988 0.162607 0.0490577 -0.0201287 0.202221 0.132073 0.100012 0.0595393 -0.226843 -0.0117016 -0.149738 -0.0379313 0.00136838 0.156128 0.048439 0.0139693 0.0717147 -0.157897 0.144934 -0.231355 -0.190346 -0.0661944 0.238181 -0.0181848 0.126061 0.131813 -0.00857092 -0.173828 -0.170323 0.0760605 -0.131546 -0.0283078 -0.00146951 -0.0360284 -0.062721 0.133156 -0.0584255 0.11991 -0.0349484 0.0195726 0.0100984 -0.00561301 0.0114187 -0.00643372 0.0139474 -0.0855827 -0.0331567 -0.281398 -0.122293 -0.110519 0.014622 -0.0475434 -0.131801 -0.0838705 -0.0113815 -0.023435 0.0958597 0.0828033 -0.0602922 -0.0351532 -0.0167725 -0.0546545 -0.0950581 0.070911 0.0214437 0.0295271 0.0098426 0.0645536 -0.0547732 0.150871 -0.0266888 -0.0876315 -0.0602504 0.02699 0.0879138 -0.0903676 -0.0938386 -0.100856 0.0916826 -0.0395492 0.154319 -0.164665 -0.14416 -0.213171 -0.0342899 -0.140906 -0.17674 0.150903 0.119249 0.000426046 0.0361011 0.136352 0.0115598 0.141322
704 0.0275371 -0.0454956 -0.0193761 0.021216 0.080636 -0.0537645 -0.0242149 -0.0408611 0.0324321 0.0302161 0.0284368 0.0408915 -0.0229901 0.0269332 0.0432265 0.0137828 0.026975 -0.0504419 -0.0353901 -0.0102096 0.016911 -0.0622077 0.0130094 0.0385788 -0.0437534 0.0150917 0.0226178 -0.0576136 0.016621 -0.0429723 -0.028508 0.0573692 0.0576488 0.0706309 -0.0408057 0.0488551 0.0173484 -0.00724192 0.0577098 0.0366609 0.0285263 0.0203082 -0.0702374 -0.00562812 -0.0453405 -0.0121693 -0.00140094 0.0508623 0.0154609 0.00130128 0.0175235 -0.0453271 0.0410155 -0.0725231 -0.0551048 -0.0219057 0.0687805 -0.00889957 0.0361101 0.0381255 -0.000732819 -0.0476322 -0.052016 0.0193331 -0.0399043 -0.00573405 -0.000508042 -0.0141597 -0.0185591 0.0382007 -0.0159988 0.0332091 -0.00688447 0.00802758 0.00491742 -0.00277771 0.00350829 -0.000435328 0.00609249 -0.0249446 -0.0127783 -0.0879106 -0.0372127 -0.0322974 0.00222008 -0.01756 -0.0405216 -0.026081 -0.00210473 -0.00873935 0.0308658 0.0227577 -0.0189773 -0.0136345 -0.0058936 -0.0146462 -0.0290677 0.0229365 0.00372032 0.00948719 0.000466832 0.0217801 -0.0155739 0.0426127 -0.00655875 -0.0300738 -0.020061 0.0104505 0.0254825 -0.0284285 -0.0285794 -0.0298561 0.0295285 -0.010857 0.0465216 -0.0500824 -0.0444497 -0.060372 -0.0124829 -0.0386932 -0.0563541 0.0445958 0.0334234 0.0041997 0.014223 0.0380167 0.00416628 0.0420418
781 0.245432 -0.078321 -0.111865 0.125195 0.249216 -0.234052 -0.245732 -0.236319 0.217422 0.178218 0.217012 0.274779 -0.110848 0.250998 0.201668 0.249682 0.225332 -0.209022 -0.173601 -0.173867 0.118844 -0.183872 0.0178474 0.164322 -0.14425 0.0842714 0.212887 -0.217771 0.121149 -0.160242 -0.14059 0.240631 0.110097 0.182111 -0.182085 0.242874 0.205287 0.0571465 0.254555 0.295329 0.140867 0.0468509 -0.281224 -0.0275601 -0.271058 -0.0396368 0.0716201 0.189674 0.0942953 -0.0986669 0.171316 -0.254225 0.259645 -0.174894 -0.219218 -0.0323813 0.317104 -0.0953932 0.221319 0.232861 -0.0339485 -0.314163 -0.253804 0.123612 -0.0739641 -0.0375129 -0.00460847 -0.0671465 -0.106888 0.17514 -0.282182 0.111474 -0.153096 -0.0445175 -0.158831 -0.127178 0.0236646 -0.0492136 0.0760846 -0.300849 -0.140127 -0.274787 -0.329581 -0.233064 -0.0977593 -0.0729169 -0.204301 0.0125673 -0.131627 -0.101187 0.207485 0.164159 -0.0558185 -0.0475098 0.184108 0.0566472 -0.168829 0.0329953 0.0558753 -0.0716818 0.00720256 0.158418 -0.031573 0.158311 -0.042072 -0.0755535 -0.0890759 -0.102231 0.112725 -0.0832706 -0.145741 -0.181184 0.11075 -0.0316829 0.35685 -0.246247 -0.200396 -0.277991 -0.0732218 -0.252917 -0.250834 0.137334 0.256999 -0.0493541 -0.0776348 0.22311 -0.0187017 0.145913
665 0.0146523 -0.0745904 -0.0169271 0.0194393 0.11891 -0.0596842 -0.00220532 -0.0448895 0.0299199 0.0203709 0.0167697 0.0299277 -0.0238998 0.00434139 0.0463657 -0.0105943 0.0115996 -0.0707602 -0.0412449 0.00365119 0.00643027 -0.0882144 0.0116739 0.0521829 -0.056128 0.0145154 0.00568022 -0.0686825 0.0118927 -0.0507315 -0.0327861 0.0592897 0.0823506 0.0972615 -0.0505868 0.0486362 -0.00512018 -0.0216964 0.0709885 0.0261801 0.02786 0.0225787 -0.0815616 -0.0057135 -0.0419105 -0.0179804 -0.015404 0.0593467 0.0118025 0.022334 0.0151478 -0.0495366 0.0411858 -0.0983664 -0.0768269 -0.0302826 0.083874 0.00626595 0.035556 0.0347993 -0.00387821 -0.043038 -0.0537101 0.0192804 -0.0581749 -0.00532793 0.00261098 -0.00515733 -0.0187336 0.0473672 0.0134505 0.051051 0.00597921 0.0194157 0.0298178 0.0156711 -0.00143102 0.00253334 -0.00662861 0.00310438 0.00318333 -0.113372 -0.0120507 -0.020188 0.0190891 -0.0175344 -0.0423312 -0.0455827 0.0147216 0.00633796 0.0232366 0.0205443 -0.0282018 -0.0118641 -0.0353651 -0.0414193 -0.0273079 0.0366737 0.00202361 0.0268725 0.00802117 0.00737368 -0.0302305 0.0563286 -0.00553946 -0.0380673 -0.0175538 0.0297668 0.0357493 -0.0383347 -0.0245158 -0.0276091 0.0374534 -0.0149729 0.0245797 -0.0489969 -0.0514372 -0.0723272 -0.00557585 -0.0409318 -0.0581566 0.059093 0.0280102 0.0106458 0.0311195 0.0443235 0.00783262 0.0558098
671 0.123732 -0.181556 -0.0863323 0.096362 0.335211 -0.22773 -0.104293 -0.18076 0.15198 0.119367 0.126998 0.172352 -0.0961007 0.113533 0.182445 0.0885447 0.121124 -0.227067 -0.151581 -0.05833 0.0618744 -0.252268 0.0355629 0.171223 -0.179561 0.0720208 0.0945144 -0.237205 0.0677625 -0.172224 -0.117972 0.228513 0.217708 0.269775 -0.170622 0.199634 0.0704434 -0.0167356 0.247582 0.174395 0.120308 0.0721917 -0.281506 -0.020096 -0.197081 -0.0496009 0.00511986 0.193039 0.0680721 0.00660174 0.0954647 -0.19867 0.19186 -0.281533 -0.235591 -0.0757175 0.301855 -0.0271622 0.163285 0.16682 -0.010456 -0.223646 -0.217329 0.0898157 -0.154649 -0.0382198 0.000684838 -0.0447863 -0.0767149 0.161307 -0.0891335 0.152839 -0.0566742 0.0207804 -0.00208784 -0.0201274 0.00788992 -0.00804918 0.0201626 -0.125572 -0.0475445 -0.342941 -0.168127 -0.141397 0.00640353 -0.0616982 -0.165686 -0.0879384 -0.0300179 -0.0322724 0.120812 0.107935 -0.0782618 -0.0435007 -0.00209774 -0.0568273 -0.123576 0.0861063 0.0278995 0.0251563 0.0164841 0.0879143 -0.0694479 0.189565 -0.0320264 -0.106935 -0.0776745 0.0176301 0.110131 -0.107591 -0.116375 -0.123457 0.118814 -0.0408359 0.197186 -0.205871 -0.184517 -0.265267 -0.0429489 -0.183646 -0.226693 0.185397 0.154288 0.00523362 0.0388701 0.175925 0.00687205 0.171209
857 0.0887269 -0.0810412 -0.0502455 0.0569715 0.170664 -0.12918 -0.088125 -0.109955 0.0981934 0.0753601 0.0895546 0.116455 -0.0551934 0.0878424 0.103946 0.0775232 0.0811712 -0.120616 -0.0932331 -0.0524462 0.044191 -0.12901 0.0175937 0.0946503 -0.0907985 0.0361248 0.0726228 -0.1274 0.0485935 -0.0918349 -0.0741263 0.126228 0.102141 0.140143 -0.0990738 0.123184 0.0675211 0.00178152 0.144048 0.116888 0.0738692 0.0375614 -0.15642 -0.00794287 -0.119836 -0.0226785 0.0162066 0.104135 0.0434408 -0.0143666 0.0719936 -0.118139 0.118995 -0.134717 -0.126616 -0.0327627 0.170111 -0.0250424 0.099846 0.102317 -0.00710444 -0.137926 -0.128233 0.0596635 -0.0713454 -0.0190005 0.000807274 -0.0301948 -0.05177 0.0899291 -0.0823759 0.07915 -0.049161 -0.00119531 -0.0312938 -0.0332469 0.00757347 -0.013144 0.0165208 -0.102623 -0.0428734 -0.177656 -0.120012 -0.0951081 -0.0112712 -0.0374539 -0.102402 -0.0349863 -0.0366743 -0.0306624 0.0853584 0.0706069 -0.0429236 -0.0210245 0.0331659 -0.0102239 -0.0762675 0.0393099 0.0257665 -0.00183863 0.00458352 0.0648096 -0.0330754 0.0975209 -0.019162 -0.0509493 -0.0458702 -0.00692595 0.0656052 -0.0564862 -0.0728326 -0.0759737 0.064913 -0.0183919 0.137007 -0.123578 -0.101136 -0.153044 -0.0296005 -0.115625 -0.129289 0.0967777 0.10632 -0.010665 0.00276132 0.107129 0.00132645 0.0887822
607 0.0269327 -0.0678508 -0.0248184 0.0262668 0.116768 -0.0634412 -0.0185992 -0.0498405 0.0366105 0.0253343 0.0262415 0.0423716 -0.027024 0.0180334 0.0504889 0.00427939 0.0224491 -0.0669031 -0.0478292 -0.00342945 0.0123697 -0.0874482 0.0133785 0.050079 -0.0562342 0.0188677 0.0165818 -0.0752129 0.0150296 -0.0515618 -0.036134 0.0682706 0.0758045 0.0967251 -0.0519418 0.0584658 0.00321984 -0.0129195 0.0754968 0.040709 0.0376657 0.028646 -0.0880191 -0.00580259 -0.048231 -0.0141223 -0.00898177 0.0584058 0.0190664 0.0179822 0.0239344 -0.0532336 0.0463515 -0.0992603 -0.0788851 -0.0256828 0.0925519 0.00136274 0.0440068 0.0447825 0.000861614 -0.0561477 -0.0584417 0.0245508 -0.0566387 -0.00962502 6.53046e-05 -0.0121388 -0.0252055 0.0455045 -0.0035896 0.0492578 -0.00818838 0.0117353 0.0217577 0.00776921 -0.000410792 0.00320358 -0.00314003 -0.0177184 -0.00326183 -0.112849 -0.0324711 -0.0339268 0.0129248 -0.0206614 -0.0472797 -0.044509 0.00723959 -2.89773e-06 0.0258659 0.0232984 -0.0232894 -0.0106862 -0.0264255 -0.034978 -0.0296124 0.0292438 0.00922459 0.016869 0.00791661 0.0130358 -0.0275189 0.0596493 -0.0110756 -0.0403801 -0.0213958 0.0238261 0.0363795 -0.0361853 -0.032748 -0.0341122 0.0393327 -0.0117262 0.0416745 -0.0582117 -0.0509937 -0.0765745 -0.00789798 -0.0452361 -0.0667371 0.0608768 0.0342292 0.00756942 0.027063 0.0489538 0.00519853 0.0586014
767 0.117132 -0.197382 -0.0817316 0.0982184 0.35893 -0.232381 -0.0988466 -0.184554 0.151353 0.114449 0.112095 0.168267 -0.0980527 0.104087 0.188288 0.0688702 0.107622 -0.233218 -0.159236 -0.0457828 0.0524897 -0.265128 0.039926 0.17786 -0.188341 0.0725633 0.0924091 -0.245207 0.0678553 -0.176407 -0.125225 0.227104 0.228998 0.286289 -0.173695 0.198295 0.0616364 -0.0273382 0.250404 0.168524 0.12417 0.074846 -0.289683 -0.018101 -0.190619 -0.0496127 -0.000868925 0.200103 0.0607223 0.0171824 0.0899316 -0.196644 0.189965 -0.297451 -0.246056 -0.0842473 0.302027 -0.0195648 0.156183 0.166882 -0.0136953 -0.219906 -0.211301 0.0898988 -0.173155 -0.0351407 0.000662451 -0.0462385 -0.0814417 0.168703 -0.0673474 0.157767 -0.0452844 0.0262175 0.0119255 -0.00442375 0.00489665 -0.00958018 0.0180546 -0.106998 -0.0373786 -0.363738 -0.156838 -0.134448 0.0138007 -0.0656312 -0.16786 -0.107024 -0.0210789 -0.0281814 0.117347 0.101631 -0.0803801 -0.0423525 -0.0186329 -0.0750588 -0.121496 0.0907295 0.0329671 0.0383963 0.0148882 0.0801607 -0.0772108 0.199665 -0.0318842 -0.113889 -0.0837774 0.0282709 0.117351 -0.113552 -0.110819 -0.125259 0.122452 -0.050674 0.189017 -0.206939 -0.186657 -0.272694 -0.0442443 -0.179312 -0.227216 0.18894 0.154375 0.00861997 0.0496476 0.17637 0.00967112 0.180358
1054 0.0851666 -0.061348 -0.0496971 0.0546917 0.14735 -0.113186 -0.0818812 -0.101947 0.0861106 0.0705105 0.0847817 0.105813 -0.0553779 0.0922458 0.0912067 0.0813169 0.0827016 -0.109026 -0.0765746 -0.0512257 0.0447247 -0.111829 0.00864388 0.0807894 -0.075596 0.0332888 0.075772 -0.113961 0.0473818 -0.0787247 -0.0628569 0.112388 0.0847735 0.112901 -0.0840588 0.106712 0.066966 0.00857677 0.124219 0.1088 0.0620846 0.0295793 -0.137343 -0.0134361 -0.116083 -0.0242538 0.017123 0.0943584 0.0409565 -0.0200661 0.0636269 -0.11076 0.106208 -0.11717 -0.116898 -0.0306202 0.153807 -0.0270348 0.0916625 0.0971017 -0.00973389 -0.128593 -0.11765 0.050627 -0.0596127 -0.014731 0.000276037 -0.0262702 -0.0454568 0.0808591 -0.087264 0.065778 -0.0499464 -0.00694277 -0.0360594 -0.0301743 0.00653578 -0.0116508 0.018507 -0.103284 -0.0432797 -0.152948 -0.118648 -0.0864175 -0.0216392 -0.0356094 -0.0890766 -0.0261847 -0.0349522 -0.0328777 0.0766073 0.0672938 -0.0307168 -0.0174852 0.0414103 -0.0018685 -0.0735011 0.0268129 0.0233079 -0.00983704 0.00617637 0.0632719 -0.0237658 0.0893925 -0.016888 -0.0452461 -0.0365644 -0.0192792 0.056025 -0.0464252 -0.0615065 -0.0740649 0.053028 -0.0182561 0.129092 -0.108553 -0.0957036 -0.137795 -0.027659 -0.101433 -0.116691 0.077775 0.102217 -0.0103788 -0.00925065 0.102899 0.00211383 0.0766483
1073 0.030274 -0.0719382 -0.0223197 0.0290937 0.125197 -0.0717616 -0.0215973 -0.056995 0.0409825 0.0319343 0.026766 0.0476543 -0.0355749 0.0248704 0.0600876 0.0097789 0.0282223 -0.0763696 -0.0527767 -0.00395463 0.0141637 -0.0897819 0.0118539 0.0610528 -0.0683353 0.0233496 0.0172854 -0.0846597 0.0212309 -0.0601698 -0.0370153 0.0765363 0.0891316 0.104616 -0.0600479 0.066162 0.0116334 -0.0152726 0.0874796 0.0478834 0.0346549 0.0257975 -0.0919842 -0.00132742 -0.0592286 -0.0170825 -0.00296345 0.0704111 0.0211736 0.0178529 0.0207593 -0.0630935 0.057005 -0.11058 -0.0841883 -0.0329483 0.104004 -0.00511215 0.0490088 0.0478036 -0.000692257 -0.0664363 -0.0666473 0.0258496 -0.0669545 -0.0114649 -0.000126057 -0.0126346 -0.0224803 0.0570121 -0.0104719 0.0575465 -0.00722932 0.0164308 0.0164175 0.0106591 0.00332415 0.00159535 -0.000821322 -0.0198756 -0.00437846 -0.126212 -0.0361058 -0.0374118 0.0116929 -0.0209802 -0.0552014 -0.0409516 0.00057455 -0.00444477 0.0301617 0.0333316 -0.0255974 -0.0121502 -0.0244278 -0.0322528 -0.0344579 0.0371064 0.00420986 0.0196476 0.00372942 0.019242 -0.0292778 0.0660337 -0.0126137 -0.0392445 -0.0259725 0.0197143 0.0397751 -0.0426385 -0.0324558 -0.037593 0.0430978 -0.0168442 0.0529082 -0.0660578 -0.0597916 -0.0858793 -0.0104677 -0.0552542 -0.077756 0.0710341 0.0388221 0.00593786 0.0284101 0.0557179 0.00550723 0.0610617
1177 0.194862 -0.0841656 -0.102981 0.100873 0.234439 -0.21507 -0.190506 -0.19701 0.179911 0.152743 0.166141 0.221236 -0.0941282 0.193376 0.166843 0.19804 0.175372 -0.196133 -0.141973 -0.130908 0.102009 -0.169706 0.0155156 0.14845 -0.129761 0.0634445 0.162821 -0.197981 0.0916545 -0.144801 -0.118338 0.212551 0.113028 0.174656 -0.156017 0.197824 0.14984 0.0368844 0.231843 0.240914 0.121587 0.0446405 -0.251309 -0.0205581 -0.224642 -0.0431782 0.05129 0.166688 0.0703631 -0.0654045 0.146023 -0.214333 0.205986 -0.17852 -0.204918 -0.0473957 0.275586 -0.0778774 0.188007 0.193317 -0.0154932 -0.258246 -0.211342 0.108226 -0.0919547 -0.0363987 -0.00683872 -0.057343 -0.0907847 0.155205 -0.205181 0.104096 -0.110471 -0.024999 -0.114831 -0.0899235 0.0186711 -0.0321649 0.0500816 -0.227728 -0.108376 -0.262008 -0.25725 -0.185722 -0.0604324 -0.0692571 -0.180818 0.00115941 -0.0947975 -0.0709276 0.167067 0.130576 -0.0432543 -0.0469218 0.130916 0.0289246 -0.142052 0.0395577 0.0519889 -0.0400816 0.00989967 0.122465 -0.0316808 0.140223 -0.0366625 -0.073978 -0.070493 -0.0728472 0.102691 -0.0688566 -0.125623 -0.143428 0.0976243 -0.0353523 0.287334 -0.210641 -0.174398 -0.253925 -0.0722848 -0.21613 -0.21458 0.135067 0.19994 -0.0357321 -0.0536461 0.193979 -0.0213818 0.131167
1072693248 0.111048 -0.142984 -0.0737026 0.079696 0.27916 -0.187707 -0.0988185 -0.157133 0.131073 0.0951203 0.10869 0.152816 -0.0839553 0.105598 0.155949 0.0810459 0.108076 -0.18673 -0.132318 -0.0577508 0.056592 -0.211161 0.0323509 0.144031 -0.145926 0.0642419 0.0904921 -0.194412 0.0647807 -0.145891 -0.103641 0.186598 0.181893 0.219981 -0.153204 0.164906 0.0715772 -0.00550575 0.206392 0.153379 0.10357 0.0551737 -0.235087 -0.0102738 -0.172716 -0.0390791 0.00974964 0.159699 0.0543966 -0.00536865 0.0846919 -0.163849 0.163612 -0.227981 -0.193975 -0.0671225 0.246173 -0.0307463 0.136607 0.142976 -0.00963198 -0.188153 -0.17785 0.0849904 -0.124587 -0.0319343 0.00722753 -0.0380086 -0.0723583 0.139905 -0.0825962 0.12062 -0.0558231 0.0112198 -0.00833012 -0.0288348 0.00846781 -0.0122641 0.0236622 -0.110695 -0.0447036 -0.284702 -0.154784 -0.122981 -0.00247789 -0.0501731 -0.145001 -0.0725622 -0.0282934 -0.0335263 0.115771 0.0973114 -0.0665671 -0.0339642 0.0126665 -0.0495499 -0.104066 0.0647119 0.0326575 0.016103 0.0140688 0.0697571 -0.0563712 0.159217 -0.0260515 -0.0931817 -0.0697252 0.00562512 0.0966336 -0.0942718 -0.0931712 -0.101599 0.0985371 -0.0350302 0.181824 -0.178184 -0.157151 -0.230964 -0.0387662 -0.16066 -0.195578 0.148587 0.140127 -0.00596064 0.0234563 0.149966 0.00683005 0.143858
1018 0.0305938 -0.0542012 -0.0188091 0.0219344 0.0951383 -0.0641635 -0.0300852 -0.0511056 0.038251 0.0302123 0.029792 0.0471151 -0.0288564 0.0282287 0.0509977 0.0245737 0.0281995 -0.0590823 -0.0432857 -0.0105858 0.0160267 -0.0677532 0.0123931 0.048935 -0.0510829 0.0172892 0.0223387 -0.064476 0.0204698 -0.0514458 -0.0297305 0.0644667 0.0605609 0.0773188 -0.0443175 0.0548577 0.0196782 -0.00922664 0.0668466 0.0471589 0.0335413 0.022167 -0.0798845 -0.00276346 -0.0498642 -0.0105793 0.00156721 0.054144 0.0162705 0.000133023 0.0269352 -0.056696 0.0494832 -0.0824212 -0.0655859 -0.0215534 0.0836417 -0.00399628 0.0448835 0.0477245 -0.00728718 -0.0630437 -0.0623924 0.024 -0.0423008 -0.00568106 0.001543 -0.0119218 -0.0195725 0.0422089 -0.0185353 0.0465926 -0.0159128 0.00517821 0.00230719 -4.90962e-05 0.00361061 -0.00227696 0.00741231 -0.0336023 -0.015076 -0.0962617 -0.0450022 -0.0371 0.00560428 -0.0182781 -0.0490687 -0.0280713 -0.00925187 -0.00547219 0.0292497 0.0289358 -0.0246856 -0.0094576 -0.00287503 -0.0224493 -0.0301335 0.0228915 0.0089109 0.00937581 0.00456474 0.0200587 -0.0225713 0.0552277 -0.0118318 -0.0332906 -0.0201719 0.00960407 0.0296251 -0.031515 -0.0290456 -0.0302048 0.0341394 -0.0109435 0.0538274 -0.058689 -0.0471749 -0.0739366 -0.0121421 -0.0520275 -0.0646878 0.0544718 0.0423722 -0.000974843 0.0144614 0.0522265 0.00119497 0.0454457
1019 0.102451 -0.0800311 -0.0565611 0.0643526 0.173421 -0.134462 -0.0927759 -0.121364 0.0996974 0.0831035 0.0954741 0.126789 -0.0573685 0.100664 0.114992 0.0839338 0.0941605 -0.125259 -0.0917682 -0.0625211 0.0520511 -0.133017 0.015901 0.10223 -0.097272 0.0403028 0.0854342 -0.1342 0.0560225 -0.092215 -0.0752179 0.138616 0.102615 0.136644 -0.101158 0.124907 0.0754133 0.00890441 0.150962 0.125497 0.0730408 0.0395526 -0.167488 -0.00898496 -0.128504 -0.0259915 0.0146665 0.11587 0.0420136 -0.023413 0.0720777 -0.127938 0.12899 -0.145018 -0.137732 -0.037514 0.181855 -0.0331331 0.106998 0.115728 -0.0115319 -0.155477 -0.134434 0.0606739 -0.0733542 -0.0225079 -0.00399177 -0.0366623 -0.0556311 0.0958502 -0.0958039 0.0834512 -0.0563061 -0.0045021 -0.0349614 -0.0333199 0.00938644 -0.0127927 0.0245549 -0.114754 -0.0531106 -0.184699 -0.130731 -0.103084 -0.0167429 -0.0377651 -0.10667 -0.0300513 -0.0369658 -0.0384107 0.09307 0.0707548 -0.0421675 -0.0257701 0.0374328 -0.012141 -0.0802746 0.0365023 0.0278734 -0.00446165 0.00513606 0.0680943 -0.0318708 0.107607 -0.0224898 -0.0546269 -0.0469132 -0.0122803 0.0627477 -0.060356 -0.0704982 -0.083216 0.0649088 -0.023613 0.15102 -0.127481 -0.112414 -0.157705 -0.0275924 -0.118661 -0.135217 0.0999039 0.11485 -0.0101045 -0.000370261 0.112976 -0.00197916 0.0944461
331 0.0130617 -0.0750831 -0.0182394 0.0227267 0.12467 -0.0686472 -0.00325088 -0.0449609 0.0303116 0.0239251 0.0200085 0.0291654 -0.0310941 0.0101429 0.0516081 -0.0067954 0.0117491 -0.067553 -0.0469758 0.00911284 0.00695303 -0.086679 0.0191196 0.0533853 -0.0602626 0.0193831 0.00417086 -0.0749683 0.00945803 -0.0580237 -0.0310696 0.0650241 0.0883859 0.0967258 -0.0505573 0.0487851 -0.00478927 -0.0233972 0.0765835 0.0278082 0.0327354 0.0275845 -0.0871964 -0.00263506 -0.0398423 -0.0151472 -0.0102166 0.0637524 0.0118678 0.0210485 0.0152061 -0.0465758 0.0429075 -0.105501 -0.0769119 -0.0356337 0.0848428 0.00388041 0.0333632 0.0365515 0.00250119 -0.0487684 -0.0534528 0.0223456 -0.0678062 -0.0117152 -0.000521079 -0.0126052 -0.0191294 0.0502941 0.0128985 0.0546602 0.00265457 0.0180177 0.0332279 0.0163278 -0.000615185 0.00729612 -0.00657593 0.00111775 0.00482004 -0.122617 -0.0169217 -0.0226137 0.0208985 -0.0165069 -0.0409188 -0.052433 0.0160504 0.00457807 0.0188274 0.0239748 -0.0301165 -0.0142077 -0.0383092 -0.0428736 -0.0294244 0.0335201 0.000173702 0.0251885 0.00445513 0.0084825 -0.0263834 0.0650667 -0.00461521 -0.0415214 -0.0197445 0.0274622 0.0357841 -0.0341721 -0.0292166 -0.0266136 0.0356146 -0.0178616 0.0313788 -0.0545184 -0.0492992 -0.0780949 -0.00267967 -0.0445659 -0.0671747 0.0635393 0.0288279 0.0144641 0.0305161 0.0456143 0.00579581 0.056013
889 0.122998 -0.141121 -0.0767823 0.084935 0.290165 -0.200746 -0.11771 -0.168865 0.14713 0.109634 0.119799 0.168609 -0.0933355 0.118124 0.16686 0.0957942 0.115256 -0.197154 -0.139993 -0.0691523 0.060232 -0.210131 0.0270729 0.149389 -0.152494 0.0603178 0.0998312 -0.203087 0.0702955 -0.151079 -0.112176 0.202998 0.179646 0.226975 -0.156308 0.18679 0.08026 -0.00772792 0.222068 0.173329 0.108098 0.0625161 -0.252531 -0.0157692 -0.182446 -0.0405723 0.010237 0.176259 0.0594807 -0.0122471 0.10008 -0.178998 0.175817 -0.237394 -0.207455 -0.0618919 0.266016 -0.0315101 0.14754 0.151648 -0.0146596 -0.209243 -0.197574 0.0846857 -0.132211 -0.0353817 -0.00310765 -0.0480787 -0.0709476 0.149597 -0.108272 0.125101 -0.0633131 0.014743 -0.0253373 -0.0312788 0.0102581 -0.0103074 0.0268123 -0.128407 -0.0588287 -0.298012 -0.169427 -0.136571 -0.0088842 -0.0588123 -0.153533 -0.0719349 -0.0363706 -0.0374707 0.117209 0.100385 -0.0655895 -0.0382534 0.0248594 -0.0342282 -0.117812 0.0657756 0.0330257 0.00807184 0.0112949 0.0876315 -0.0590845 0.166679 -0.031506 -0.0896691 -0.0668852 0.00414753 0.0964375 -0.093328 -0.102477 -0.117854 0.101669 -0.034471 0.196085 -0.185688 -0.167375 -0.239942 -0.0396402 -0.171666 -0.202985 0.153465 0.147888 -0.00847514 0.019524 0.158482 0.00761673 0.147763
1179 0.100815 -0.121414 -0.0666471 0.0661174 0.237676 -0.162442 -0.0900793 -0.13214 0.109663 0.0926091 0.0932384 0.130313 -0.0658003 0.0992635 0.129844 0.0756035 0.091476 -0.15589 -0.104902 -0.0619338 0.0442222 -0.169291 0.013849 0.121227 -0.126038 0.0568372 0.0793626 -0.170646 0.0621595 -0.118813 -0.0908187 0.161483 0.146438 0.179008 -0.123435 0.144311 0.0621701 -0.00861257 0.183939 0.131745 0.0868059 0.0542852 -0.194926 -0.0134455 -0.150938 -0.0279124 0.00787297 0.136716 0.0503977 -0.00461297 0.0746731 -0.141366 0.138486 -0.189147 -0.168276 -0.0437262 0.209469 -0.0277169 0.116736 0.135313 -0.00779695 -0.172625 -0.157355 0.0727658 -0.105623 -0.0237659 -0.00333968 -0.0378264 -0.0560035 0.121658 -0.0783306 0.103623 -0.0456317 0.0082386 -0.0134877 -0.0230809 0.00903606 -0.0115379 0.0139894 -0.100306 -0.038129 -0.231416 -0.132137 -0.114747 -0.00486001 -0.0374939 -0.126118 -0.057323 -0.0313703 -0.0250035 0.0978987 0.0827524 -0.0527369 -0.0295329 0.0175195 -0.0287151 -0.0974229 0.0507052 0.0209319 0.0102121 0.0140315 0.0657535 -0.0448071 0.12947 -0.0179213 -0.0687678 -0.0499244 0.00561434 0.0734438 -0.0770414 -0.0902503 -0.0969668 0.0823116 -0.0311361 0.155113 -0.160807 -0.126821 -0.191822 -0.0357855 -0.135823 -0.153073 0.130666 0.126696 -0.00847961 0.00518153 0.131857 -0.00315607 0.128313
1147 0.0498546 -0.0789527 -0.0364884 0.0445886 0.150979 -0.0986415 -0.0432939 -0.0804786 0.0695074 0.0512705 0.0500186 0.077177 -0.0423893 0.0527664 0.0793011 0.0374948 0.0478969 -0.101928 -0.0699044 -0.0243797 0.029179 -0.111625 0.0134605 0.0778253 -0.0754241 0.0294385 0.043963 -0.107026 0.0291426 -0.0793051 -0.0492151 0.102245 0.0961328 0.115999 -0.0765038 0.0845654 0.0312388 -0.0103655 0.111031 0.0736742 0.0555218 0.0352615 -0.124595 -0.0102136 -0.082141 -0.0229466 0.00269778 0.0829481 0.0297583 0.00638492 0.0398223 -0.0862955 0.0835529 -0.127402 -0.103194 -0.0372945 0.132022 -0.00963187 0.0702535 0.0734658 -0.0024735 -0.0944725 -0.0963949 0.0417616 -0.0686765 -0.0191333 0.00390476 -0.0239626 -0.0365166 0.0752255 -0.0375905 0.0652608 -0.0233838 0.00821915 0.00212935 -0.00722318 0.000826924 -0.00287609 0.0110085 -0.0491543 -0.0212185 -0.152228 -0.0726682 -0.0579283 0.00227655 -0.0255657 -0.0707822 -0.044748 -0.00727346 -0.0151535 0.0570596 0.0476354 -0.0324101 -0.0168265 -0.0028562 -0.0289891 -0.0549225 0.0344813 0.0160991 0.0140648 0.00224863 0.0394279 -0.0313765 0.0829394 -0.0130123 -0.0446484 -0.0356725 0.00657089 0.0492462 -0.0461673 -0.0498089 -0.0518268 0.0543565 -0.0174418 0.0884377 -0.0903658 -0.0826687 -0.119349 -0.0192104 -0.0811695 -0.0971272 0.083 0.0660515 0.00190542 0.0140169 0.0740881 0.00739291 0.0797889
170 0.0215535 -0.0570356 -0.0167384 0.0205053 0.0944492 -0.057114 -0.0177811 -0.0482143 0.039762 0.0306357 0.0249745 0.0392372 -0.02633 0.0189844 0.0480647 0.0127948 0.0278796 -0.0606047 -0.0406926 -0.00608353 0.0136679 -0.0696701 0.00685319 0.0446267 -0.0522921 0.0200132 0.0224126 -0.0626714 0.0191076 -0.045984 -0.0278052 0.0630601 0.0669867 0.0783467 -0.046869 0.0480449 0.00908365 -0.00754297 0.0675128 0.0394187 0.0294558 0.0199667 -0.07495 -0.000853278 -0.0494177 -0.0129702 -0.00623264 0.055217 0.0158805 0.00658814 0.0212817 -0.0488927 0.0467384 -0.0787756 -0.0661453 -0.0225009 0.0784389 -0.0024301 0.0370645 0.0400266 0.000270338 -0.0553329 -0.0585695 0.020149 -0.0476658 -0.00841987 -0.00190048 -0.0115161 -0.0225901 0.0400837 -0.0128789 0.0456461 -0.00712873 0.0140713 0.0104947 0.00255272 -0.000124688 -0.00113643 -0.000471961 -0.0207548 -0.0101718 -0.0940735 -0.0339834 -0.0292942 0.0113308 -0.0164083 -0.0448523 -0.0337658 -0.00254237 -0.00366616 0.0269986 0.0262865 -0.0213159 -0.00906379 -0.00978618 -0.0217691 -0.0267549 0.0278021 0.00833496 0.0097292 0.00684919 0.0155158 -0.0202972 0.0494689 -0.00759706 -0.0327608 -0.016617 0.0120378 0.0326357 -0.028762 -0.0247042 -0.0295803 0.0327818 -0.0100846 0.0410249 -0.053632 -0.0445919 -0.0676452 -0.00548343 -0.0423745 -0.05677 0.0520162 0.0322986 0.00474481 0.0144218 0.0483511 0.00475358 0.0478172
495 0.0717096 -0.149198 -0.0543547 0.0663625 0.2719 -0.166991 -0.0479353 -0.121502 0.0989575 0.0748021 0.0695328 0.108043 -0.0747667 0.0556522 0.128176 0.0298873 0.0674431 -0.166568 -0.113432 -0.017604 0.0321545 -0.198804 0.0332028 0.125751 -0.139452 0.0512839 0.0500705 -0.18149 0.0439222 -0.133187 -0.0897289 0.165146 0.178987 0.214319 -0.123872 0.142567 0.0308439 -0.0318 0.183926 0.106514 0.0861665 0.0613528 -0.206968 -0.00756798 -0.130813 -0.032471 -0.0101699 0.147638 0.0405928 0.0278078 0.0535666 -0.136071 0.122682 -0.224976 -0.185764 -0.0692957 0.217798 -0.00763269 0.109071 0.113058 -0.00516831 -0.147341 -0.152679 0.0640527 -0.130256 -0.0233371 0.00721058 -0.0298837 -0.054785 0.120596 -0.0252105 0.120939 -0.0203349 0.0341223 0.0316078 0.00562932 0.00492122 -0.00276041 0.00386509 -0.0561873 -0.017835 -0.271092 -0.0889182 -0.0922176 0.0270338 -0.0452353 -0.117861 -0.0879537 0.00181927 -0.0101009 0.0742306 0.0676313 -0.0593122 -0.0320331 -0.037946 -0.0693558 -0.0837533 0.0755261 0.0165787 0.0353939 0.00701624 0.0512075 -0.0545575 0.14777 -0.0231438 -0.0878983 -0.0596394 0.0393399 0.0844407 -0.0861441 -0.0820031 -0.0786135 0.0899939 -0.0339352 0.117779 -0.145645 -0.132777 -0.198821 -0.021769 -0.126149 -0.163349 0.147023 0.0951914 0.0142932 0.046211 0.124998 0.0152023 0.137019
534 0.0708856 -0.179376 -0.0602568 0.0668611 0.317567 -0.188106 -0.0455366 -0.138536 0.112372 0.0834686 0.0774918 0.120368 -0.0837602 0.056157 0.148033 0.0234301 0.0663356 -0.19404 -0.128718 -0.0184767 0.0318744 -0.231761 0.0405949 0.143521 -0.166792 0.0527316 0.0442686 -0.206732 0.0494099 -0.152553 -0.099817 0.189526 0.214654 0.259282 -0.140657 0.161478 0.0241927 -0.0421769 0.209819 0.110697 0.093259 0.0670906 -0.239473 -0.0117551 -0.141108 -0.0441799 -0.0209029 0.167307 0.0466239 0.0402668 0.061476 -0.146613 0.142057 -0.269906 -0.211223 -0.0801228 0.251515 -0.00742946 0.12066 0.126926 -0.00594172 -0.157332 -0.167979 0.0666892 -0.158547 -0.0279401 0.00746441 -0.0281293 -0.0623939 0.13746 -0.0181951 0.144262 -0.0142304 0.03788 0.0495553 0.0209985 0.00684627 0.0039883 -0.00289933 -0.0501457 -0.0123416 -0.316043 -0.0914846 -0.0978647 0.0379621 -0.0448123 -0.130291 -0.111323 0.0110531 -0.00392595 0.0816833 0.07974 -0.0735565 -0.0369388 -0.0578628 -0.0874269 -0.0913007 0.0848677 0.0205601 0.0477179 0.0101828 0.0439755 -0.0656873 0.172278 -0.0230824 -0.102439 -0.0660169 0.0546847 0.096649 -0.0993711 -0.0837472 -0.0910667 0.101108 -0.0415639 0.123873 -0.162795 -0.154411 -0.22472 -0.0297801 -0.131634 -0.188216 0.172661 0.102582 0.0174632 0.0648875 0.133216 0.0201495 0.160436
1007 0.0564609 -0.01464 -0.0226007 0.0310401 0.051567 -0.0539691 -0.0620284 -0.050034 0.0526492 0.0420197 0.054519 0.0615132 -0.0218871 0.056904 0.0441747 0.0578477 0.0542332 -0.0481371 -0.041207 -0.0405071 0.0310669 -0.0378522 0.00366957 0.0375323 -0.0263711 0.020515 0.0513261 -0.04347 0.0314311 -0.0348158 -0.0301653 0.0560241 0.0235051 0.0340131 -0.0372558 0.0548605 0.0510387 0.0108148 0.0551129 0.0662389 0.0302478 0.0105725 -0.0637736 -0.00681649 -0.0641061 -0.00788865 0.0223581 0.0448669 0.0224991 -0.0279971 0.039316 -0.0586605 0.0557035 -0.0375388 -0.0481766 -0.00753546 0.0675722 -0.019678 0.0482687 0.0521525 -0.00742736 -0.0748211 -0.0590857 0.0317245 -0.0106095 -0.00562659 -0.00101943 -0.0149656 -0.0220828 0.0357973 -0.0686839 0.0189233 -0.0358268 -0.0116342 -0.0395822 -0.0346339 0.00219453 -0.0116915 0.0198907 -0.0687445 -0.0363007 -0.0591143 -0.0748623 -0.0510068 -0.0268183 -0.019608 -0.0412928 0.00781166 -0.0305232 -0.0235724 0.0495049 0.0398192 -0.0119721 -0.0100411 0.0458538 0.0202294 -0.0391441 0.00478049 0.0162818 -0.0188174 0.00176869 0.0363673 -0.00454161 0.0319296 -0.00659293 -0.0151374 -0.0146201 -0.0284756 0.0265653 -0.0139133 -0.0339114 -0.0421371 0.0270551 -0.00945955 0.0842441 -0.052667 -0.0471694 -0.0654982 -0.0139895 -0.0590499 -0.0544204 0.0266473 0.0548132 -0.0152993 -0.0171221 0.0530435 -0.0015797 0.0342348
1094 0.0733969 -0.0850924 -0.042084 0.0527898 0.165252 -0.113999 -0.0643355 -0.0989922 0.0826192 0.068536 0.0673191 0.0971843 -0.0551249 0.0712651 0.0959778 0.0561026 0.0690233 -0.118053 -0.082857 -0.0370849 0.0322776 -0.124157 0.0174448 0.087883 -0.090224 0.0350803 0.0547297 -0.123567 0.0424006 -0.0872937 -0.0638739 0.12056 0.10249 0.133044 -0.0905906 0.104214 0.0431211 -0.00859304 0.129119 0.0975189 0.060855 0.0392562 -0.143151 -0.00769046 -0.107564 -0.021689 0.0106461 0.102804 0.0371354 -0.00314427 0.0573642 -0.106373 0.104984 -0.139118 -0.122181 -0.036904 0.156384 -0.0172055 0.0862581 0.0872131 -0.00551854 -0.123965 -0.110011 0.0469374 -0.0749214 -0.0167527 -0.00028361 -0.0247088 -0.0408947 0.0836066 -0.0591587 0.0715177 -0.0314532 0.00438843 -0.00970429 -0.0192564 0.00527781 -0.00927492 0.0104553 -0.0747044 -0.034865 -0.171135 -0.0995192 -0.0763363 -0.0055303 -0.036248 -0.0878603 -0.0411097 -0.0206139 -0.0252829 0.0653433 0.0624316 -0.035735 -0.0224296 0.0107582 -0.0218814 -0.0672377 0.0415933 0.0148152 0.00342834 0.00573944 0.0453281 -0.036287 0.0957632 -0.0136321 -0.054257 -0.0396789 0.00542058 0.0543897 -0.0546945 -0.0582749 -0.0646161 0.062657 -0.0194472 0.111174 -0.109505 -0.0925834 -0.138034 -0.0223104 -0.102536 -0.115335 0.0890404 0.0898196 0.000682937 0.011937 0.0955538 0.00624868 0.0857323
1220 0.180846 -0.0366454 -0.0812598 0.0903168 0.148797 -0.154668 -0.190238 -0.165716 0.155977 0.131708 0.160357 0.196556 -0.0726111 0.19302 0.14085 0.190519 0.170221 -0.133808 -0.111427 -0.135933 0.0931819 -0.109685 0.00193961 0.111225 -0.0831151 0.0578943 0.160392 -0.136345 0.0890642 -0.101871 -0.091582 0.159269 0.0505864 0.108645 -0.122942 0.172613 0.153217 0.0487489 0.175715 0.214426 0.0976852 0.0271251 -0.192343 -0.0224875 -0.188943 -0.0270967 0.0609939 0.124589 0.0631752 -0.0841638 0.126278 -0.175851 0.180185 -0.098314 -0.141183 -0.0194587 0.214802 -0.0746932 0.15596 0.161823 -0.0217225 -0.228092 -0.178221 0.0901021 -0.0385889 -0.0272418 -0.00454683 -0.0535674 -0.0800145 0.117525 -0.217087 0.0611984 -0.121288 -0.0459719 -0.126381 -0.105033 0.0230228 -0.0345744 0.056521 -0.227097 -0.11098 -0.173616 -0.245011 -0.165663 -0.0788008 -0.0489017 -0.139571 0.0311052 -0.103068 -0.0776528 0.142685 0.116452 -0.0354584 -0.0327855 0.151865 0.0652849 -0.116816 0.0151558 0.0436102 -0.0615225 -0.00116668 0.119323 -0.0126498 0.101988 -0.0312122 -0.0436656 -0.0587051 -0.0830383 0.0720759 -0.048019 -0.101805 -0.129214 0.0739518 -0.0123024 0.257519 -0.166488 -0.131438 -0.188878 -0.0513537 -0.177419 -0.17091 0.0873689 0.187205 -0.044495 -0.0730723 0.160146 -0.0192825 0.0910181
189 0.0173599 -0.0853233 -0.0221532 0.0274861 0.136171 -0.0749492 -0.0119339 -0.0515281 0.0412769 0.0293656 0.0229951 0.046241 -0.0292093 0.01407 0.0580836 0.000110248 0.0221802 -0.0826886 -0.0479874 0.00425468 0.0111985 -0.102356 0.0129285 0.0604407 -0.0660214 0.0201114 0.0134536 -0.0829171 0.0126977 -0.0670003 -0.0401825 0.0736956 0.0976786 0.108769 -0.0599088 0.0660758 0.00386481 -0.0200088 0.0857137 0.0359977 0.0356116 0.0296243 -0.0989886 -0.00224858 -0.049887 -0.0141999 -0.00873931 0.0705888 0.0170018 0.025473 0.0223833 -0.0583939 0.0538841 -0.117887 -0.0841595 -0.0322206 0.105382 -0.00137155 0.042388 0.0449769 0.00128383 -0.0625235 -0.0663987 0.0247429 -0.0703887 -0.00925117 0.00406661 -0.00814348 -0.024026 0.052221 0.00107039 0.0610864 -0.000708777 0.0214244 0.0322595 0.0136386 0.00275083 0.00549368 -0.00280693 -0.00785069 0.00336115 -0.135932 -0.0314056 -0.0360688 0.0188866 -0.0221815 -0.0475633 -0.0550094 0.00830656 0.000409868 0.0273862 0.0257026 -0.0316185 -0.0129138 -0.0326426 -0.0440339 -0.0356605 0.041252 0.00689012 0.027845 0.00397557 0.0189346 -0.0273624 0.0725511 -0.00553857 -0.0455619 -0.0236 0.03014 0.0427429 -0.0388339 -0.0370352 -0.0370209 0.0375616 -0.0187862 0.0407817 -0.060754 -0.0603827 -0.0894371 -0.0109573 -0.0532631 -0.0778217 0.0699729 0.0335097 0.0107469 0.0353764 0.0524678 0.00825566 0.0704426
656 0.0351809 -0.0876329 -0.0313632 0.0316703 0.151626 -0.0883882 -0.028204 -0.0704096 0.0570485 0.0419794 0.0403822 0.0587998 -0.0413451 0.027221 0.0706672 0.0178774 0.0310558 -0.0964088 -0.0597254 -0.00569963 0.0155235 -0.108712 0.0138364 0.0739253 -0.0819931 0.0242634 0.0256851 -0.0990611 0.0246686 -0.0757837 -0.0485488 0.0889011 0.100012 0.122806 -0.071686 0.0767124 0.010296 -0.0166005 0.0995435 0.0551268 0.0465424 0.0333563 -0.115361 -0.0091309 -0.0711445 -0.0189822 -0.0104703 0.082848 0.0219159 0.0164499 0.031802 -0.0768323 0.0712902 -0.129016 -0.104867 -0.0381671 0.124247 -0.00245331 0.0549153 0.0608543 -0.000256188 -0.0808336 -0.0856638 0.0358437 -0.078523 -0.0123725 0.00549266 -0.0130668 -0.0321826 0.0631602 -0.00849638 0.0670524 -0.00681683 0.0174623 0.0170001 0.00737572 0.00254584 0.000909495 -0.0011774 -0.0231799 -0.00699859 -0.149438 -0.0483113 -0.0459557 0.0166861 -0.0212994 -0.0632134 -0.0518114 -0.000751999 -0.00764069 0.0393657 0.0399863 -0.0333752 -0.017522 -0.0227198 -0.0419454 -0.0416192 0.0375689 0.0133299 0.0248393 0.00548402 0.0245671 -0.0341141 0.0804064 -0.0117679 -0.0453875 -0.0341275 0.0259058 0.0478486 -0.0453194 -0.0411575 -0.0473473 0.0473375 -0.0189043 0.0606774 -0.0801069 -0.069929 -0.109645 -0.00995512 -0.0684478 -0.0887458 0.0814487 0.0496203 0.00459537 0.0329787 0.0652316 0.00576237 0.0772425
192 0.0225809 -0.0671476 -0.0216577 0.0261737 0.122006 -0.0697311 -0.0191522 -0.0521438 0.0426249 0.0281811 0.0293858 0.0466808 -0.0351719 0.0252568 0.054689 0.0054667 0.0281433 -0.0775924 -0.0500411 -0.00892239 0.013081 -0.0881071 0.0121718 0.0547991 -0.0627164 0.0249294 0.0180217 -0.0793415 0.0167001 -0.0565844 -0.0406934 0.0701786 0.0865656 0.0984895 -0.0569854 0.0575187 0.00944423 -0.0169293 0.0781112 0.0439079 0.0362262 0.0273654 -0.0891241 -0.00516363 -0.0520073 -0.0143193 -0.00441556 0.0628718 0.020675 0.0164549 0.0242475 -0.0605716 0.0546747 -0.101087 -0.0815421 -0.0316568 0.0985896 -0.00155564 0.0419071 0.0504048 -0.00473462 -0.0616269 -0.0660817 0.0252871 -0.0568467 -0.00744558 0.0001534 -0.0153512 -0.0245778 0.0552059 -0.00777416 0.0570638 -0.00412149 0.0125175 0.0211538 0.00688961 -0.00248859 -0.00195237 -0.000106323 -0.016545 -0.00863729 -0.118471 -0.0390167 -0.0369866 0.0102513 -0.0206095 -0.0487941 -0.0400989 0.00291106 -0.00533314 0.0325091 0.0304644 -0.0269391 -0.0147938 -0.0258683 -0.0303779 -0.033319 0.0361096 0.00989787 0.0220453 0.00630786 0.0200364 -0.029508 0.0651639 -0.0102663 -0.0373999 -0.026923 0.0222017 0.0354644 -0.0364348 -0.033394 -0.037796 0.040756 -0.0151386 0.0434128 -0.0647043 -0.0540914 -0.0879083 -0.00633943 -0.0508533 -0.0695847 0.0679966 0.0383589 0.00790088 0.0213027 0.0500158 0.00829539 0.0619794
339 0.0617976 -0.183521 -0.0561338 0.0658109 0.306567 -0.183022 -0.0476988 -0.136183 0.110149 0.0806837 0.0702904 0.109887 -0.0772661 0.0542822 0.1446 0.0237276 0.065647 -0.190908 -0.119918 -0.0146191 0.03073 -0.223835 0.034836 0.13925 -0.158541 0.052028 0.0431158 -0.203127 0.0458808 -0.144198 -0.0933329 0.178487 0.211849 0.25102 -0.138916 0.150769 0.020648 -0.0430948 0.206627 0.10806 0.0943757 0.0647932 -0.228707 -0.0113748 -0.134384 -0.0357718 -0.0149678 0.166478 0.0455082 0.0351511 0.0574565 -0.147926 0.131866 -0.26514 -0.205936 -0.0793104 0.245931 -0.0037115 0.115893 0.120656 -0.00184716 -0.151408 -0.16646 0.0644818 -0.155171 -0.0250225 0.00151878 -0.0333793 -0.0598346 0.129124 -0.0128144 0.133987 -0.0149406 0.0400219 0.0473374 0.0209678 0.00188305 0.00693909 -0.000490941 -0.0440675 -0.00748122 -0.309923 -0.0882245 -0.0912402 0.0344913 -0.0417665 -0.130534 -0.108299 0.0121433 -0.00843309 0.0793109 0.0760241 -0.0711104 -0.031071 -0.0581501 -0.0879965 -0.0894311 0.0833849 0.0190559 0.0535152 0.0128088 0.0438349 -0.0654559 0.167383 -0.0216937 -0.097298 -0.0638382 0.0561957 0.0898831 -0.0922031 -0.0839568 -0.0842302 0.0963813 -0.0421244 0.115764 -0.153146 -0.148086 -0.215322 -0.0242216 -0.128513 -0.183371 0.168819 0.10172 0.0160644 0.0676594 0.135131 0.0153936 0.151234
342 0.0480334 -0.115153 -0.0390609 0.0421423 0.196895 -0.11621 -0.0294256 -0.0911334 0.0737828 0.0514602 0.0468736 0.0782388 -0.0529658 0.0403805 0.0921962 0.0180712 0.0478499 -0.121133 -0.0767893 -0.00855735 0.020596 -0.150075 0.0262198 0.0930511 -0.105581 0.0360187 0.0344536 -0.130388 0.0305588 -0.0940775 -0.0603055 0.122131 0.132331 0.15715 -0.0900827 0.0999363 0.0185471 -0.0208265 0.133539 0.0749576 0.0592928 0.0473259 -0.152945 -0.00582393 -0.0903321 -0.0277765 -0.0101478 0.104063 0.0307853 0.0210315 0.0349545 -0.0994952 0.0919411 -0.167232 -0.132193 -0.047844 0.162138 -0.00224102 0.0796026 0.0781373 -0.00302197 -0.0993306 -0.109805 0.0429641 -0.100168 -0.0198874 0.00685873 -0.0178369 -0.03916 0.085337 -0.0145191 0.0871685 -0.00832282 0.0258546 0.0283765 0.0119813 0.0057065 9.01204e-05 0.00396451 -0.0370218 -0.00914602 -0.199976 -0.0606237 -0.0627052 0.016987 -0.0306571 -0.083811 -0.065545 0.00350699 -0.00956113 0.0564964 0.0455325 -0.0424256 -0.0222068 -0.0343995 -0.0540299 -0.0597247 0.0557128 0.0139829 0.0266381 0.00540046 0.0348496 -0.0430006 0.108005 -0.0152927 -0.0666005 -0.0385632 0.0315186 0.063697 -0.0641522 -0.0600108 -0.0551175 0.0601848 -0.0295455 0.0804075 -0.102405 -0.0952515 -0.139803 -0.0163622 -0.0898635 -0.1167 0.108614 0.0704134 0.0082502 0.0393653 0.0905142 0.01121 0.100686
605 0.026438 -0.0992772 -0.0331093 0.0341383 0.168126 -0.0976854 -0.0140396 -0.0686927 0.0527171 0.0409173 0.0376342 0.057603 -0.0409414 0.0232925 0.0786151 0.00342834 0.0321828 -0.100921 -0.0635226 -0.000478606 0.0137644 -0.123688 0.0203282 0.0787829 -0.0879613 0.0258478 0.0180167 -0.107356 0.021619 -0.0831495 -0.0528395 0.0955905 0.118313 0.134803 -0.0708833 0.0772347 0.00747851 -0.0250728 0.108233 0.0512105 0.04415 0.0371332 -0.123438 -0.00602834 -0.0657273 -0.0217822 -0.0111358 0.0910871 0.0212767 0.0281244 0.0259117 -0.0763901 0.0696592 -0.144893 -0.107459 -0.0415842 0.130713 0.00506074 0.0575315 0.0628489 -1.81315e-05 -0.0734411 -0.0851118 0.0314912 -0.0865133 -0.0169079 0.00281023 -0.0187422 -0.0261687 0.0696763 0.00267712 0.0727335 -0.0030421 0.0245435 0.0296845 0.014556 -0.000809174 0.00351783 -0.00306133 -0.0133267 -0.00391823 -0.169519 -0.034337 -0.0423214 0.0246601 -0.0251661 -0.0695658 -0.060388 0.00988806 -0.00297346 0.0393737 0.0360822 -0.0407516 -0.0185678 -0.0383624 -0.0536753 -0.0484429 0.0484827 0.00708518 0.0348581 0.00475212 0.0223126 -0.0393428 0.0861826 -0.013269 -0.0567349 -0.0340905 0.0356132 0.0466296 -0.0521063 -0.0397509 -0.0463047 0.0499495 -0.0217795 0.0571204 -0.0833052 -0.0776807 -0.11804 -0.0150131 -0.0664296 -0.0961197 0.0912635 0.0473648 0.0145512 0.0375575 0.0667251 0.00761711 0.0831693
618 0.0836866 -0.200835 -0.0691673 0.0842967 0.356204 -0.21361 -0.0631308 -0.163981 0.126845 0.0975433 0.0937918 0.139261 -0.0958235 0.073237 0.172668 0.033284 0.0797068 -0.215318 -0.144512 -0.0241582 0.0417395 -0.262005 0.0402076 0.163751 -0.181772 0.0646793 0.063514 -0.228691 0.051812 -0.172677 -0.115269 0.213959 0.240839 0.287335 -0.159017 0.186272 0.0333487 -0.0386668 0.236302 0.129715 0.110982 0.0741882 -0.270109 -0.0137841 -0.165464 -0.0432574 -0.0188934 0.191699 0.052092 0.0314922 0.0715795 -0.177282 0.159519 -0.29762 -0.236738 -0.088105 0.281427 -0.00865625 0.14108 0.143294 -0.0062216 -0.189567 -0.194356 0.0807415 -0.174503 -0.0371342 0.00491048 -0.0347447 -0.0650625 0.157773 -0.0296991 0.159781 -0.0194474 0.0422108 0.04494 0.0135073 0.00244963 0.00413027 0.00158686 -0.0608885 -0.0208174 -0.352179 -0.111128 -0.11033 0.0309446 -0.0562572 -0.149968 -0.118266 0.000933525 -0.0127885 0.0934086 0.0883087 -0.0787789 -0.042048 -0.0546939 -0.0937655 -0.109598 0.0980083 0.0197667 0.0511941 0.0147381 0.0603841 -0.0760331 0.19386 -0.0299083 -0.116205 -0.0728492 0.0543852 0.113454 -0.112465 -0.0991767 -0.101451 0.111752 -0.0435335 0.145751 -0.183265 -0.175098 -0.254102 -0.0319706 -0.158083 -0.214549 0.189644 0.121439 0.0160207 0.0665673 0.157109 0.017991 0.17475
1077 0.0809463 -0.141881 -0.0603369 0.0641689 0.256348 -0.165647 -0.0595438 -0.127801 0.101915 0.077099 0.0769905 0.112006 -0.0685528 0.0714713 0.130848 0.0427228 0.0774281 -0.160876 -0.110092 -0.0303334 0.0356996 -0.191384 0.0306346 0.127383 -0.133861 0.0496572 0.056129 -0.177837 0.0501548 -0.127285 -0.0890993 0.16467 0.173835 0.210182 -0.12092 0.139888 0.0369447 -0.0252594 0.183296 0.111025 0.0884302 0.0573984 -0.199731 -0.0133554 -0.130521 -0.0331418 -0.00374991 0.141648 0.0466943 0.0191769 0.064438 -0.134289 0.132696 -0.218086 -0.176069 -0.0642614 0.215268 -0.016308 0.111101 0.114828 -0.00786128 -0.149443 -0.150639 0.0604342 -0.125687 -0.0241047 0.00527537 -0.0347279 -0.0581853 0.115936 -0.0422006 0.117319 -0.0314862 0.0222204 0.0145335 0.00311139 0.0056616 -0.000645908 0.0101458 -0.0649173 -0.0240968 -0.257028 -0.102265 -0.0910931 0.0185073 -0.0402918 -0.121022 -0.0780819 -0.00541695 -0.0136599 0.0856091 0.0704584 -0.056008 -0.0312326 -0.0256284 -0.0563053 -0.0893613 0.0702036 0.0218073 0.0300937 0.00924716 0.0525273 -0.0523149 0.140999 -0.0228976 -0.0797807 -0.0558226 0.0280554 0.0844379 -0.0783199 -0.0837522 -0.0833788 0.0858401 -0.0351693 0.132017 -0.144948 -0.131261 -0.192165 -0.0245956 -0.12904 -0.159122 0.137371 0.0994006 0.00921624 0.0381979 0.125914 0.00749029 0.134263
1151 0.0753306 -0.14934 -0.0588358 0.0613761 0.262292 -0.157833 -0.0597258 -0.123281 0.0984857 0.0790031 0.075118 0.108203 -0.0728038 0.0638339 0.13027 0.0393591 0.072928 -0.167793 -0.110385 -0.025978 0.0372881 -0.193462 0.0307205 0.12817 -0.134432 0.0521927 0.0538437 -0.172128 0.0444926 -0.126652 -0.0824196 0.164387 0.172552 0.210689 -0.120599 0.14237 0.0343749 -0.0269676 0.182736 0.10678 0.0827546 0.0579069 -0.20244 -0.0141696 -0.131295 -0.034249 -0.0107551 0.143322 0.0430155 0.0217335 0.0597603 -0.135801 0.130037 -0.220645 -0.175081 -0.058555 0.220166 -0.0110671 0.110479 0.115477 -0.0078122 -0.144558 -0.146957 0.0595453 -0.122576 -0.028426 0.00505078 -0.0319653 -0.0520576 0.114422 -0.0383987 0.114183 -0.028034 0.0297904 0.0252808 0.00641918 0.0048792 -0.00179521 0.0102112 -0.0594792 -0.0200271 -0.264016 -0.0973656 -0.0889026 0.0164064 -0.0434519 -0.118571 -0.085993 -0.00745288 -0.0165006 0.080977 0.0732757 -0.0588681 -0.0264851 -0.0304715 -0.0602984 -0.0876842 0.0708391 0.0164385 0.0300368 0.0120136 0.0512291 -0.0583265 0.144914 -0.0196455 -0.0809545 -0.0548376 0.0281759 0.0797596 -0.081941 -0.0775945 -0.0821418 0.0880662 -0.0392334 0.126196 -0.144318 -0.133968 -0.190237 -0.0251037 -0.120837 -0.161055 0.139595 0.0989495 0.00897712 0.044904 0.123231 0.0149873 0.133445
1158 0.137752 -0.0549081 -0.0643136 0.072807 0.154831 -0.137706 -0.135375 -0.133217 0.124108 0.105798 0.121435 0.150819 -0.0648768 0.138054 0.115058 0.136999 0.120766 -0.125898 -0.0992243 -0.0909272 0.0661022 -0.112059 0.00683135 0.102909 -0.0846137 0.0476123 0.116911 -0.126735 0.0693907 -0.0959078 -0.0795574 0.144724 0.0748735 0.113591 -0.104191 0.140926 0.109477 0.0270281 0.154752 0.160329 0.0834475 0.0358283 -0.166734 -0.0125881 -0.156562 -0.0265815 0.0410831 0.109317 0.0486703 -0.0459327 0.0945408 -0.144134 0.14365 -0.110779 -0.134236 -0.0241053 0.182588 -0.0470118 0.126243 0.131519 -0.0198177 -0.181899 -0.150627 0.0678958 -0.0471578 -0.0221406 -0.000817224 -0.0427976 -0.0630047 0.100891 -0.151121 0.0710455 -0.0835226 -0.0202717 -0.0780464 -0.0704665 0.0165029 -0.0245478 0.0396429 -0.166081 -0.0789099 -0.167835 -0.180965 -0.129077 -0.0447352 -0.0407834 -0.117469 0.00312355 -0.0702221 -0.0515214 0.110661 0.0926168 -0.0364898 -0.0247281 0.0905826 0.0286998 -0.0981148 0.0257205 0.0354781 -0.0347066 -0.000201588 0.0929399 -0.0207241 0.10046 -0.0248992 -0.0436177 -0.0473653 -0.0520041 0.0694189 -0.0486012 -0.0842538 -0.101119 0.0631614 -0.0187395 0.192268 -0.139359 -0.117817 -0.167887 -0.0360018 -0.139636 -0.145461 0.0865936 0.145547 -0.0252629 -0.039359 0.13093 -0.0113577 0.0848071
1001 0.0184029 -0.0819064 -0.0237128 0.0265761 0.137049 -0.0741797 -0.00622734 -0.0559937 0.0399162 0.0300403 0.0222651 0.0399245 -0.0326348 0.0148796 0.0584079 -0.00363123 0.0202926 -0.0810799 -0.0494735 0.000179708 0.0101697 -0.101314 0.0133083 0.0625232 -0.0682724 0.0212382 0.0092548 -0.0892695 0.0161532 -0.0644113 -0.0374293 0.0782168 0.0964425 0.115122 -0.0600385 0.0643596 -0.00504977 -0.0258406 0.0839051 0.0341147 0.0375558 0.0341196 -0.0970021 -0.00456593 -0.0505625 -0.0189931 -0.0153997 0.0726557 0.0140661 0.0219321 0.0187894 -0.0561068 0.0549476 -0.121633 -0.084348 -0.0372026 0.103956 0.00154517 0.043027 0.0465673 -0.000675965 -0.0603632 -0.0639825 0.0232309 -0.0710355 -0.0119907 0.00639612 -0.0134078 -0.0187437 0.0549551 0.00833962 0.0596585 -0.00182849 0.0225405 0.0347652 0.01537 -0.00139877 0.00280942 -0.000270868 -0.00667385 0.00159293 -0.133144 -0.0276383 -0.0338626 0.0212171 -0.0188987 -0.0492586 -0.0567713 0.00971812 0.000602079 0.025605 0.0238965 -0.0336065 -0.0175397 -0.0418015 -0.0455403 -0.0313723 0.0376264 0.00488887 0.0310295 0.00479081 0.0136629 -0.0307937 0.0686316 -0.00499678 -0.0430634 -0.0240574 0.0294112 0.036672 -0.0449845 -0.0327505 -0.0293462 0.0438235 -0.0158942 0.0378676 -0.0605976 -0.057481 -0.0892383 -0.00740195 -0.0505859 -0.0718644 0.0747008 0.0326649 0.0143968 0.039356 0.0491482 0.00754582 0.063945
1208 0.111109 -0.0518604 -0.0580303 0.0609707 0.143295 -0.124086 -0.107956 -0.1149 0.0982212 0.0805431 0.10216 0.127069 -0.0538613 0.109895 0.105082 0.104271 0.100162 -0.113827 -0.0873249 -0.0731605 0.0519486 -0.108589 0.00737591 0.086731 -0.075875 0.0418855 0.0916284 -0.111966 0.0520074 -0.0806694 -0.0653201 0.122213 0.072341 0.108728 -0.0945411 0.12268 0.0878923 0.0182726 0.129673 0.132479 0.0679154 0.0288524 -0.145775 -0.0164572 -0.131724 -0.0233518 0.0286375 0.0993048 0.0387317 -0.0376489 0.0754573 -0.12349 0.118548 -0.105223 -0.119766 -0.026617 0.164795 -0.0353264 0.105406 0.106505 -0.0142894 -0.148603 -0.130071 0.0568484 -0.0509822 -0.017016 -0.00161626 -0.0353222 -0.0538266 0.0893789 -0.115873 0.0647123 -0.0615012 -0.0110724 -0.0582965 -0.0537706 0.0139085 -0.0171993 0.0285716 -0.130208 -0.0616362 -0.15308 -0.145817 -0.100158 -0.0363167 -0.0406057 -0.101983 -0.00655864 -0.0505723 -0.0418737 0.0912993 0.0745246 -0.0304433 -0.0189544 0.0695814 0.0136213 -0.0841782 0.0276262 0.0241796 -0.0213941 0.00570668 0.070168 -0.0217264 0.0897884 -0.0201619 -0.0458363 -0.046153 -0.0322362 0.0566752 -0.0481662 -0.06826 -0.0830224 0.057815 -0.0200441 0.156769 -0.124639 -0.0967484 -0.144208 -0.0290527 -0.119543 -0.123004 0.0781829 0.11782 -0.0173304 -0.0207331 0.114936 -0.00791505 0.0793892
113 0.0194158 -0.0596106 -0.0202501 0.0230598 0.108028 -0.0616138 -0.0144759 -0.0446135 0.0354279 0.0259241 0.0256321 0.0334596 -0.0275357 0.015735 0.0526833 0.00366458 0.023824 -0.0678648 -0.0433503 -0.00248445 0.0141695 -0.082021 0.0135991 0.0472877 -0.0531732 0.0148524 0.0100948 -0.0702492 0.0124028 -0.0508925 -0.0327381 0.0636646 0.0732075 0.0901067 -0.0462778 0.0505603 0.00286061 -0.0108652 0.067574 0.0372147 0.0320939 0.0208501 -0.0802175 -0.00431599 -0.0420319 -0.0172681 -0.00681407 0.0594477 0.0129711 0.0156478 0.0185351 -0.0462378 0.0413872 -0.0880138 -0.0686256 -0.0272717 0.080522 -0.00350674 0.0349541 0.0431036 0.00113869 -0.0510964 -0.0526611 0.0232558 -0.0522168 -0.00684358 -0.00153938 -0.00850577 -0.0202076 0.0459716 -0.00545183 0.0461702 -0.00213401 0.0129497 0.0221588 0.00616458 0.00178287 -0.00165457 0.00130449 -0.0125992 -0.000533874 -0.102376 -0.030584 -0.0284765 0.0104076 -0.0136878 -0.0421218 -0.0363291 0.00866523 -0.00425063 0.0273426 0.0220636 -0.0224707 -0.00883564 -0.0216603 -0.0349064 -0.0262235 0.0333119 0.00769122 0.0159821 0.00229602 0.0136845 -0.0196946 0.0550385 -0.00776637 -0.0302632 -0.0215841 0.0174917 0.0327056 -0.0311885 -0.025002 -0.0255746 0.0314553 -0.0156862 0.0361881 -0.0527138 -0.0535647 -0.0737817 -0.00769358 -0.0438176 -0.0593151 0.0605063 0.0285087 0.00386915 0.0249274 0.0456195 0.00836248 0.0522172
361 0.0357839 -0.0610024 -0.0240971 0.0343123 0.118998 -0.0736837 -0.0293263 -0.0629243 0.0517299 0.034759 0.0350947 0.0516688 -0.0355411 0.0369478 0.0576965 0.0235028 0.0361113 -0.0732678 -0.0511364 -0.0167064 0.0160378 -0.0864587 0.0122405 0.0610501 -0.0654565 0.0217819 0.0291237 -0.0772437 0.0187689 -0.0617673 -0.0438579 0.0782838 0.0773818 0.0947403 -0.0579384 0.0632394 0.017893 -0.00953955 0.0871256 0.0564998 0.0392553 0.0275466 -0.0935752 -0.00509224 -0.0630689 -0.017189 -0.00224804 0.0693043 0.0188878 0.00784465 0.0325909 -0.0604981 0.0587438 -0.0977011 -0.0801226 -0.027299 0.103728 -0.00475804 0.0496087 0.050149 -0.00124727 -0.0703358 -0.0677878 0.0330783 -0.0531062 -0.0132248 -0.000495008 -0.0114137 -0.0271556 0.0514587 -0.0234377 0.0554779 -0.0132006 0.00797368 0.0100141 -0.00482978 0.00334385 -0.00239786 0.00166321 -0.0334666 -0.0161182 -0.118723 -0.0520882 -0.044014 0.00402969 -0.0215845 -0.0524762 -0.0361281 -0.000919937 -0.00987672 0.0364235 0.0319688 -0.0283974 -0.0127828 -0.0094676 -0.0271172 -0.0382659 0.0306211 0.0123512 0.0151396 0.00479039 0.0244434 -0.0206579 0.0670601 -0.0127674 -0.0361033 -0.0276616 0.0102759 0.0407969 -0.0355145 -0.0407375 -0.0407177 0.039575 -0.0182791 0.0576627 -0.0660979 -0.05863 -0.0855689 -0.0145187 -0.0551882 -0.0779412 0.0672545 0.0495229 0.00342758 0.0185106 0.0547428 0.00702946 0.0572129
439 0.0151906 -0.0792094 -0.0225265 0.0192192 0.125789 -0.0619025 -0.00350295 -0.044037 0.0331941 0.0266566 0.0215796 0.0290458 -0.0254799 0.00490084 0.0533523 -0.00626269 0.0102002 -0.0698453 -0.0406663 0.0063876 0.00610143 -0.0866732 0.016419 0.0503216 -0.0633705 0.0155389 0.00439999 -0.0785039 0.0120844 -0.0593012 -0.0337636 0.0694244 0.0888247 0.0976474 -0.0492399 0.0568198 -0.00801977 -0.0204855 0.0738253 0.0312831 0.0290864 0.0300845 -0.0860966 -0.0029592 -0.0422791 -0.0187128 -0.015443 0.0591079 0.0108287 0.0254816 0.0139168 -0.0475128 0.0456457 -0.106643 -0.0793758 -0.0341191 0.0924582 0.0018506 0.0345206 0.0422448 0.00233169 -0.0446843 -0.0581754 0.0239985 -0.0678576 -0.00759691 0.0013148 -0.0127647 -0.0195003 0.0500507 0.0122977 0.0513549 0.00195357 0.0233788 0.0344233 0.0201231 -0.00410254 0.00513171 -0.00125745 0.00319705 0.00214556 -0.121256 -0.0139076 -0.0258899 0.0221826 -0.0149544 -0.0442182 -0.0518241 0.00986772 0.00599137 0.020727 0.0200938 -0.028634 -0.0130012 -0.0382461 -0.0442188 -0.0299649 0.0351531 0.00611528 0.0271861 0.00479398 0.00676755 -0.0267988 0.0630571 -0.00473657 -0.0357059 -0.0194168 0.0294794 0.035707 -0.0372286 -0.031664 -0.0292398 0.0366492 -0.018824 0.0297467 -0.0511702 -0.0530796 -0.0814929 -0.00393089 -0.0392663 -0.0639139 0.0675612 0.0264097 0.00867578 0.0333808 0.0419435 0.00743952 0.0641453
565 0.0823869 -0.196601 -0.0714947 0.0806751 0.34144 -0.204274 -0.058699 -0.157787 0.129424 0.091669 0.0904377 0.135967 -0.0931079 0.0698724 0.165206 0.0358995 0.0825661 -0.215654 -0.141354 -0.0242656 0.0460537 -0.254335 0.0422139 0.158285 -0.177432 0.0594894 0.0595507 -0.223772 0.0522731 -0.163379 -0.107975 0.207032 0.234282 0.271113 -0.155772 0.180562 0.0359679 -0.0386263 0.227582 0.132683 0.107519 0.0784178 -0.256397 -0.0106551 -0.158926 -0.0454783 -0.0134814 0.179407 0.051748 0.0281638 0.0729797 -0.172793 0.158936 -0.286193 -0.23088 -0.0852189 0.277755 -0.0122886 0.138328 0.139364 -0.00995083 -0.177024 -0.185454 0.0737399 -0.168336 -0.0342273 0.00654349 -0.0374422 -0.0688729 0.152875 -0.0324068 0.150403 -0.0206806 0.0431723 0.0429636 0.00908267 0.00673801 0.000697132 0.0050622 -0.066335 -0.0188821 -0.338046 -0.115795 -0.115055 0.0352171 -0.0493796 -0.148469 -0.110757 -0.00215225 -0.0101509 0.0923174 0.0905736 -0.0785656 -0.0360895 -0.0526498 -0.0912638 -0.102812 0.0924714 0.0252571 0.0493122 0.0151755 0.0610539 -0.0749108 0.178388 -0.0291457 -0.111286 -0.0706835 0.0484646 0.109046 -0.101494 -0.103213 -0.104241 0.105095 -0.0509512 0.142055 -0.182995 -0.164728 -0.246294 -0.0361871 -0.15491 -0.199582 0.182309 0.121309 0.0156156 0.0578366 0.150264 0.0145442 0.171538
581 0.105231 -0.140441 -0.0740039 0.0773489 0.271389 -0.184496 -0.0928805 -0.153692 0.124166 0.0965776 0.107061 0.147957 -0.0856899 0.0992249 0.147995 0.0737304 0.104325 -0.182527 -0.127158 -0.0542892 0.0517271 -0.205242 0.0287579 0.13938 -0.146424 0.0570795 0.0850302 -0.193227 0.0615765 -0.141703 -0.101807 0.185804 0.169989 0.215255 -0.13861 0.163112 0.0656422 -0.0133968 0.203137 0.144073 0.0953476 0.056657 -0.229294 -0.0153787 -0.158804 -0.0356553 0.0078764 0.158454 0.0511806 0.00134574 0.0782752 -0.165535 0.153375 -0.224717 -0.196431 -0.0585265 0.249252 -0.0258964 0.132913 0.137491 -0.0138891 -0.184765 -0.173796 0.077868 -0.127509 -0.0312773 -0.000996157 -0.0415684 -0.0643494 0.136679 -0.0777641 0.119495 -0.050708 0.0140171 -0.00457769 -0.0148234 0.0047397 -0.0123266 0.0157043 -0.102072 -0.0411478 -0.277394 -0.143765 -0.123448 0.00147402 -0.051893 -0.134555 -0.0680482 -0.0283105 -0.0298647 0.104698 0.0876436 -0.0662165 -0.0388239 0.00427948 -0.0421028 -0.100845 0.0622003 0.0291759 0.0180931 0.00737894 0.0716722 -0.0523738 0.155123 -0.0257773 -0.0845846 -0.0647159 0.0156861 0.0940897 -0.0863801 -0.0943868 -0.107303 0.091004 -0.0319953 0.168314 -0.171613 -0.150433 -0.215766 -0.0359099 -0.150109 -0.186077 0.152862 0.129647 -0.00377662 0.0258509 0.149736 0.0040454 0.144121
308 0.0310751 -0.0951225 -0.0260902 0.0339848 0.156495 -0.0883437 -0.0156278 -0.0687737 0.0535634 0.0353153 0.0375998 0.0520525 -0.0432927 0.0219589 0.0685724 0.00599763 0.0330992 -0.0997735 -0.0649762 -0.00660843 0.0163473 -0.118208 0.0203848 0.0689167 -0.0853589 0.0239101 0.0172927 -0.10078 0.0243647 -0.0755434 -0.0484373 0.0888238 0.114443 0.129534 -0.0690962 0.0780608 0.0074414 -0.0250799 0.102931 0.0498321 0.0439816 0.0347811 -0.120264 -0.00495635 -0.0701874 -0.0241342 -0.00807697 0.0835467 0.0193947 0.0207565 0.0248322 -0.0736978 0.0645291 -0.139033 -0.10705 -0.0400456 0.122116 -0.00401541 0.0602221 0.0598697 0.000102435 -0.0733473 -0.0813535 0.0351928 -0.0803853 -0.0175301 2.04379e-05 -0.0114513 -0.0303438 0.0685186 -0.00580718 0.0730953 -0.00489766 0.0220764 0.0253458 0.0161302 0.00265231 0.00483983 0.00153036 -0.0162711 -0.00180637 -0.156311 -0.044244 -0.0482835 0.017896 -0.0260744 -0.0664596 -0.0563404 0.00449326 0.00248296 0.0394756 0.0395272 -0.0353963 -0.0174341 -0.0363499 -0.0451283 -0.0443979 0.0424776 0.00748896 0.0251434 0.00309303 0.0247656 -0.0326765 0.0845078 -0.0133172 -0.0503141 -0.0331848 0.0340865 0.0457731 -0.051894 -0.0393163 -0.0430399 0.0476214 -0.0237929 0.0570948 -0.081538 -0.0717139 -0.10988 -0.0089614 -0.0667031 -0.0914733 0.0893776 0.0518447 0.00715338 0.0366214 0.0630052 0.0113452 0.0809263
1069 0.0581198 0.0067282 -0.0253895 0.0261277 0.0238474 -0.0364915 -0.0640953 -0.0433265 0.042131 0.040669 0.0530443 0.0566191 -0.0164065 0.0605977 0.0383723 0.0651506 0.052117 -0.0294663 -0.0305312 -0.0431676 0.0298683 -0.0171698 -0.00517521 0.029212 -0.0166798 0.0107033 0.0555064 -0.0284727 0.0242297 -0.0190948 -0.0206159 0.0438634 -0.00256064 0.0167834 -0.0329263 0.0423023 0.0501514 0.0228969 0.0393357 0.0677509 0.0266561 0.00760771 -0.0433586 -0.00684076 -0.0531402 -0.00590959 0.0210606 0.0322329 0.0191966 -0.0336184 0.0426328 -0.0497183 0.0504246 -0.00959441 -0.0334871 0.00127445 0.0500929 -0.0287405 0.0419925 0.0462215 -0.00654691 -0.0656488 -0.0451965 0.0284087 0.00570016 -0.00520203 -0.00555568 -0.0154377 -0.0209699 0.0297262 -0.0755572 0.00629807 -0.0399131 -0.0160561 -0.0464908 -0.0398064 0.00442406 -0.0134949 0.0189044 -0.0752655 -0.0411029 -0.0285598 -0.0756332 -0.0499156 -0.0324742 -0.0112519 -0.034214 0.0224863 -0.0403389 -0.0259271 0.0443939 0.0325561 -0.00344949 -0.0102995 0.0587413 0.0286115 -0.0353707 -0.00140899 0.017038 -0.0281515 -0.00395449 0.0423463 0.00142627 0.0190095 -0.00770675 -0.00728725 -0.0171504 -0.0321346 0.0147568 -0.00660536 -0.0284111 -0.039557 0.0126272 -0.00556206 0.0818504 -0.0474732 -0.030044 -0.0459883 -0.0160037 -0.0506405 -0.0403455 0.0105148 0.0514281 -0.0174933 -0.033888 0.046389 -0.00462556 0.0129744
447 0.0219464 -0.0641731 -0.0177658 0.0205325 0.108857 -0.0645262 -0.0148255 -0.0498651 0.0383156 0.0288991 0.0226077 0.0435768 -0.0244169 0.0170503 0.0504917 0.00735996 0.0229719 -0.0648299 -0.0416239 -0.00108249 0.0121122 -0.0777603 0.0126999 0.053049 -0.0586246 0.0202863 0.0175205 -0.0740629 0.0143264 -0.0537327 -0.0320378 0.0638485 0.0742123 0.0915515 -0.047056 0.0562114 0.0089973 -0.0159236 0.0744766 0.0403273 0.0358043 0.0238037 -0.0816257 -0.00101245 -0.0485708 -0.0169632 -0.0055631 0.0596545 0.0196375 0.0116005 0.0192593 -0.0528782 0.0458677 -0.0903608 -0.0728468 -0.0278878 0.0897969 -0.00286126 0.0370436 0.0429133 -0.0029839 -0.0568283 -0.0574368 0.0257785 -0.0553068 -0.00798312 0.00399753 -0.00747352 -0.0170509 0.0483259 -0.00201498 0.0460456 -0.00756948 0.0158769 0.014731 0.0115671 -0.000760146 0.000400334 -0.00176162 -0.016017 -0.00170415 -0.109577 -0.0330836 -0.0354473 0.0128416 -0.0188474 -0.0442901 -0.036555 0.00262577 -0.00106582 0.0254865 0.029725 -0.025995 -0.013717 -0.0235849 -0.0295562 -0.0312807 0.0331302 0.00704386 0.0177923 0.0014611 0.0185125 -0.0268223 0.0582143 -0.00541398 -0.0371589 -0.0211585 0.0195038 0.0365087 -0.0331298 -0.0274347 -0.0283193 0.0309247 -0.0185499 0.0437591 -0.0570341 -0.052992 -0.076759 -0.0115278 -0.0474727 -0.0649207 0.0598014 0.0368583 0.00462407 0.0268266 0.0463112 0.0029122 0.0586111
564 0.0541191 -0.135431 -0.0498573 0.0523293 0.23405 -0.137266 -0.039025 -0.101644 0.0868932 0.0567854 0.0581302 0.0868195 -0.0636099 0.0444645 0.112932 0.0174355 0.0542036 -0.143488 -0.0929673 -0.0139138 0.0298272 -0.176357 0.0305297 0.112275 -0.122278 0.0382679 0.0374409 -0.152667 0.0333657 -0.111048 -0.0741987 0.136852 0.158272 0.192585 -0.107904 0.115267 0.0194333 -0.0252945 0.156736 0.0819626 0.0713809 0.0545208 -0.17255 -0.00444528 -0.107588 -0.0287377 -0.0133589 0.127104 0.0364147 0.0288045 0.0462923 -0.115294 0.106421 -0.199784 -0.158076 -0.0606637 0.189152 -0.00465872 0.0885598 0.0929645 -0.00405926 -0.119946 -0.127411 0.050483 -0.120293 -0.0172985 0.00419281 -0.020092 -0.0468767 0.0979918 -0.0102591 0.102217 -0.0155854 0.0275946 0.0324852 0.0112188 -0.000188645 -0.00205491 0.00348536 -0.0347223 -0.0107913 -0.237076 -0.0712055 -0.0744913 0.029471 -0.0378375 -0.0958692 -0.0833189 0.00651474 -0.00618802 0.0624192 0.0584194 -0.057665 -0.0261694 -0.0432202 -0.0659616 -0.0704623 0.063636 0.0159433 0.0382261 0.0093457 0.038151 -0.0496853 0.122997 -0.0171687 -0.0729365 -0.0494661 0.0376431 0.0749573 -0.0735595 -0.0684539 -0.0696907 0.0733657 -0.0323778 0.0959448 -0.120424 -0.110006 -0.164921 -0.0207848 -0.10247 -0.13829 0.125317 0.0736837 0.0107044 0.0455902 0.104415 0.0134473 0.11511
583 0.123628 -0.124214 -0.0736623 0.0856851 0.259077 -0.188768 -0.113526 -0.15651 0.136302 0.1094 0.122097 0.161458 -0.0868228 0.124628 0.152537 0.105248 0.115133 -0.175512 -0.131585 -0.072663 0.0618543 -0.193152 0.0221431 0.138887 -0.138576 0.0568193 0.100987 -0.185467 0.0642703 -0.13642 -0.0982943 0.18988 0.155024 0.20463 -0.142464 0.178105 0.0890549 7.95866e-05 0.208291 0.163924 0.105157 0.059094 -0.228538 -0.0154785 -0.17121 -0.0339527 0.0200792 0.159259 0.059404 -0.0162532 0.0967826 -0.174261 0.165475 -0.209692 -0.192366 -0.0580967 0.248907 -0.0394581 0.141621 0.151862 -0.0106004 -0.199637 -0.18271 0.0810825 -0.115821 -0.0321325 -0.00443298 -0.0406885 -0.0723807 0.131895 -0.111713 0.117515 -0.0604427 0.00788385 -0.0308619 -0.0328826 0.0142655 -0.012753 0.0268122 -0.130796 -0.0592364 -0.266374 -0.166669 -0.131056 -0.0153251 -0.0553038 -0.139929 -0.0544797 -0.0470151 -0.0360193 0.116942 0.0988649 -0.0620801 -0.0365141 0.0348404 -0.0257807 -0.10732 0.0606751 0.0273578 -0.00163173 0.0109923 0.0820821 -0.0513809 0.147784 -0.027809 -0.0840133 -0.0663513 -0.00415375 0.0906551 -0.0788907 -0.101591 -0.1113 0.0934278 -0.0295254 0.189276 -0.173979 -0.155236 -0.22097 -0.0417838 -0.159382 -0.19051 0.142578 0.144685 -0.00905297 0.00872522 0.157558 0.00336521 0.13381
86 0.0201511 -0.0828328 -0.0256229 0.0290263 0.145753 -0.0775635 -0.0120308 -0.0583715 0.0408303 0.0317094 0.0297795 0.0404428 -0.0363475 0.0164107 0.060438 0.000450339 0.0238877 -0.084716 -0.0552661 0.00350437 0.0140047 -0.103725 0.0199122 0.0654122 -0.0737355 0.0259883 0.0121511 -0.0880494 0.013133 -0.0648907 -0.0397553 0.082177 0.102086 0.113926 -0.0615198 0.0623976 0.00357473 -0.0207264 0.0933825 0.0387269 0.0395191 0.0342275 -0.0986247 0.000425714 -0.0545867 -0.0216261 -0.0127655 0.0715368 0.0223541 0.0259026 0.0161381 -0.0587114 0.0570668 -0.121687 -0.0954021 -0.036662 0.108176 0.00600187 0.0475616 0.0483672 -0.00410209 -0.0580062 -0.073131 0.0232159 -0.0713008 -0.0122928 0.00577118 -0.0083425 -0.023629 0.058322 0.00733134 0.0598848 0.00353617 0.021744 0.029079 0.0181179 0.00298772 0.00107968 -0.00560625 -0.00978563 0.00258786 -0.143037 -0.0258175 -0.0312207 0.0264914 -0.0225286 -0.0570817 -0.0559803 0.0140511 0.00174789 0.0289748 0.0303489 -0.0304541 -0.0149349 -0.041786 -0.0505823 -0.0342156 0.0377435 0.00876979 0.0257901 0.00440637 0.0165382 -0.0320393 0.0783231 -0.0067604 -0.0462681 -0.0280056 0.0311756 0.0398161 -0.0432629 -0.0315974 -0.0314686 0.0404168 -0.0231251 0.0393726 -0.0654039 -0.0607283 -0.0950093 -0.00980394 -0.0526375 -0.0811185 0.0804649 0.0341173 0.0121537 0.0380309 0.0534224 0.00859927 0.0710394
382 0.059649 -0.0974112 -0.0469525 0.046639 0.176712 -0.117478 -0.0507461 -0.0969003 0.081146 0.0627886 0.0642889 0.0876746 -0.0515841 0.0570675 0.0982512 0.0450269 0.0617438 -0.118428 -0.0796194 -0.0306713 0.0281691 -0.135905 0.0193807 0.0910023 -0.0915294 0.0375397 0.050442 -0.123135 0.0361981 -0.0942206 -0.0655094 0.115676 0.114754 0.141738 -0.0917041 0.10971 0.0358273 -0.0139615 0.132966 0.0903776 0.0630145 0.0371123 -0.145883 -0.00532648 -0.0993692 -0.0221066 0.00179223 0.103507 0.0339932 0.00421986 0.0514724 -0.104849 0.0971732 -0.150761 -0.124852 -0.0404554 0.161438 -0.0127421 0.083999 0.0846666 -0.00452582 -0.113198 -0.111581 0.0514713 -0.081909 -0.015622 -0.000868771 -0.0225463 -0.0445698 0.0886854 -0.0479769 0.0834276 -0.0295369 0.015637 0.000267674 -0.00614444 0.00661522 -0.00887428 0.0120494 -0.0570643 -0.0239012 -0.184013 -0.0868339 -0.0708359 0.00586976 -0.0353974 -0.0895978 -0.0514608 -0.0107787 -0.0130612 0.0650355 0.0552952 -0.0372351 -0.0236936 -0.00351453 -0.0318234 -0.0613744 0.0471215 0.0190533 0.0138548 0.00545213 0.0405213 -0.0379948 0.0985814 -0.0195511 -0.0532077 -0.042626 0.012185 0.0624376 -0.0561512 -0.0601174 -0.0673755 0.0634459 -0.0243294 0.1067 -0.110042 -0.100148 -0.138133 -0.024853 -0.0954465 -0.117413 0.0948656 0.0838124 -0.000141416 0.0218753 0.0931567 0.00882499 0.0900696
