124 128
72 0.0440304 0.0456485 0.100609 0.117342 -0.125017 -0.0436997 0.119679 -0.0993844 0.095304 -0.0793135 0.0462066 -0.0256491 -0.138788 0.16297 0.000277366 -0.00187365 -0.140575 -0.0095608 0.16624 0.0403918 0.231379 -0.112544 -0.290015 -0.0267958 -0.146603 -0.162263 -0.110624 0.195704 -0.129369 0.200815 0.273068 -0.244977 0.0927032 -0.135763 -0.0942319 0.0262781 -0.315606 0.115838 0.154278 0.135309 -0.00903419 -0.176744 0.145579 0.0868627 0.113426 0.0105518 0.150632 0.023622 0.0223266 -0.153664 0.0301575 -0.0583956 -0.0861024 0.015095 -0.111392 -0.0365684 0.0288027 0.0599578 -0.031091 -0.276845 0.167312 0.0642919 0.116812 0.172706 0.110415 -0.228138 0.0370121 0.0199565 -0.0822407 -0.0758974 0.195644 0.216035 0.00671423 -0.0502968 0.0554466 -0.0705043 -0.0429468 0.0530954 -0.272073 0.235502 -0.175518 0.169353 -0.0970049 0.0166596 -0.251711 0.075877 0.102384 0.0771582 -0.192501 0.214046 0.0869322 -0.102808 0.172846 -0.381535 -0.0989818 -0.189508 -0.125106 0.0298415 -0.0620696 -0.0874486 0.138607 0.182428 -0.23422 -0.1913 0.148162 -0.195476 0.0794264 -0.168841 0.0803199 -0.0973226 -0.255305 0.00540742 0.248724 -0.0382684 0.226125 0.218241 0.0984311 -0.0588221 -0.179863 0.257823 0.11657 -0.161666 0.0872419 0.387116 -0.169134 0.129175 0.168093 0.146201
7 0.0626627 0.0438902 0.0634032 0.114825 -0.104289 0.00992139 0.128563 -0.0558961 0.124515 -0.0791675 0.0378351 -0.0405788 -0.178009 0.108056 0.0356387 0.0262708 -0.177717 -0.0296481 0.196323 0.00626458 0.294282 -0.0782961 -0.292141 -0.0236205 -0.110259 -0.126993 -0.128874 0.205327 -0.130909 0.20214 0.228799 -0.254901 0.0923383 -0.115077 -0.0765288 -0.00109792 -0.277502 0.101712 0.149396 0.129569 0.038122 -0.11025 0.15709 0.0884517 0.129735 0.0269132 0.114892 0.00995455 0.0563027 -0.169963 0.030595 -0.0598279 -0.0823954 0.0115643 -0.125273 -0.0310099 0.0608304 0.0480482 -0.0352999 -0.278381 0.174857 0.0445492 0.0940647 0.153014 0.16446 -0.248186 0.0464597 0.0184352 -0.0930522 -0.0965234 0.146564 0.323566 0.0328969 -0.059647 0.0912447 -0.04709 -0.0450145 0.0823785 -0.2372 0.259013 -0.137145 0.204314 -0.109052 -0.0275388 -0.190564 0.058992 0.070545 0.109683 -0.249293 0.188645 0.0899716 -0.136846 0.211938 -0.383281 -0.0890908 -0.188847 -0.122857 0.0446398 -0.0331131 -0.0408227 0.180356 0.213874 -0.220879 -0.193938 0.144251 -0.210483 0.0775026 -0.0943499 0.0328852 -0.0944988 -0.213759 0.0934611 0.25159 -0.0367426 0.247478 0.225457 0.0932285 -0.0783797 -0.203076 0.253279 0.10477 -0.132358 0.107876 0.35047 -0.109971 0.133912 0.168054 0.176729
0 -0.181517 0.156129 0.204606 -0.0873561 -0.00908906 0.551535 0.00489919 -0.10545 0.0833493 -0.0902896 0.284223 -0.036889 -0.245934 -0.165479 0.576023 0.397211 -0.193666 0.07788 0.669932 -0.0507104 0.631555 0.185782 -0.82762 -0.154978 -0.220915 -0.390709 -0.543916 0.212245 -0.0699019 0.271546 0.106149 0.0900703 0.154522 -0.639678 0.399463 -0.389483 -0.229802 -0.146245 0.107094 0.385686 -0.1451 -0.186569 0.338863 0.537243 0.410461 0.575208 0.210015 0.361233 0.341051 -0.0313459 0.0480789 -0.237018 -0.188117 0.479898 -0.39752 -0.133401 0.118594 0.0760033 0.186228 0.159045 0.183348 -0.0317002 0.282586 -0.112242 0.552597 -0.404537 0.152418 0.347149 -0.00143271 0.0580164 -0.0766735 0.9291 0.378938 -0.13093 0.187984 0.295919 -0.612974 0.357466 -0.381341 0.451672 -0.054979 0.422636 -0.171201 0.134612 0.0307728 0.482254 0.125348 0.248303 -0.516998 0.227604 -0.0109955 -0.396802 0.63943 -0.401978 -0.0265961 0.0316076 -0.299354 -0.300786 -0.0721169 0.247204 0.514167 0.175947 -0.13283 -0.096111 0.266551 0.12513 0.200753 -0.219759 0.138808 0.131874 -0.168287 0.377703 0.0730224 -0.0902958 0.193366 0.180777 0.535892 -0.285446 -0.524079 0.322981 0.0960399 -0.181661 0.258744 0.654485 -0.131919 0.193423 0.273684 0.206779
12 0.0967178 0.064382 0.0480039 0.0957374 -0.10064 0.0560151 0.0495394 -0.0928967 0.190263 -0.0315267 0.0445691 -0.0696247 -0.205021 0.0015321 0.0955499 0.0910866 -0.127334 -0.0639713 0.261163 -0.106707 0.274031 -0.0345867 -0.259294 0.0351829 -0.119672 -0.120857 -0.108938 0.201739 -0.204825 0.0897653 0.1455 -0.145471 0.0361244 -0.0574296 -0.0751782 -0.0804621 -0.132109 0.060407 0.0247013 0.159464 0.136142 -0.047406 0.121871 0.0756168 0.125123 0.0725822 0.0548673 -0.0339577 0.118849 -0.16702 0.128162 -0.00864466 -0.127797 0.0255103 -0.0670097 0.0257191 0.0207476 0.0676686 0.0178763 -0.20516 0.144604 0.0105633 0.127516 0.138422 0.260412 -0.264688 0.00269909 0.0365934 -0.0893341 -0.143214 0.0490664 0.353495 0.109228 -0.094805 0.1687 0.0154045 -0.0573282 0.103792 -0.197784 0.29047 -0.0758365 0.233531 -0.153404 -0.0629179 0.00310036 0.0302044 0.0411362 0.206736 -0.259753 0.146094 0.12057 -0.180739 0.170741 -0.248742 -0.0171299 -0.10602 -0.166109 0.0814206 0.0719426 0.0232224 0.210586 0.177638 -0.206192 -0.0832287 0.139147 -0.160494 0.0494107 0.0362059 -0.0403595 -0.12112 -0.145106 0.130451 0.243482 -0.00337343 0.101721 0.218577 0.0912761 -0.0372776 -0.188111 0.200296 0.0259261 -0.0450398 0.1504 0.300688 -0.0951749 0.147725 0.169294 0.165064
80 0.132803 0.0648576 0.0469342 -0.0118606 -0.211885 -0.0145416 -0.0118459 -0.124463 0.174047 0.0170237 0.131119 0.0669495 -0.18944 -0.0635459 0.212325 0.114463 -0.10319 -0.0686726 0.290889 -0.0507329 0.198768 0.0139465 -0.256707 0.00779581 -0.12221 -0.17067 -0.0963683 0.116785 -0.213131 0.0672022 0.183251 -0.0647544 0.010758 -0.117017 -0.0171778 -0.139337 -0.0432918 0.00282171 -0.0354926 0.142224 0.0882927 -0.107772 0.0381484 0.171368 0.12151 0.23902 -0.010847 -0.0735173 0.125228 -0.129116 0.137711 0.00877647 -0.102852 -0.0654276 -0.0470824 0.0580006 -0.0111619 0.135853 -0.0169765 -0.147526 0.0299582 -0.12548 0.136955 0.203569 0.294807 -0.396328 0.0306089 0.0166632 -0.154094 -0.12104 -0.0555137 0.385316 0.20917 -0.138695 0.223505 -0.0860609 -0.1446 0.0242618 -0.330205 0.336307 -0.0245746 0.197526 -0.169106 -0.0769811 0.0562678 0.00641188 0.003114 0.189456 -0.263445 0.115829 0.0389765 -0.26233 0.112295 -0.113235 0.0338821 -0.139214 -0.178066 0.0998634 0.0773187 0.0383857 0.177357 0.0399139 -0.156544 0.0844116 0.143412 -0.077927 0.0503311 -0.0375748 -0.0266632 -0.165333 -0.201552 0.160351 0.212459 0.0157944 0.062346 0.257906 0.124961 0.0160797 -0.0983704 0.161808 -0.0569764 0.022427 0.191002 0.178545 0.00434338 0.195897 0.164243 0.20953
8 0.0460595 0.0605761 0.0732571 0.106405 -0.12637 -0.00774719 0.0764912 -0.0687647 0.133863 -0.0586404 0.113395 -0.0243927 -0.187879 0.116923 0.0360803 0.045479 -0.15228 -0.0289506 0.174478 0.0179064 0.261647 -0.0605898 -0.299016 -0.0189261 -0.116071 -0.140564 -0.109514 0.19963 -0.121931 0.183232 0.234512 -0.206574 0.0720519 -0.12781 -0.112218 -0.00285273 -0.27242 0.109046 0.145256 0.139147 0.0375352 -0.143649 0.134394 0.0637475 0.133591 0.0482517 0.124302 -0.0043338 0.0723153 -0.171425 0.064282 -0.0575142 -0.0649754 0.00258573 -0.110352 -0.04049 0.0388179 0.082851 -0.0331232 -0.243137 0.193799 0.0402708 0.0914634 0.183749 0.15541 -0.258834 0.0581724 0.0174084 -0.083754 -0.107769 0.140119 0.276039 0.0478986 -0.0701784 0.0688006 -0.0295598 -0.0612624 0.0916152 -0.269741 0.258048 -0.131584 0.197742 -0.112957 0.00416565 -0.194136 0.0484763 0.111286 0.104916 -0.263754 0.199808 0.128299 -0.135851 0.190109 -0.373282 -0.0695334 -0.184809 -0.126707 0.0519883 -0.0266875 -0.0657336 0.178357 0.181738 -0.216257 -0.155078 0.134972 -0.196594 0.0735241 -0.11536 0.03803 -0.119482 -0.251609 0.079346 0.240924 -0.0378807 0.214137 0.210538 0.116508 -0.072671 -0.200341 0.258382 0.0729047 -0.120177 0.10351 0.355863 -0.141368 0.128067 0.190322 0.153346
9 0.0659183 0.0504528 0.0331946 0.0867368 -0.154262 0.0327828 0.0660605 -0.0769899 0.150868 -0.0368577 0.0809231 0.00215432 -0.186745 0.0492004 0.0959349 0.0626863 -0.143442 -0.0301038 0.228183 -0.0321317 0.309463 -0.0183697 -0.292461 -0.0134854 -0.115369 -0.13148 -0.146114 0.15979 -0.153984 0.123135 0.173743 -0.185285 0.0394936 -0.105127 -0.0567544 -0.0757187 -0.227971 0.0256395 0.0697038 0.163615 0.0342953 -0.11106 0.169261 0.118671 0.122473 0.086607 0.101155 0.000574791 0.098994 -0.181251 0.0764302 -0.0732557 -0.116823 0.0041202 -0.100837 0.0148867 0.0433601 0.0748863 -0.0358785 -0.230538 0.116024 -0.00767657 0.105932 0.158216 0.239001 -0.294498 0.0344387 0.0286545 -0.112832 -0.110898 0.106387 0.344991 0.0705133 -0.0842124 0.128647 -0.0239289 -0.0673098 0.111191 -0.282188 0.269733 -0.0797137 0.240849 -0.0948345 -0.0508278 -0.11257 0.0113216 0.0644617 0.115401 -0.244719 0.171319 0.0819631 -0.213981 0.201007 -0.280438 -0.0433633 -0.153484 -0.155227 0.0487562 0.0319827 -0.00742652 0.187366 0.16234 -0.173817 -0.116556 0.13167 -0.183322 0.0777984 -0.0713086 0.00810639 -0.127262 -0.229718 0.106652 0.218255 -0.00874531 0.15823 0.25334 0.100563 -0.0635225 -0.206457 0.213033 0.0386871 -0.0817074 0.131233 0.305741 -0.0801732 0.158765 0.151837 0.176558
4 0.0716797 0.0550183 0.0629195 0.106021 -0.0664412 0.0628006 0.113221 -0.128314 0.193847 -0.0271698 -0.0152123 -0.0813833 -0.146683 0.0110442 0.0457722 0.0789193 -0.14378 -0.0861583 0.276235 -0.120641 0.262289 -0.0595352 -0.236141 0.00663346 -0.149215 -0.0791227 -0.116483 0.208074 -0.224001 0.107924 0.21517 -0.132144 0.0407843 -0.0693724 -0.0532308 -0.0746352 -0.158633 0.0474374 0.0384614 0.172229 0.089759 -0.0376793 0.16197 0.0958721 0.15094 0.0233548 0.0968775 0.00691197 0.11299 -0.146408 0.138617 -0.0231892 -0.169624 0.0706102 -0.0964667 0.0442877 0.0283402 0.0575874 0.0358947 -0.201211 0.123476 0.0227472 0.135292 0.116703 0.24171 -0.201792 -0.00790778 0.0657358 -0.0705575 -0.127721 0.0805473 0.328818 0.120442 -0.0685592 0.170646 0.037288 -0.0759176 0.108858 -0.166501 0.281152 -0.119473 0.215137 -0.110843 -0.0422725 -0.010269 0.0670573 0.0394661 0.216901 -0.228354 0.155741 0.0820805 -0.18663 0.177096 -0.27771 -0.000117531 -0.086335 -0.170937 0.0731732 0.0228698 -0.00529376 0.211906 0.164702 -0.219072 -0.123266 0.167589 -0.156895 0.0373973 -0.000187137 -0.00132184 -0.101453 -0.142658 0.100061 0.224648 0.0229529 0.106786 0.194922 0.118636 -0.0349861 -0.202781 0.206462 0.0675824 -0.0899012 0.065901 0.312434 -0.135467 0.0923551 0.131137 0.170457
38 0.0836789 0.062529 0.0708639 0.0976032 -0.090032 0.0279727 0.0748844 -0.138697 0.211773 -0.0085188 0.0101346 -0.090049 -0.151636 0.00531439 0.0253303 0.0910243 -0.116225 -0.0972432 0.264259 -0.128968 0.214066 -0.0463751 -0.222893 0.0119876 -0.158861 -0.0939299 -0.0835901 0.201329 -0.251808 0.073549 0.184734 -0.111689 -0.00246924 -0.0457567 -0.0848778 -0.0687156 -0.0953583 0.0608311 0.00752147 0.162847 0.134596 -0.019071 0.125568 0.0688987 0.136424 0.0357191 0.0747218 -0.0138807 0.102794 -0.147307 0.162239 -0.00509615 -0.164852 0.0384686 -0.0707829 0.0599912 0.00764731 0.07756 0.0169198 -0.188945 0.129804 0.0143703 0.112825 0.124001 0.225854 -0.227887 -0.01013 0.0578291 -0.0593085 -0.140679 0.0479934 0.292354 0.127687 -0.089986 0.149099 0.042722 -0.0667302 0.0858107 -0.164603 0.292519 -0.12184 0.187062 -0.14087 -0.0311089 0.00993596 0.0363033 0.0152246 0.215025 -0.23467 0.16121 0.0978918 -0.169416 0.135052 -0.233545 0.0288171 -0.0816606 -0.16482 0.0985892 0.0246119 -0.00202177 0.216513 0.128962 -0.228232 -0.0903244 0.165331 -0.138028 0.0273489 0.0134648 -0.0210803 -0.137707 -0.149552 0.0915279 0.230413 0.0471337 0.0558518 0.191803 0.0951905 -0.00461247 -0.175341 0.169525 0.0601023 -0.0562511 0.0874042 0.275112 -0.130993 0.0786898 0.133467 0.169012
82 0.189284 0.0947715 0.07548 0.0540425 -0.153368 0.041575 0.0428083 -0.188627 0.302545 0.0838912 0.0377335 -0.0980074 -0.199416 -0.11527 0.086099 0.200025 -0.148437 -0.18569 0.353869 -0.260058 0.227568 -0.0457087 -0.139749 0.0774103 -0.17531 -0.0766063 -0.0331345 0.261954 -0.398887 -0.0555689 0.158553 -0.034612 -0.0606718 0.00693432 -0.153381 -0.15148 0.11655 0.08589 -0.101575 0.132606 0.319893 0.0679703 0.0203969 0.0799161 0.138714 0.0712393 -0.0225953 -0.163261 0.0995134 -0.202462 0.29242 0.0308855 -0.20475 -0.0371198 0.011117 0.16976 0.0103155 0.151245 0.0180392 -0.154221 0.131931 -0.0248948 0.131603 0.146291 0.349578 -0.268347 -0.00236377 0.00941184 -0.150849 -0.238886 -0.114695 0.402324 0.228032 -0.142723 0.253577 0.0602402 -0.0653256 0.0755855 -0.135735 0.422283 -0.109613 0.221723 -0.237558 -0.117804 0.193281 -0.0258966 -0.0385357 0.308842 -0.308156 0.110685 0.152159 -0.226389 0.0614397 -0.108151 0.0713375 -0.0792578 -0.231292 0.246435 0.148043 0.0442133 0.276864 0.139038 -0.239911 0.0275082 0.1597 -0.156731 -0.0278809 0.126658 -0.151601 -0.253869 -0.0900345 0.168385 0.250907 0.0845244 -0.0728807 0.256813 0.124258 0.0875333 -0.0936981 0.0653977 -0.0172914 0.0862638 0.135083 0.193317 -0.0989008 0.0834762 0.118158 0.258997
61 0.183439 0.109122 0.0430877 -0.010246 -0.212597 -0.0469244 -0.032619 -0.21763 0.31678 0.0968973 0.162915 0.0243566 -0.216375 -0.159721 0.192854 0.234491 -0.0999415 -0.174789 0.396142 -0.231312 0.160626 0.0207857 -0.223389 0.0515314 -0.179523 -0.0903918 -0.0460412 0.201388 -0.414945 -0.0528624 0.178603 0.000284354 -0.0953412 -0.0187105 -0.108274 -0.206391 0.125179 0.0473062 -0.118618 0.16321 0.284232 0.032965 -0.00418314 0.075716 0.151807 0.204861 -0.0527819 -0.133923 0.136214 -0.157661 0.340729 0.028516 -0.156404 -0.0777277 0.00417973 0.173992 -0.0230707 0.174253 0.0263634 -0.104426 0.049797 -0.125764 0.1443 0.205805 0.425104 -0.430146 -0.00886757 -0.0231993 -0.203924 -0.238997 -0.162506 0.475806 0.319857 -0.163649 0.255204 0.00419005 -0.106606 0.0358324 -0.309378 0.467087 -0.00359051 0.210312 -0.285975 -0.113722 0.248588 -0.0405661 -0.032593 0.323924 -0.358435 0.114905 0.125593 -0.31624 0.05762 -0.0164401 0.133092 -0.146412 -0.236329 0.275954 0.136536 0.0515062 0.292592 0.0658799 -0.243125 0.114405 0.225321 -0.049387 -0.0410594 0.0950429 -0.137389 -0.298286 -0.139015 0.246307 0.236597 0.0920193 -0.023292 0.257187 0.128212 0.0937598 -0.0660618 0.0951485 -0.075146 0.0856176 0.205806 0.112409 -0.0370742 0.116458 0.150639 0.27522
42 0.164289 0.0891333 0.114584 0.000405576 -0.241543 -0.0665293 0.00675379 -0.225078 0.195402 0.0447358 0.0916905 0.0372196 -0.161021 -0.0442159 0.158891 0.159433 -0.103774 -0.126634 0.343501 -0.122506 0.160755 -0.0162401 -0.225484 0.0128296 -0.215098 -0.153208 -0.0627117 0.174051 -0.344391 0.0185033 0.263243 -0.0439818 -0.0310046 -0.0948661 -0.0678151 -0.149065 0.0171118 0.0363127 -0.0673669 0.144003 0.139057 -0.0964343 -0.0073321 0.183498 0.133619 0.20391 0.00809481 -0.0914562 0.0894534 -0.148447 0.224491 0.00445811 -0.166195 -0.0450466 -0.0370418 0.136923 -0.0478686 0.164714 -0.00456567 -0.157625 0.0637902 -0.113215 0.154034 0.211112 0.317224 -0.379824 0.00773256 0.0138266 -0.159468 -0.164828 -0.0504463 0.348898 0.268244 -0.154656 0.224651 -0.0651873 -0.172703 0.00339043 -0.320502 0.416887 -0.0808284 0.17637 -0.206743 -0.0598625 0.0987446 0.010419 -0.000781577 0.238571 -0.259688 0.135371 0.045724 -0.244338 0.0501316 -0.0950924 0.0706586 -0.137051 -0.211716 0.172591 0.0669529 0.00217923 0.207812 0.033965 -0.219333 0.0870432 0.198892 -0.0703169 0.000717096 -0.060622 -0.035642 -0.21849 -0.203492 0.108933 0.216941 0.077108 -0.0200372 0.27641 0.133969 0.0900171 -0.0615261 0.124529 -0.0399615 0.00698167 0.146127 0.20487 -0.0782357 0.144949 0.147077 0.260788
2 0.0682109 0.0533128 0.0521134 0.126716 -0.148649 0.0208352 0.0555395 -0.0869029 0.168228 -0.053216 0.0814968 -0.0326601 -0.182885 0.0861791 0.0362494 0.0467834 -0.146665 -0.02655 0.205058 -0.0437163 0.289824 -0.0456751 -0.292244 0.00348299 -0.143354 -0.131306 -0.111336 0.195553 -0.171526 0.144834 0.20266 -0.204809 0.0438125 -0.0867819 -0.120851 -0.036615 -0.269235 0.0616779 0.106474 0.176724 0.0651114 -0.124112 0.175214 0.0796612 0.13029 0.0231719 0.135636 0.00278167 0.0931681 -0.183583 0.0970802 -0.0622811 -0.117784 0.00431732 -0.0874302 0.011099 0.0350205 0.0951842 -0.0163956 -0.268788 0.167589 0.0400598 0.103447 0.184534 0.203202 -0.283114 0.0286042 0.0354585 -0.0966284 -0.139524 0.141315 0.285168 0.0390921 -0.0937006 0.102022 -0.0208597 -0.0391496 0.106214 -0.267063 0.257694 -0.118264 0.235709 -0.0838295 -0.0404509 -0.145596 0.0216486 0.0814137 0.14152 -0.257082 0.201747 0.135365 -0.181219 0.198737 -0.351413 -0.0485677 -0.156847 -0.171172 0.0440611 0.0212928 -0.0462722 0.195366 0.18067 -0.214291 -0.157442 0.130663 -0.231071 0.0695931 -0.0693997 0.0212256 -0.147223 -0.246588 0.0880124 0.264127 -0.0139569 0.166888 0.240453 0.113485 -0.0650055 -0.21017 0.260122 0.0641276 -0.104172 0.116815 0.356362 -0.134603 0.152642 0.182436 0.16021
1 0.0554134 0.036484 0.0663339 0.123487 -0.141692 0.0370634 0.10609 -0.0810379 0.101233 -0.0713132 0.0548446 -0.00168754 -0.143332 0.117983 0.0291531 0.0697965 -0.174014 -0.0161588 0.223137 -0.0393666 0.312331 -0.0262183 -0.326447 -0.0424793 -0.16831 -0.0850535 -0.156151 0.195752 -0.179986 0.154174 0.227291 -0.216686 0.0499154 -0.121852 -0.0793126 -0.0493077 -0.283088 0.0513815 0.148027 0.154421 6.01221e-05 -0.127262 0.155494 0.149305 0.139523 0.00680307 0.160865 0.0411347 0.0693065 -0.189758 0.0690726 -0.128623 -0.1002 0.0600815 -0.135872 0.0179501 0.0433853 0.0807586 -0.0174297 -0.264541 0.18617 0.0671724 0.075073 0.137297 0.197408 -0.246222 0.0554654 0.0164304 -0.113145 -0.112749 0.204986 0.323728 0.0599331 -0.0684914 0.0435231 -0.0136164 -0.0771742 0.118177 -0.28228 0.255992 -0.119338 0.21515 -0.0600462 -0.0359599 -0.155285 0.0294814 0.0728785 0.0948232 -0.244298 0.205295 0.0699887 -0.158715 0.207869 -0.367943 -0.0773555 -0.173681 -0.179189 0.0236266 -0.0493836 -0.0628406 0.199852 0.205357 -0.193773 -0.219854 0.139509 -0.234295 0.0699682 -0.114138 0.0484972 -0.120878 -0.227328 0.0905699 0.183149 -0.00689664 0.199941 0.224016 0.129896 -0.072996 -0.210597 0.222449 0.113825 -0.155732 0.0625432 0.375492 -0.160956 0.137782 0.148051 0.213587
1879050235 0.0099521 0.114672 0.260374 0.0950442 -0.020235 -0.00844048 0.157352 -0.272328 0.00576121 -0.0643748 -0.188981 -0.142353 0.0147171 0.138192 -0.01051 0.0799788 -0.020626 -0.0641397 0.286552 -0.0512156 0.0403231 -0.107669 -0.167064 -0.0310711 -0.298944 -0.163685 -0.0978197 0.181497 -0.273045 0.0870082 0.284168 -0.00893917 0.0577028 -0.157126 0.102155 -0.0415866 -0.0278914 0.0932303 -0.0442901 0.13914 -0.0530655 -0.128115 -0.00301774 0.217528 0.104619 0.0598896 0.111484 0.137897 0.0545062 -0.0591203 0.0884271 0.0222617 -0.206527 0.300668 -0.133923 0.0260504 -0.147495 0.0358178 0.0915875 -0.0728626 0.144947 0.0582302 0.180279 0.00655639 0.0690571 6.48966e-06 -0.0994512 0.165517 0.117009 0.0110633 0.182573 0.050271 0.243041 -0.0189712 0.116429 0.075142 -0.259944 -0.00321655 -0.0438078 0.255119 -0.253942 0.0223991 -0.155968 0.153369 0.0115582 0.239128 0.0418094 0.194354 -0.00628132 0.157663 -0.0779616 0.0447119 0.0151588 -0.176194 0.0312623 0.0819883 -0.137958 0.000413479 -0.116875 -0.0358771 0.114369 0.0126739 -0.214664 -0.036285 0.21039 0.0874338 0.0106136 -0.143728 0.159573 0.065203 -0.0507217 -0.191746 0.0780143 0.0813687 -0.101083 0.0903957 0.112186 0.0887862 -0.0929717 0.0906018 0.12648 -0.20484 -0.054815 0.391968 -0.308435 -0.00912123 0.0871244 0.127277
33 0.12137 0.0863105 0.135217 0.0640227 -0.226667 -0.0070462 0.0349427 -0.214113 0.148749 -0.0178577 0.0528803 0.0255968 -0.1566 0.0529307 0.120319 0.143371 -0.120134 -0.082798 0.339207 -0.0948698 0.248959 0.0141011 -0.316558 -0.0181114 -0.26411 -0.155375 -0.136662 0.190959 -0.319046 0.0672097 0.272568 -0.0962208 -0.011505 -0.147301 -0.0565285 -0.133625 -0.118245 0.0293149 0.00205075 0.174519 0.0530104 -0.141473 0.0592179 0.222704 0.139173 0.123806 0.0975077 -0.000222831 0.108855 -0.194751 0.183084 -0.0716825 -0.185154 0.0734645 -0.104529 0.09764 -0.0515497 0.145621 0.000993775 -0.212808 0.151103 -0.0249504 0.130838 0.193834 0.274654 -0.327436 0.0137093 0.0488492 -0.113846 -0.159467 0.121893 0.323348 0.228903 -0.135715 0.156634 -0.0333776 -0.195112 0.0754451 -0.329924 0.3476 -0.130997 0.2044 -0.140279 -0.0342756 0.00611685 0.0396346 0.0466479 0.198166 -0.24269 0.184745 0.0425678 -0.197531 0.123361 -0.220647 0.0121313 -0.127962 -0.25465 0.0869766 -0.00368188 -0.0296444 0.211292 0.0965904 -0.207686 -0.0390765 0.175762 -0.146713 0.0386278 -0.117934 0.0352329 -0.185616 -0.242417 0.0575226 0.176803 0.0615937 0.0176296 0.271165 0.157392 0.0254731 -0.151979 0.169569 0.0323054 -0.088503 0.0934643 0.356413 -0.175535 0.163396 0.164523 0.255256
17 0.0731897 0.097513 0.180747 0.075131 -0.154097 0.0298568 0.0708137 -0.239397 0.0923433 -0.040217 -0.0160934 -0.0267727 -0.100862 0.0804543 0.0838238 0.150916 -0.0890029 -0.0698033 0.339614 -0.10147 0.220383 0.0204107 -0.308903 -0.0416851 -0.293852 -0.148159 -0.163025 0.188553 -0.313034 0.0578363 0.261954 -0.0511495 -0.00292608 -0.168905 0.00657284 -0.127066 -0.0967798 0.0261064 -0.0130901 0.181077 0.00570578 -0.126151 0.0563081 0.247023 0.135427 0.0998996 0.120454 0.0677058 0.108691 -0.166331 0.166188 -0.081778 -0.207107 0.189761 -0.13955 0.0807422 -0.0775222 0.116979 0.0350563 -0.148436 0.169182 0.0163972 0.137766 0.119782 0.227931 -0.214612 -0.0125155 0.100475 -0.040431 -0.120568 0.162514 0.256617 0.246064 -0.102307 0.11856 0.0339839 -0.237735 0.0931649 -0.24636 0.310688 -0.166553 0.164943 -0.122988 0.0227477 0.0239313 0.101034 0.0506236 0.19756 -0.17964 0.176487 0.00624669 -0.134326 0.116975 -0.224264 0.0169822 -0.0512767 -0.244613 0.0340303 -0.0558945 -0.0211476 0.19632 0.0800875 -0.189765 -0.0638247 0.180475 -0.0846492 0.0254628 -0.130097 0.0842707 -0.103291 -0.185305 -0.0111262 0.108378 0.0792658 -0.0294725 0.20983 0.167245 0.0252055 -0.162719 0.13619 0.0813766 -0.140331 0.0309449 0.395062 -0.247938 0.105512 0.133129 0.226844
48 0.122551 0.0807436 0.111503 0.0376424 -0.21512 -0.0272456 0.0438544 -0.204245 0.190411 0.00157969 0.0884328 0.0156488 -0.163271 -0.00164867 0.1387 0.137329 -0.12423 -0.095263 0.334254 -0.0915657 0.222139 -0.017233 -0.291259 -0.0081869 -0.222575 -0.158625 -0.115882 0.182665 -0.301671 0.0757953 0.27309 -0.0930016 -0.00348155 -0.122908 -0.0581358 -0.128997 -0.0998058 0.0301274 -0.00358116 0.178374 0.0805679 -0.123829 0.0806092 0.185553 0.160816 0.161524 0.0798641 -0.0277378 0.113774 -0.159221 0.186862 -0.0324905 -0.169127 0.00778091 -0.0906457 0.0954262 -0.032395 0.144739 -0.00177945 -0.194849 0.0936445 -0.0687362 0.151487 0.201548 0.301886 -0.370792 0.0166908 0.0438463 -0.141372 -0.150083 0.0310442 0.367278 0.217778 -0.138037 0.189838 -0.04167 -0.171224 0.0543368 -0.333425 0.392698 -0.109597 0.209564 -0.161218 -0.0384274 0.0140989 0.0390263 0.0232659 0.214481 -0.272855 0.174425 0.0559471 -0.249927 0.124136 -0.203811 0.0332292 -0.139073 -0.220711 0.117398 0.0274195 -0.0152941 0.224857 0.0773437 -0.228329 -0.000205556 0.196257 -0.118149 0.0320743 -0.0932798 0.0014657 -0.191141 -0.239534 0.0993262 0.233435 0.0580718 0.0460701 0.273635 0.154297 0.0299388 -0.143335 0.187902 0.0148358 -0.0632682 0.128237 0.287855 -0.115907 0.149236 0.155271 0.244509
50 0.114291 0.0909299 0.144418 0.0700243 -0.211501 -0.0266317 0.0706258 -0.222159 0.163189 -0.0248506 0.0418412 -0.00413021 -0.157799 0.0570922 0.106014 0.133058 -0.131518 -0.0910169 0.346764 -0.0871443 0.23894 -0.0339709 -0.314948 -0.0132149 -0.260179 -0.17441 -0.127996 0.208093 -0.324001 0.0907286 0.303844 -0.113803 0.00920934 -0.144827 -0.0544071 -0.115454 -0.130597 0.0517314 0.00476527 0.191168 0.0598438 -0.140172 0.0756192 0.20448 0.15333 0.130028 0.106068 -0.00201305 0.101836 -0.182287 0.176933 -0.0437595 -0.185289 0.0691345 -0.112036 0.0839279 -0.0476844 0.134596 0.00353495 -0.22183 0.143356 -0.0219295 0.159409 0.196448 0.273636 -0.327401 0.001701 0.057552 -0.104131 -0.145588 0.108943 0.332487 0.227003 -0.129111 0.177964 -0.0287375 -0.183755 0.0664713 -0.322179 0.385412 -0.153764 0.200795 -0.16247 -0.0176387 -0.0159761 0.0626632 0.0429217 0.215319 -0.249318 0.202155 0.0497776 -0.202833 0.127983 -0.256317 0.01881 -0.131293 -0.238499 0.10285 -0.00885198 -0.028817 0.218155 0.099532 -0.247993 -0.0475857 0.209503 -0.129997 0.0398213 -0.125919 0.0408895 -0.172095 -0.241582 0.0511005 0.224641 0.0616822 0.0409285 0.27632 0.154894 0.0295944 -0.159712 0.197751 0.0447888 -0.10394 0.102761 0.368761 -0.180646 0.15047 0.17159 0.251755
75 0.227025 0.102123 0.114997 -0.073234 -0.419598 -0.164686 -0.0779862 -0.227863 0.141156 0.022252 0.240252 0.219811 -0.218217 -0.0301301 0.341041 0.156349 -0.106507 -0.0706053 0.369009 -0.00255985 0.179405 0.0286452 -0.329683 0.00425161 -0.23089 -0.275745 -0.0810167 0.104406 -0.318907 0.0874733 0.340657 -0.0765156 0.00198967 -0.187841 -0.0288911 -0.191713 -0.0677287 -0.0178527 -0.0345533 0.190495 0.0260405 -0.284706 -0.0627302 0.337913 0.144082 0.411217 -0.0146993 -0.116592 0.126061 -0.143267 0.182901 -0.00856231 -0.110614 -0.153259 -0.0457402 0.0961818 -0.0891586 0.247991 -0.066485 -0.211486 0.0117398 -0.247913 0.205472 0.360031 0.384905 -0.62721 0.0443283 -0.0309703 -0.260138 -0.140995 -0.0524199 0.422268 0.333474 -0.231018 0.284773 -0.238011 -0.276164 -0.0558921 -0.57911 0.503112 -0.0109065 0.228515 -0.224192 -0.0776764 0.0318805 -0.0185585 0.0342787 0.203496 -0.29959 0.166235 -0.00686231 -0.348599 0.0655934 -0.0797003 0.0594643 -0.254278 -0.24298 0.138249 0.0958806 -0.000283551 0.167127 -0.0422156 -0.196266 0.217889 0.227302 -0.0584739 0.0503141 -0.201589 0.024387 -0.249798 -0.337594 0.15726 0.261051 0.0294642 0.0564539 0.4035 0.175832 0.0842341 -0.0238915 0.214016 -0.145859 0.00618685 0.260469 0.209377 0.0215129 0.33087 0.235373 0.318962
77 0.127097 0.0468291 0.0407646 0.0758162 -0.200887 -0.0183388 0.0268877 -0.108391 0.183082 -0.0132061 0.105477 0.030373 -0.203573 0.0344372 0.0834515 0.0796311 -0.143573 -0.070209 0.233506 -0.0641668 0.266176 -0.0037818 -0.279817 0.00787395 -0.139038 -0.124414 -0.101074 0.169758 -0.21143 0.0849093 0.205093 -0.166228 0.00194261 -0.0828593 -0.128394 -0.0773654 -0.174111 0.0494913 0.0461976 0.146319 0.0925326 -0.0947172 0.106204 0.0984135 0.11289 0.0803039 0.0715143 -0.063643 0.0907674 -0.199332 0.135615 -0.047009 -0.115879 -0.0503002 -0.0714742 0.057895 0.0182354 0.117172 -0.0403945 -0.253466 0.131343 -0.0263406 0.0929177 0.220333 0.25119 -0.342237 0.0450696 -0.00603633 -0.146657 -0.178886 0.086943 0.332646 0.114283 -0.116683 0.142855 -0.0587713 -0.0584968 0.0789293 -0.316479 0.287365 -0.0787801 0.225687 -0.112324 -0.0862938 -0.0588783 -0.029405 0.0531965 0.154079 -0.273748 0.160302 0.106611 -0.218177 0.146723 -0.258058 -0.0221043 -0.183106 -0.195068 0.100593 0.0399847 -0.0280475 0.186394 0.144431 -0.190843 -0.0753245 0.117837 -0.216252 0.0518605 -0.0497507 -0.0250196 -0.202163 -0.25763 0.121142 0.227616 0.0136314 0.122785 0.26449 0.101604 -0.0247136 -0.163663 0.200678 0.0210583 -0.0410391 0.132378 0.277013 -0.0879313 0.174525 0.164364 0.208176
32 0.0741759 0.0433246 0.0344751 0.114604 -0.149025 0.0686145 0.0629209 -0.102852 0.2034 -0.0142281 0.0787669 -0.0143012 -0.176567 0.0370478 0.0565992 0.107596 -0.15624 -0.0682309 0.261777 -0.119763 0.336012 0.0154539 -0.30723 -0.0220593 -0.153845 -0.07318 -0.156789 0.194567 -0.226835 0.0726516 0.188064 -0.152003 -0.0166939 -0.0800312 -0.106209 -0.0976436 -0.210646 0.0169314 0.0649648 0.179905 0.0886281 -0.0619063 0.194265 0.100162 0.140393 0.0120946 0.137884 0.00148993 0.117845 -0.211816 0.154503 -0.106402 -0.166463 0.0330494 -0.101521 0.0701082 0.0482459 0.0932075 -0.00947704 -0.234595 0.155371 0.0378671 0.0809569 0.148682 0.275021 -0.271053 0.0376903 0.0393515 -0.116662 -0.179453 0.125321 0.36246 0.0971779 -0.0953868 0.101796 0.0384886 -0.0582351 0.163731 -0.268728 0.259345 -0.0883228 0.24965 -0.0725447 -0.0714861 -0.0526402 -0.017543 0.0597984 0.160227 -0.280438 0.179503 0.115358 -0.235602 0.214541 -0.29785 -0.0143977 -0.143311 -0.214721 0.0700066 0.0190788 -0.0254567 0.229809 0.188047 -0.191124 -0.168122 0.131358 -0.248651 0.053271 -0.0344027 -0.0207413 -0.191417 -0.236296 0.136718 0.199231 0.0323835 0.109619 0.233402 0.134437 -0.0624955 -0.239385 0.196995 0.0696434 -0.0844186 0.0815376 0.330913 -0.145878 0.123624 0.14202 0.20249
73 0.0766965 0.0540267 0.0883534 0.126638 -0.144255 0.0306232 0.097628 -0.125616 0.156269 -0.0563967 0.0308997 -0.0253182 -0.166758 0.0902937 0.0585363 0.0642263 -0.154276 -0.0505876 0.259786 -0.0685164 0.305554 -0.0355548 -0.314219 -0.0160215 -0.170627 -0.127555 -0.148578 0.209723 -0.210524 0.138702 0.25386 -0.187104 0.0415125 -0.119201 -0.0651989 -0.0611378 -0.245703 0.0465642 0.0833868 0.184069 0.033068 -0.12807 0.154271 0.145541 0.153411 0.0506175 0.132392 0.0195484 0.106574 -0.183395 0.116125 -0.0691435 -0.154487 0.0574421 -0.11898 0.0301427 0.00533719 0.0856589 0.00950326 -0.264554 0.164427 0.0330912 0.127272 0.164845 0.240781 -0.274222 0.0304572 0.0493565 -0.0922884 -0.13442 0.163593 0.322854 0.109016 -0.0904505 0.126734 -0.0124788 -0.10103 0.111312 -0.282991 0.282966 -0.120636 0.232804 -0.0916116 -0.0350224 -0.0958556 0.0471549 0.0750407 0.177982 -0.251238 0.190633 0.0837603 -0.191053 0.193746 -0.340491 -0.0376481 -0.143762 -0.186447 0.0361766 -0.00796432 -0.0434211 0.205247 0.180076 -0.220403 -0.149496 0.157127 -0.200765 0.0707486 -0.0793551 0.0345147 -0.120398 -0.237223 0.0819459 0.231958 0.0110171 0.151422 0.241998 0.122803 -0.0561373 -0.229553 0.244556 0.075504 -0.126913 0.0933587 0.385688 -0.169137 0.150048 0.172581 0.19171
6 0.101202 0.0494736 0.0591 0.115118 -0.187502 0.0331518 0.0823961 -0.104505 0.130427 -0.0511619 0.061398 0.0211312 -0.18211 0.120629 0.0398961 0.0924692 -0.178028 -0.0426691 0.232405 -0.0695434 0.345614 0.0269028 -0.332093 -0.0359835 -0.191053 -0.0775467 -0.16195 0.188048 -0.232486 0.102371 0.227018 -0.219234 0.00524366 -0.0945708 -0.130343 -0.0742095 -0.263427 0.0389821 0.108834 0.147699 0.0400763 -0.105742 0.156412 0.136756 0.113148 -0.0242293 0.152281 0.00133655 0.0761323 -0.256943 0.11099 -0.151821 -0.135534 0.0506148 -0.122738 0.0524444 0.0318128 0.0979733 -0.0465966 -0.286225 0.203678 0.056718 0.054684 0.180361 0.218406 -0.256757 0.0527596 0.000463961 -0.139829 -0.181104 0.223055 0.327696 0.0799375 -0.0935904 0.0579762 -0.0282255 -0.0719173 0.151035 -0.301588 0.25058 -0.121935 0.239895 -0.0525938 -0.0843871 -0.115275 -0.0370408 0.0818425 0.100022 -0.25938 0.200025 0.0986893 -0.178366 0.197719 -0.354811 -0.0704028 -0.190604 -0.229637 0.0614771 -0.0233084 -0.0532187 0.192172 0.215609 -0.1762 -0.220152 0.119287 -0.298416 0.0541104 -0.109377 0.0194012 -0.199091 -0.266008 0.0911527 0.168734 0.019127 0.141882 0.266379 0.11556 -0.0644494 -0.210618 0.204162 0.0838583 -0.129652 0.0616738 0.378272 -0.174837 0.15568 0.150098 0.246595
131072 0.00799705 0.0804807 0.191629 0.0746027 -0.0441095 0.0465644 0.0856291 -0.197004 -0.0142389 -0.0628722 -0.109317 -0.0634464 -0.00701673 0.124709 0.011742 0.0971315 -0.0258021 -0.0229852 0.230021 -0.0518501 0.106599 0.00799896 -0.195415 -0.0499121 -0.253335 -0.108258 -0.132133 0.132123 -0.209742 0.0414102 0.190248 -0.013406 0.0150037 -0.145764 0.059538 -0.066076 -0.0670764 0.0281789 -0.014864 0.113252 -0.0651186 -0.0975803 0.0115804 0.202865 0.0772318 0.0266011 0.116754 0.126213 0.0483274 -0.0972306 0.0806315 -0.0638655 -0.164266 0.268642 -0.123233 0.0296498 -0.0987217 0.0427732 0.0589121 -0.0662492 0.161333 0.0767872 0.0989993 0.00767174 0.0727495 -0.00901942 -0.0389933 0.116036 0.0667046 -0.0339605 0.202045 0.0686336 0.181566 -0.0323263 0.0388768 0.069269 -0.216909 0.0585185 -0.0834029 0.157075 -0.175324 0.0517762 -0.0622983 0.0843874 0.00766341 0.141286 0.0478372 0.112934 -0.0293258 0.120738 -0.0505195 0.0211009 0.0518701 -0.154829 -0.00705249 0.0415584 -0.159834 -0.0353965 -0.105673 -0.0200772 0.103149 0.0402281 -0.116565 -0.0781302 0.119087 -0.00243073 0.0109739 -0.136331 0.133342 0.0168204 -0.0779036 -0.122486 -0.00623104 0.0696975 -0.076141 0.0812888 0.109455 0.0228244 -0.107914 0.0623445 0.104437 -0.167255 -0.047067 0.342758 -0.260463 0.0269188 0.0700967 0.127702
89 0.107125 0.0392583 0.0244804 0.0772821 -0.188117 -0.00421004 0.0469614 -0.119036 0.220131 0.00024426 0.10247 0.0260531 -0.179929 0.0138018 0.0741872 0.084066 -0.159893 -0.0818525 0.242929 -0.0964559 0.271341 -0.00331396 -0.267108 -0.00237569 -0.132491 -0.0835213 -0.107421 0.165814 -0.228466 0.0854853 0.218733 -0.159739 -0.0147739 -0.0686904 -0.123752 -0.0838959 -0.188443 0.0201596 0.0513662 0.161468 0.0977566 -0.078542 0.163034 0.082959 0.13966 0.064262 0.10499 -0.0523253 0.10949 -0.186123 0.159879 -0.0638228 -0.142146 -0.0597277 -0.0744869 0.0820202 0.0345094 0.11598 -0.0349942 -0.243045 0.093962 -0.0337091 0.0898807 0.211303 0.278489 -0.339852 0.0418617 0.00476283 -0.161855 -0.176745 0.0635429 0.35002 0.0996151 -0.116251 0.137695 -0.0429181 -0.0545124 0.103438 -0.31598 0.292096 -0.0694028 0.232858 -0.0800843 -0.0882553 -0.0554813 -0.0422251 0.0394817 0.163662 -0.286983 0.167255 0.121081 -0.264276 0.167939 -0.257398 0.00519286 -0.178811 -0.189764 0.105466 0.0357863 -0.0276519 0.206803 0.139981 -0.193188 -0.0923014 0.140164 -0.226793 0.0469095 -0.0438005 -0.0361284 -0.215901 -0.264229 0.146281 0.238771 0.0272827 0.129118 0.256628 0.112522 -0.0313789 -0.177891 0.211248 0.0277843 -0.0513197 0.108291 0.248216 -0.0841622 0.14356 0.143187 0.211605
83 0.0874995 0.0625157 0.0637518 0.0904115 -0.14306 -0.0140626 0.0512909 -0.124529 0.193474 -0.00856587 0.0807047 -0.0388589 -0.185152 0.0609718 0.019783 0.0842566 -0.123279 -0.0737561 0.207999 -0.069513 0.237062 -0.0479171 -0.259916 0.0181767 -0.146233 -0.128269 -0.0910529 0.204176 -0.220429 0.0807989 0.191951 -0.184395 0.00166407 -0.0587743 -0.157937 -0.0325347 -0.18304 0.0893575 0.0520835 0.138836 0.122113 -0.0646318 0.136988 0.025774 0.101849 0.0178131 0.104999 -0.0476488 0.062283 -0.188621 0.139436 -0.0387505 -0.124083 -0.0247726 -0.0672923 0.0455572 0.0191462 0.0742184 -0.0288993 -0.238807 0.147804 0.0287903 0.0982422 0.180181 0.211598 -0.278492 0.0298165 0.00712738 -0.115794 -0.167584 0.0948083 0.273428 0.060681 -0.0785704 0.0900274 -0.0244721 -0.0160997 0.0897565 -0.25917 0.272162 -0.122402 0.203078 -0.12939 -0.0360268 -0.10467 -0.00338917 0.0630489 0.134123 -0.24881 0.176837 0.144347 -0.166291 0.14063 -0.274614 -0.0289082 -0.161458 -0.155097 0.114227 0.0199492 -0.0406637 0.190758 0.180703 -0.231109 -0.132376 0.126885 -0.202143 0.0490144 -0.0497081 -0.033259 -0.191582 -0.227907 0.0665951 0.238487 0.00927001 0.110283 0.233208 0.0859917 -0.0228847 -0.165962 0.187054 0.0613769 -0.0679295 0.116932 0.293175 -0.141226 0.105364 0.14759 0.164449
91 0.100127 0.0306011 0.0483804 0.117091 -0.168104 -0.034505 0.0922605 -0.100429 0.165146 -0.0424536 0.0553631 -0.000234069 -0.16568 0.0888826 0.0174391 0.0332378 -0.168165 -0.0615114 0.19351 -0.0504483 0.261666 -0.0564107 -0.259792 -0.0066335 -0.130404 -0.0948293 -0.0953812 0.191902 -0.201806 0.137918 0.251197 -0.236142 0.041032 -0.0619266 -0.137756 -0.0234286 -0.252979 0.066542 0.111204 0.131623 0.0627906 -0.112538 0.145118 0.0720858 0.128118 0.00757018 0.123767 -0.0404915 0.0587369 -0.191368 0.111107 -0.0626782 -0.113598 -0.0500264 -0.0895215 0.0472986 0.037014 0.0823605 -0.0350251 -0.304086 0.142169 0.0173444 0.0931567 0.211252 0.208564 -0.291501 0.0415992 -0.0158977 -0.145252 -0.151459 0.139155 0.294025 0.0510608 -0.0825897 0.100819 -0.0763694 -0.0196443 0.0785349 -0.292019 0.274787 -0.110701 0.210216 -0.0870198 -0.0646799 -0.143519 -0.015334 0.0604338 0.130634 -0.257237 0.183127 0.106683 -0.196941 0.157515 -0.325081 -0.0503893 -0.203681 -0.152688 0.0890155 0.000335215 -0.0675684 0.179911 0.185214 -0.22854 -0.164924 0.138481 -0.247503 0.0491995 -0.0775656 -0.00628163 -0.168848 -0.258592 0.0865593 0.259918 -0.00521261 0.188836 0.256073 0.0862985 -0.0361953 -0.170852 0.232194 0.0720875 -0.101644 0.092749 0.302554 -0.116412 0.148723 0.149258 0.199035
71 0.0668072 0.0569542 0.0896492 0.111864 -0.123814 0.0334114 0.0953845 -0.118152 0.167242 -0.0544335 0.0434093 -0.0521573 -0.173496 0.0745302 0.0585059 0.0732078 -0.159905 -0.0544966 0.256292 -0.05543 0.28876 -0.0593179 -0.305873 -0.0133453 -0.161666 -0.131183 -0.13753 0.211559 -0.195778 0.150237 0.237515 -0.183458 0.0510055 -0.121373 -0.0651959 -0.0571117 -0.223048 0.0717431 0.0884426 0.172312 0.0562843 -0.116794 0.161335 0.121481 0.155771 0.062032 0.131856 0.0180049 0.102799 -0.17037 0.108991 -0.0554328 -0.138495 0.0480448 -0.117093 0.0180367 0.0186569 0.0856965 0.00450175 -0.243992 0.16635 0.0260288 0.12377 0.15473 0.23339 -0.271532 0.0250392 0.0536175 -0.0921874 -0.11886 0.122188 0.336236 0.101645 -0.0878478 0.126892 -0.00281993 -0.0946985 0.10888 -0.259661 0.304569 -0.136141 0.222642 -0.115595 -0.0218042 -0.109668 0.0592715 0.0682494 0.175275 -0.258877 0.19711 0.100092 -0.179976 0.197495 -0.339218 -0.0384163 -0.139175 -0.173119 0.0523151 -0.0120342 -0.0349225 0.214996 0.177342 -0.233501 -0.140833 0.168801 -0.186322 0.0651092 -0.0760713 0.0256129 -0.120092 -0.223579 0.0843896 0.247959 0.00587163 0.156167 0.232222 0.126316 -0.0476284 -0.217861 0.236335 0.0785485 -0.118583 0.104825 0.36746 -0.151819 0.133966 0.16754 0.183449
47 0.118026 0.0477585 0.031907 0.00783157 -0.199543 -0.0626063 0.0345628 -0.196186 0.308389 0.0591153 0.126727 -0.00607872 -0.170775 -0.122387 0.139053 0.102664 -0.131472 -0.154556 0.317744 -0.111065 0.159457 -0.0648116 -0.234683 0.0174241 -0.135662 -0.123227 -0.0562505 0.162716 -0.270071 0.0675669 0.264903 -0.0740163 -0.0156976 -0.0528762 -0.0896934 -0.106056 -0.0417766 0.0400881 -0.0423931 0.156852 0.175801 -0.0434957 0.143303 0.0581127 0.194584 0.188268 0.034395 -0.0991446 0.124394 -0.110956 0.222496 0.0400213 -0.166087 -0.137439 -0.0433419 0.137027 0.0121253 0.134636 -0.00584299 -0.184073 -0.0368626 -0.15226 0.155099 0.234526 0.353879 -0.450132 0.00867992 0.0163343 -0.188955 -0.162817 -0.137593 0.423499 0.178004 -0.144547 0.252723 -0.066568 -0.0885911 0.0309079 -0.322961 0.424074 -0.0590546 0.203835 -0.171712 -0.0833842 0.0547843 -0.00336472 -0.0415785 0.264398 -0.334801 0.142756 0.0993225 -0.352024 0.109474 -0.140411 0.0960252 -0.157808 -0.158598 0.196391 0.077161 -0.00332288 0.246464 0.0439833 -0.252516 0.0676694 0.207031 -0.0966419 0.0119862 0.00712001 -0.0918848 -0.252883 -0.241662 0.184301 0.330314 0.0681709 0.0711084 0.258628 0.133187 0.0478449 -0.126025 0.201234 -0.0273177 0.020781 0.174517 0.130159 0.00804543 0.0993986 0.116741 0.209212
84 0.0878899 0.0523377 0.0535369 0.0749672 -0.13773 0.0290557 0.0354323 -0.149172 0.224685 0.00534295 0.0571301 -0.0338706 -0.157885 -0.0201813 0.0667911 0.106855 -0.118461 -0.0892828 0.266507 -0.135587 0.233483 0.0011786 -0.243129 0.015815 -0.156847 -0.0981144 -0.105923 0.168187 -0.25185 0.0430126 0.171911 -0.0999635 -0.0228528 -0.0517625 -0.0943144 -0.0951124 -0.105412 0.018406 -0.010502 0.165345 0.125161 -0.0270696 0.144231 0.0720802 0.13644 0.0664946 0.0835035 -0.0276217 0.116811 -0.155357 0.181067 -0.0346039 -0.170468 0.00531039 -0.0639061 0.093165 0.0069003 0.100521 0.00636558 -0.184686 0.0873711 -0.0228211 0.107688 0.159297 0.273985 -0.287092 0.00596774 0.0482839 -0.105832 -0.164171 0.0295027 0.31946 0.132798 -0.110534 0.152439 0.00957783 -0.0694705 0.0979317 -0.226821 0.286789 -0.0840443 0.210924 -0.105634 -0.0627357 0.0240377 0.00382493 0.00869237 0.201682 -0.257037 0.149322 0.112655 -0.231363 0.143855 -0.203839 0.0346481 -0.100363 -0.183738 0.103771 0.0420131 0.00397748 0.220997 0.11145 -0.198383 -0.0613252 0.142712 -0.152992 0.0241316 -0.00467782 -0.0359566 -0.180307 -0.189521 0.120758 0.218971 0.0494282 0.0473839 0.221955 0.104626 -0.00763506 -0.168061 0.168815 0.0351695 -0.0325791 0.108692 0.238451 -0.102113 0.0994095 0.121864 0.175932
3 0.0842586 0.0423943 0.0648461 0.1164 -0.139417 0.0393561 0.0706819 -0.126693 0.168885 -0.0502487 0.0378712 -0.0179347 -0.178608 0.0766189 0.0479283 0.0698133 -0.147022 -0.0615021 0.232539 -0.0749863 0.283278 0.0177319 -0.304018 -0.0164988 -0.161664 -0.11156 -0.152582 0.181821 -0.209117 0.106544 0.220448 -0.168424 0.0141624 -0.104827 -0.100037 -0.0637908 -0.227807 0.0361066 0.0532642 0.152576 0.041445 -0.0898372 0.155004 0.0956351 0.132438 0.0243568 0.121918 -0.000914186 0.113525 -0.215063 0.125649 -0.0735744 -0.159331 0.0534253 -0.111609 0.0525272 0.00654992 0.0830933 -0.0108241 -0.251577 0.155408 0.0183201 0.0877759 0.187206 0.217089 -0.259122 0.0366892 0.0381199 -0.0924969 -0.171533 0.162652 0.291401 0.0989935 -0.0951371 0.110745 -0.0212992 -0.0861005 0.132564 -0.270957 0.230769 -0.120373 0.21961 -0.0648967 -0.0610463 -0.0706113 0.00221467 0.0577983 0.157715 -0.245745 0.166258 0.102947 -0.192373 0.16974 -0.31551 -0.0432614 -0.139598 -0.201173 0.0489051 -0.0204293 -0.0354944 0.194258 0.157278 -0.188262 -0.141744 0.103664 -0.224308 0.0551297 -0.0570288 0.0160878 -0.152402 -0.251936 0.0739469 0.195067 0.0198451 0.107171 0.227268 0.107341 -0.0489744 -0.21291 0.212242 0.069627 -0.096821 0.0777763 0.345119 -0.161889 0.140532 0.149566 0.189408
11 0.0963369 0.0635634 0.0340322 0.073506 -0.0906756 0.0836288 0.0398962 -0.133832 0.252227 0.00851694 0.047768 -0.0572597 -0.183924 -0.0660635 0.0899084 0.13667 -0.132901 -0.110148 0.308776 -0.186337 0.262433 0.0238809 -0.251492 0.00753147 -0.137852 -0.0696522 -0.114975 0.194005 -0.2696 0.0415598 0.153871 -0.0801616 -0.021733 -0.0483049 -0.0754589 -0.127449 -0.0686694 0.0189419 -0.0200305 0.16821 0.170415 0.0245881 0.134247 0.0679147 0.149402 0.0661098 0.0475143 -0.0315206 0.137821 -0.165985 0.212756 -0.0304071 -0.180993 0.0329088 -0.0643726 0.0902331 0.0248533 0.0825246 0.0413962 -0.157178 0.102591 -0.00452449 0.108781 0.125632 0.306836 -0.266051 0.00496158 0.0548622 -0.0928114 -0.188831 0.0040782 0.388856 0.16701 -0.11109 0.178426 0.0501701 -0.0712324 0.128701 -0.194732 0.280605 -0.0557583 0.221299 -0.133816 -0.0860522 0.101781 0.00878016 0.00669508 0.25237 -0.28354 0.126978 0.113406 -0.238424 0.163496 -0.191202 0.0417502 -0.0867474 -0.196919 0.106016 0.0605335 0.0325878 0.248502 0.146451 -0.196143 -0.0667583 0.148572 -0.154724 0.0126495 0.0744513 -0.0704374 -0.174533 -0.142579 0.174308 0.201525 0.055019 0.0462462 0.190046 0.11249 -0.025692 -0.193966 0.163175 0.0302005 -0.0144894 0.109267 0.240065 -0.0942261 0.0964054 0.129314 0.191557
22 0.165724 0.026516 0.00669057 0.00829047 -0.302256 -0.0930755 -0.0288876 -0.154241 0.243032 0.0261475 0.203387 0.135514 -0.196472 -0.044326 0.167379 0.0937766 -0.15424 -0.116688 0.261435 -0.0836974 0.229738 0.0371619 -0.271803 -0.00494566 -0.149676 -0.0907503 -0.0804499 0.120445 -0.255992 0.0730889 0.284315 -0.123014 -0.0411012 -0.0603218 -0.153842 -0.117274 -0.145157 -0.0105067 0.0276268 0.146218 0.112454 -0.132285 0.0957522 0.118211 0.16047 0.16802 0.0527249 -0.127913 0.119172 -0.18526 0.205508 -0.0531373 -0.126619 -0.185798 -0.0365096 0.135445 0.00584571 0.192066 -0.0610047 -0.265638 0.0287219 -0.150911 0.0915535 0.328789 0.34726 -0.497122 0.063666 -0.0579765 -0.266086 -0.206142 -0.0188426 0.395458 0.161284 -0.195738 0.186982 -0.152062 -0.0995995 0.0506887 -0.455619 0.357477 4.89402e-05 0.238641 -0.0814693 -0.153242 0.007388 -0.118907 0.0110079 0.194457 -0.342674 0.139601 0.115352 -0.360777 0.117981 -0.185169 0.0472022 -0.252099 -0.21016 0.166585 0.0680269 -0.0428382 0.193585 0.0595465 -0.178919 0.0366465 0.152139 -0.225002 0.0182467 -0.0732937 -0.0628938 -0.314941 -0.335631 0.20703 0.27372 0.0449575 0.104327 0.30927 0.126484 0.0119479 -0.107337 0.224593 -0.0718176 0.00495032 0.15836 0.158309 0.0103073 0.212271 0.156354 0.26443
69 0.181355 0.0611189 0.0825477 -0.0752521 -0.345624 -0.142269 -0.0242709 -0.221331 0.19181 0.0826338 0.176854 0.128879 -0.176391 -0.0822417 0.240026 0.119879 -0.107348 -0.113465 0.322973 -0.014832 0.137662 -0.0436509 -0.249337 0.0118499 -0.170274 -0.241937 -0.050126 0.10877 -0.280527 0.0501327 0.30347 -0.0775566 -0.00215066 -0.148359 -0.0620262 -0.13753 -0.0247175 0.00259319 -0.054529 0.137701 0.069205 -0.179856 0.0222183 0.234902 0.141863 0.338078 0.0092004 -0.140815 0.0692939 -0.110623 0.168153 0.0270386 -0.132392 -0.19922 -0.0455375 0.143171 -0.0353657 0.175659 -0.0747684 -0.188133 -0.0661771 -0.233127 0.189832 0.28436 0.348618 -0.552684 0.0433813 -0.0148481 -0.241021 -0.130938 -0.130835 0.392286 0.246208 -0.167381 0.288171 -0.187509 -0.185861 -0.0547949 -0.465008 0.479484 -0.0625786 0.193221 -0.196499 -0.0719387 0.00547102 0.00348545 -0.0153756 0.17232 -0.278177 0.144564 0.0006412 -0.349689 0.0594265 -0.0607475 0.0736903 -0.208421 -0.181472 0.166623 0.0893244 -0.0028285 0.173415 -0.0258455 -0.215387 0.169363 0.198898 -0.0649955 0.0348199 -0.157201 -0.0479435 -0.248411 -0.308242 0.130015 0.293115 0.046448 0.0348545 0.365232 0.156343 0.091029 -0.0337128 0.151111 -0.0960224 0.0345764 0.213049 0.130404 0.0460691 0.211181 0.149773 0.264205
36 0.117923 0.0916175 0.114983 0.0174686 -0.15211 0.0101684 0.045084 -0.195904 0.18726 0.0381417 0.0493679 -0.0430691 -0.139876 -0.0665758 0.143187 0.163483 -0.0964371 -0.116279 0.347712 -0.140469 0.166698 -0.044007 -0.207556 0.0159127 -0.189661 -0.138559 -0.0810378 0.191776 -0.308104 0.0258679 0.207895 -0.0162296 -0.00522221 -0.0967037 -0.0165942 -0.145268 0.0453534 0.042338 -0.062622 0.150557 0.145335 -0.0496571 0.0190261 0.174526 0.15003 0.188194 0.0164361 -0.0538783 0.109243 -0.115919 0.200618 0.0197185 -0.168579 0.0285715 -0.0574683 0.0984811 -0.0298749 0.121782 0.0365242 -0.10263 0.0793756 -0.0666048 0.165846 0.126943 0.305019 -0.287715 -0.0108562 0.054477 -0.0986642 -0.11802 -0.0695822 0.359101 0.258091 -0.122212 0.222473 0.022751 -0.176257 0.0302849 -0.206835 0.395403 -0.095015 0.167955 -0.219888 -0.0216678 0.119352 0.0656799 -0.0114517 0.247367 -0.242436 0.131848 0.0469356 -0.211967 0.0848198 -0.102118 0.0712355 -0.063935 -0.187496 0.133701 0.0609168 0.0298729 0.224854 0.05342 -0.219612 0.0587202 0.199539 -0.0276653 0.010632 -0.00985213 -0.0376045 -0.136792 -0.117768 0.109388 0.205061 0.0637853 -0.0287616 0.218046 0.142976 0.0665697 -0.0950925 0.104509 -0.0118455 -0.00486381 0.127773 0.223663 -0.0929361 0.103379 0.133938 0.217961
1072693248 -0.0911303 0.0658511 0.0908499 0.0850464 0.174901 0.153144 0.250971 -0.0412986 0.222782 -0.0477154 -0.0212923 -0.309916 -0.143206 -0.110957 0.140132 0.0432105 -0.169788 -0.0719314 0.308055 -0.0142312 0.218895 -0.299532 -0.222677 0.00958591 0.0193775 -0.191232 -0.127865 0.271049 -0.0186418 0.301008 0.199038 -0.107688 0.236054 -0.175381 0.182998 -0.0239863 -0.110064 0.15799 0.0998994 0.216702 0.0943702 -0.0316431 0.26414 0.0615219 0.287878 0.257644 0.0582334 0.0794938 0.159145 0.0799429 -0.00949241 0.127749 -0.101103 0.0903199 -0.165332 -0.165352 0.0988662 -0.0604576 0.115307 -0.0518651 0.0402994 -0.0130322 0.28211 -0.0544792 0.257074 -0.163608 -0.0465147 0.195358 0.057352 0.149179 -0.186302 0.496179 0.123185 0.0111021 0.281772 0.169298 -0.139825 0.0687828 0.0184064 0.442103 -0.132984 0.207032 -0.307629 0.142375 -0.0864749 0.336285 0.0285516 0.284244 -0.293061 0.179371 0.0523046 -0.183268 0.287921 -0.339984 0.0282835 0.0222891 0.0727273 0.0201569 0.0450835 0.0847532 0.310614 0.160484 -0.343763 -0.0372166 0.311722 0.13778 0.100791 0.0499478 0.00313449 0.181911 0.0304846 0.17244 0.409321 -0.0826302 0.276643 0.0997749 0.157914 -0.0737113 -0.283499 0.283426 0.0793649 -0.124427 0.171713 0.29339 -0.00393609 -0.00940848 0.158883 0.0312797
39 0.0860003 0.0800226 0.135357 0.0636774 -0.171721 0.0223387 0.05475 -0.197837 0.1394 -0.0276501 0.042181 -0.00795502 -0.139614 0.0529162 0.109462 0.135594 -0.114137 -0.0704148 0.330677 -0.0870282 0.243244 0.00688671 -0.317036 -0.0264524 -0.245557 -0.151239 -0.150915 0.189542 -0.282652 0.0830221 0.254149 -0.0880504 0.00636646 -0.151284 -0.028139 -0.118839 -0.127337 0.0264898 0.0114144 0.182659 0.0333914 -0.121024 0.0909805 0.204101 0.147132 0.11992 0.108291 0.0307539 0.113953 -0.168166 0.15852 -0.0664976 -0.183167 0.102878 -0.118997 0.0775271 -0.042664 0.122318 0.0182894 -0.185177 0.140421 -0.0140028 0.136237 0.154843 0.262789 -0.287639 0.00926692 0.0709624 -0.084492 -0.132854 0.110846 0.31836 0.211447 -0.11521 0.148887 0.00321311 -0.193483 0.0833428 -0.284647 0.332211 -0.134473 0.195677 -0.124121 -0.00971895 -0.00660307 0.0721031 0.042285 0.195991 -0.231827 0.177804 0.0451675 -0.191324 0.148998 -0.242366 0.0138211 -0.101231 -0.22621 0.0628369 -0.0165631 -0.0140637 0.210485 0.0987463 -0.203172 -0.0579584 0.176779 -0.11808 0.0415767 -0.11299 0.0456036 -0.14156 -0.215901 0.0538551 0.172507 0.0505166 0.0348257 0.237552 0.159894 0.00705315 -0.168491 0.178798 0.0546923 -0.106192 0.0822003 0.359026 -0.173917 0.130959 0.152879 0.226021
68 0.105057 0.0939166 0.10985 0.0115991 -0.124141 -0.00215848 0.0462725 -0.20179 0.208303 0.0448427 0.0337776 -0.0691327 -0.126568 -0.0851703 0.130128 0.156975 -0.0884203 -0.134158 0.336418 -0.14624 0.127729 -0.0617341 -0.168607 0.0261688 -0.178133 -0.130959 -0.0587702 0.189054 -0.302859 0.0102702 0.195011 0.0026979 -0.00796341 -0.0742439 -0.0156056 -0.135309 0.0819237 0.0562203 -0.0802906 0.142963 0.167372 -0.0256171 0.0224574 0.141832 0.14567 0.175713 0.00629163 -0.0587093 0.102212 -0.0883109 0.208047 0.0409249 -0.16792 0.0187802 -0.0395717 0.104979 -0.030267 0.111315 0.0429488 -0.0824449 0.0527338 -0.0674573 0.170075 0.110226 0.290713 -0.267933 -0.0280573 0.0600083 -0.0903607 -0.105716 -0.099727 0.336849 0.251253 -0.111586 0.224034 0.0378429 -0.156894 0.0199163 -0.166017 0.401189 -0.0981638 0.149221 -0.232489 -0.0116089 0.137154 0.0788149 -0.0208818 0.257812 -0.228533 0.119309 0.0499068 -0.20182 0.0629683 -0.0740615 0.0855137 -0.0447787 -0.162262 0.157786 0.0675175 0.0387425 0.225525 0.0457498 -0.228298 0.0785819 0.208182 0.00446507 -0.00837168 0.0148703 -0.0512812 -0.132107 -0.0860424 0.0991368 0.210911 0.0691073 -0.0463873 0.194652 0.137188 0.0867884 -0.082642 0.0876538 -0.00832595 0.00518282 0.118588 0.183738 -0.0811262 0.0712131 0.115242 0.199891
51 0.0760868 0.0941742 0.170115 0.0644688 -0.157813 0.0126674 0.086384 -0.227475 0.133202 -0.0345802 0.0149853 -0.0361404 -0.127923 0.0461048 0.127001 0.132388 -0.11609 -0.0787363 0.358097 -0.0791394 0.222509 -0.0384377 -0.312049 -0.0326575 -0.259016 -0.179669 -0.152591 0.206382 -0.293174 0.108115 0.293084 -0.0737312 0.0329318 -0.180699 0.0138868 -0.126614 -0.113851 0.0420875 0.00134686 0.190569 0.0269913 -0.147815 0.0723849 0.236676 0.170993 0.160864 0.106891 0.0455285 0.119075 -0.140753 0.152637 -0.0436579 -0.190276 0.126482 -0.137583 0.0595271 -0.0598985 0.119188 0.0351125 -0.167146 0.135484 -0.0235736 0.174253 0.143343 0.269363 -0.282525 -0.00594412 0.100045 -0.0599937 -0.0945658 0.0932201 0.327176 0.25085 -0.109261 0.179835 0.010944 -0.239103 0.0682694 -0.276777 0.37293 -0.158309 0.181516 -0.16502 0.0267315 0.00446074 0.124547 0.0442047 0.221337 -0.225493 0.191955 0.0122365 -0.182502 0.135487 -0.235195 0.0203247 -0.0818684 -0.212184 0.0575539 -0.025924 -0.00784597 0.223999 0.0812317 -0.238702 -0.0329444 0.219398 -0.062207 0.0431656 -0.13027 0.0682122 -0.0971009 -0.194114 0.0341999 0.192487 0.0535411 0.0308474 0.236065 0.167026 0.0230243 -0.165132 0.183847 0.0557337 -0.12536 0.0876825 0.378411 -0.185847 0.126624 0.158095 0.229457
34 0.124325 0.0996477 0.153473 0.0333614 -0.241364 -0.0277999 0.0413895 -0.240234 0.149229 -0.0134131 0.0734898 0.0419448 -0.14927 0.0361456 0.154913 0.152502 -0.116288 -0.0912952 0.369537 -0.0781241 0.223675 -0.0001927 -0.333983 -0.032627 -0.27245 -0.185412 -0.13849 0.182609 -0.327473 0.0790875 0.305522 -0.0768299 0.000738423 -0.173689 -0.0254667 -0.149811 -0.102893 0.0256105 -0.0130807 0.18772 0.0364417 -0.161861 0.0472339 0.253219 0.16158 0.192082 0.0917335 0.00309641 0.115747 -0.172672 0.18477 -0.0540239 -0.186666 0.0592388 -0.117647 0.0993416 -0.066936 0.15966 0.00282921 -0.189576 0.114444 -0.0658348 0.162734 0.20679 0.304744 -0.374097 0.0124632 0.0582798 -0.127711 -0.140376 0.0755616 0.355547 0.266635 -0.148939 0.186222 -0.0507668 -0.237765 0.0478458 -0.369028 0.399958 -0.131727 0.195648 -0.161859 -0.0218417 0.0183464 0.0660612 0.0340642 0.211957 -0.256869 0.185475 0.0218216 -0.230696 0.120045 -0.203188 0.0342499 -0.129201 -0.247639 0.0908168 -0.00619585 -0.017059 0.219224 0.0569132 -0.222839 0.00381903 0.211855 -0.0989801 0.0328875 -0.150713 0.0412343 -0.177543 -0.256658 0.0641776 0.193007 0.0718812 0.0180806 0.28722 0.17214 0.044165 -0.136856 0.179533 0.0178529 -0.0957436 0.11274 0.339246 -0.154703 0.1668 0.167561 0.274247
40 0.0996667 0.0715525 0.0917379 0.0403435 -0.187431 -0.0059195 0.0240312 -0.16881 0.138221 -0.0085319 0.0706616 0.0316972 -0.14339 0.0210612 0.11905 0.120694 -0.104527 -0.0722588 0.281776 -0.0821595 0.218114 0.0148612 -0.271129 -0.0129573 -0.200778 -0.124897 -0.119549 0.153532 -0.257041 0.0530879 0.223029 -0.0800392 -0.00750258 -0.115251 -0.0494203 -0.119573 -0.101188 0.0120839 0.00639459 0.153062 0.0549747 -0.10862 0.0622556 0.177444 0.125214 0.122134 0.0804988 -0.0151797 0.101072 -0.155441 0.152927 -0.0608159 -0.149169 0.0351465 -0.0861074 0.0850158 -0.0289537 0.126977 -0.00639236 -0.167032 0.102976 -0.0425502 0.110567 0.171754 0.258411 -0.300135 0.0200134 0.0299876 -0.118443 -0.134291 0.0669897 0.308265 0.191431 -0.121981 0.143528 -0.0252382 -0.157817 0.0688223 -0.291495 0.306505 -0.0892392 0.185606 -0.112118 -0.0429253 0.0133852 0.0224724 0.0298147 0.165307 -0.231123 0.150345 0.0505234 -0.197941 0.115927 -0.185386 0.0143951 -0.123247 -0.202811 0.0762092 0.0121838 -0.0164336 0.184883 0.0757024 -0.174931 -0.0278471 0.151184 -0.124678 0.0304582 -0.0878422 0.0151615 -0.159613 -0.213403 0.0869271 0.162966 0.0453584 0.0333849 0.230807 0.139444 0.0153831 -0.127225 0.15162 0.0160069 -0.0651483 0.0963715 0.27113 -0.115762 0.136226 0.133824 0.219504
37 0.104709 0.080482 0.139027 0.0934058 -0.185552 -0.0150014 0.0820084 -0.213771 0.166017 -0.0327639 0.0290934 -0.0223116 -0.157963 0.0720499 0.0768643 0.113002 -0.140086 -0.0881378 0.316937 -0.0877687 0.250678 -0.0333302 -0.312085 -0.0201547 -0.248924 -0.156642 -0.134491 0.210486 -0.299085 0.106728 0.298609 -0.133622 0.0163337 -0.133527 -0.0729638 -0.0936663 -0.16425 0.0555885 0.0241802 0.177604 0.0591704 -0.129124 0.0991909 0.181169 0.153503 0.0988673 0.118596 0.00245263 0.0987921 -0.193707 0.165886 -0.0487732 -0.189534 0.0646537 -0.120295 0.078632 -0.0425029 0.126213 0.00080688 -0.246792 0.153901 -0.0107156 0.141249 0.196509 0.264287 -0.30453 0.00718241 0.0529314 -0.0961615 -0.151556 0.135177 0.314007 0.197229 -0.118264 0.162677 -0.0253458 -0.168073 0.0786554 -0.305152 0.354452 -0.155863 0.209125 -0.137374 -0.0207777 -0.0368612 0.0519945 0.0464569 0.210384 -0.251223 0.195111 0.0587101 -0.192958 0.131027 -0.279642 -0.00151311 -0.133815 -0.22239 0.0885484 -0.0192793 -0.0428472 0.217228 0.122232 -0.246698 -0.0772873 0.187089 -0.159256 0.042714 -0.115213 0.0376505 -0.163338 -0.250667 0.042962 0.220609 0.0564616 0.0572891 0.2638 0.139194 0.0143086 -0.171213 0.203941 0.0608087 -0.119193 0.0840602 0.376308 -0.186919 0.140242 0.164986 0.23974
13 0.10527 0.0451982 0.0431897 0.116025 -0.178947 0.0145514 0.0623857 -0.0979547 0.183539 -0.0296577 0.0826512 -0.00295079 -0.201629 0.0713153 0.0452214 0.0878691 -0.168677 -0.0608667 0.228717 -0.0829682 0.311529 -0.00555498 -0.293856 -0.00182111 -0.150479 -0.0885112 -0.129536 0.198472 -0.222421 0.0956409 0.207423 -0.202273 -0.00131494 -0.0718557 -0.143152 -0.0673123 -0.218211 0.0608013 0.0840665 0.15499 0.0887336 -0.0859012 0.149367 0.087261 0.125396 0.0151676 0.112848 -0.0369641 0.0921197 -0.230905 0.133721 -0.0834603 -0.125776 -0.00420179 -0.0927908 0.0559326 0.0375889 0.106014 -0.0406686 -0.274221 0.178694 0.0253172 0.074336 0.197159 0.241846 -0.298717 0.0430193 -0.00213798 -0.142626 -0.181953 0.142527 0.340797 0.0812523 -0.102924 0.0989104 -0.0184531 -0.0417885 0.128242 -0.29066 0.280018 -0.1064 0.236452 -0.0924876 -0.080255 -0.0867698 -0.0317134 0.0635245 0.141705 -0.285828 0.188184 0.127842 -0.204702 0.184709 -0.319433 -0.0413211 -0.188696 -0.200664 0.0939391 0.015397 -0.043312 0.206178 0.189636 -0.202508 -0.159705 0.125839 -0.263588 0.052635 -0.0524085 -0.019405 -0.203288 -0.251992 0.1235 0.222202 0.0129193 0.145777 0.262755 0.10603 -0.0474549 -0.203528 0.212022 0.0557525 -0.0787022 0.101259 0.331977 -0.133991 0.157348 0.164203 0.221039
1342177280 -0.090755 0.0915062 0.169135 0.0837915 0.137094 0.106821 0.233428 -0.12712 0.131678 -0.0697563 -0.0894936 -0.274936 -0.0752934 -0.0262308 0.102672 0.0464733 -0.108929 -0.0498 0.318383 0.00522184 0.14816 -0.251034 -0.225804 -0.00947695 -0.0922973 -0.222099 -0.134119 0.247823 -0.084601 0.257858 0.232366 -0.0626264 0.205708 -0.210919 0.202379 -0.0279838 -0.0926578 0.140609 0.0485695 0.199704 0.0119984 -0.0851575 0.180416 0.130908 0.242256 0.221079 0.0833773 0.135348 0.131086 0.0617568 0.00243856 0.114638 -0.136018 0.203844 -0.169991 -0.121524 0.0151015 -0.047692 0.12952 -0.0357158 0.076145 0.0162607 0.275389 -0.0642302 0.179967 -0.104508 -0.071313 0.221789 0.11013 0.140488 -0.0677603 0.345482 0.167092 0.0133296 0.23482 0.148883 -0.209769 0.0326807 0.0113086 0.388491 -0.19784 0.13271 -0.269576 0.184702 -0.0716301 0.363737 0.0392498 0.261562 -0.182187 0.178412 -0.0115334 -0.0881513 0.219677 -0.297068 0.0233552 0.0647897 0.0108964 -0.0187789 -0.0342642 0.0595326 0.249636 0.0970299 -0.311139 -0.035957 0.299285 0.170491 0.0900431 -0.0345686 0.0846656 0.187522 0.0193619 0.0269884 0.3041 -0.0435688 0.163948 0.0784926 0.164581 -0.0294383 -0.234668 0.235544 0.118557 -0.173392 0.101282 0.358937 -0.122932 -0.0114135 0.144124 0.0374283
70 0.0303821 0.0560179 0.11885 0.118678 -0.0911557 -1.46474e-05 0.136674 -0.10811 0.1003 -0.088477 0.0138472 -0.0645857 -0.13142 0.121894 0.0394498 0.0255656 -0.140973 -0.016666 0.216573 0.0195703 0.243712 -0.114553 -0.290696 -0.020243 -0.151569 -0.165318 -0.135458 0.202021 -0.137904 0.214739 0.265301 -0.213155 0.108439 -0.15016 -0.0191372 0.00031743 -0.274319 0.0992828 0.131799 0.158599 -0.0147128 -0.166624 0.144769 0.124484 0.149485 0.0639882 0.139335 0.0519264 0.0688569 -0.12082 0.0296317 -0.0347393 -0.104017 0.0646168 -0.139429 -0.0392269 0.0136188 0.04899 0.006041 -0.245179 0.160359 0.0378516 0.142271 0.132448 0.156201 -0.225005 0.0210206 0.0630939 -0.0496111 -0.0408023 0.157847 0.270002 0.0644221 -0.0528276 0.103868 -0.0258178 -0.105723 0.064785 -0.233712 0.282768 -0.160928 0.175225 -0.121684 0.0383887 -0.19146 0.121016 0.0842876 0.132905 -0.207323 0.207569 0.0567303 -0.112024 0.193239 -0.371175 -0.0659693 -0.137006 -0.116372 0.0101908 -0.0532756 -0.0511738 0.174756 0.168159 -0.238672 -0.160558 0.179855 -0.13025 0.0858875 -0.133055 0.0842538 -0.0370763 -0.204669 0.0266291 0.247343 -0.0297944 0.211157 0.201907 0.116664 -0.0528703 -0.202083 0.264191 0.105738 -0.170791 0.0907447 0.393259 -0.158305 0.125311 0.167452 0.150398
23 0.0904447 0.0657146 0.0886024 0.0414176 -0.168368 -0.0120965 0.0374879 -0.161257 0.153678 -0.000809339 0.0685901 0.00583908 -0.139256 0.00559384 0.115447 0.100075 -0.108063 -0.0703851 0.268887 -0.06877 0.186709 -0.0254016 -0.240013 -0.00981406 -0.17489 -0.133476 -0.0953061 0.1513 -0.23564 0.0725052 0.222278 -0.0783579 0.011544 -0.107298 -0.0335509 -0.10221 -0.089348 0.0279125 0.00272681 0.148637 0.0603453 -0.106365 0.0721697 0.151774 0.130723 0.140634 0.0609449 -0.0154468 0.0980269 -0.129478 0.136744 -0.0233222 -0.134903 0.0119796 -0.0747727 0.0681354 -0.019907 0.110509 0.00360024 -0.159358 0.0775356 -0.0548705 0.129221 0.160248 0.246951 -0.293557 0.0130214 0.0424329 -0.101587 -0.107004 0.0269039 0.303263 0.179666 -0.107591 0.157488 -0.028718 -0.140485 0.0463536 -0.262168 0.317974 -0.0900922 0.173168 -0.137331 -0.0289823 0.00637373 0.0378411 0.0224237 0.180177 -0.224254 0.144322 0.0476442 -0.200169 0.11239 -0.173538 0.0214059 -0.110367 -0.170191 0.0833583 0.0234839 -0.0119278 0.180427 0.071156 -0.186716 -0.000599391 0.162312 -0.0908978 0.0312708 -0.0744701 0.00561654 -0.13616 -0.185859 0.0819748 0.19277 0.0368511 0.0504673 0.222667 0.122513 0.016721 -0.123865 0.158929 0.0102113 -0.0535871 0.109602 0.245254 -0.090724 0.12398 0.139121 0.194005
49 0.119537 0.0801648 0.113571 0.0368195 -0.231221 -0.00379897 0.019562 -0.182178 0.146282 -0.0140977 0.104443 0.0558539 -0.170426 0.0272195 0.156583 0.141527 -0.126559 -0.0683751 0.322682 -0.0838565 0.255421 0.031617 -0.328746 -0.0280001 -0.226731 -0.159254 -0.139452 0.169429 -0.284319 0.0746142 0.253309 -0.0917515 -0.00192248 -0.153311 -0.0438831 -0.13902 -0.124387 0.0110193 0.0166621 0.1789 0.049385 -0.144761 0.0629931 0.222717 0.147235 0.168696 0.0882377 -0.0143528 0.11075 -0.181561 0.166488 -0.0794016 -0.153217 0.0338416 -0.104419 0.0837494 -0.0327372 0.153967 -0.0058911 -0.195471 0.124707 -0.0487705 0.131161 0.202021 0.298663 -0.359302 0.0372694 0.0370293 -0.13762 -0.148467 0.0800554 0.363572 0.222358 -0.144712 0.156136 -0.0460866 -0.193541 0.0750502 -0.361356 0.351584 -0.088472 0.212294 -0.132862 -0.0445789 0.00485152 0.0275945 0.0443877 0.185289 -0.268368 0.17148 0.0483418 -0.230882 0.144758 -0.212369 0.00934704 -0.147284 -0.240561 0.070176 0.0125485 -0.0138341 0.21247 0.0925885 -0.187731 -0.0235725 0.171855 -0.138098 0.0398504 -0.118438 0.0250535 -0.177055 -0.25393 0.104207 0.181013 0.0490137 0.0521005 0.271218 0.157242 0.00765292 -0.147512 0.179987 0.00740712 -0.0687573 0.124404 0.319894 -0.124521 0.185388 0.173417 0.254526
90 0.215909 0.0774118 0.0551722 -0.0513393 -0.395365 -0.118704 -0.0870216 -0.190219 0.195467 0.0398702 0.261401 0.218025 -0.224833 -0.0541215 0.280631 0.166735 -0.131192 -0.0886432 0.339139 -0.0704057 0.231267 0.076781 -0.322652 -0.000848962 -0.206458 -0.179048 -0.0848879 0.10733 -0.328049 0.0447622 0.285944 -0.0833371 -0.0480536 -0.125485 -0.104051 -0.193674 -0.0833078 -0.0413923 -0.0151939 0.171169 0.084861 -0.201367 -0.00682362 0.254945 0.14278 0.303154 0.00837053 -0.133427 0.126045 -0.19289 0.224427 -0.0597887 -0.112532 -0.173939 -0.0320464 0.134912 -0.0385309 0.245348 -0.0677661 -0.229626 0.0292104 -0.203212 0.134057 0.351667 0.396682 -0.587008 0.0643483 -0.0613522 -0.293334 -0.207051 -0.0353166 0.445698 0.269014 -0.226401 0.232544 -0.193284 -0.19109 0.0117382 -0.55838 0.443211 0.0158032 0.25496 -0.163283 -0.139579 0.0523569 -0.0978257 0.0221673 0.189037 -0.338435 0.152591 0.0551506 -0.376939 0.0939469 -0.101336 0.0589205 -0.26497 -0.266449 0.159642 0.102749 -0.0108352 0.195247 0.0109116 -0.171751 0.136947 0.181046 -0.156046 0.0247212 -0.132662 -0.0289289 -0.320149 -0.341646 0.210274 0.23327 0.0505261 0.0567984 0.380313 0.159895 0.0503075 -0.0536705 0.193743 -0.130176 0.029341 0.230066 0.178098 0.0237958 0.294871 0.204456 0.3253
86 0.145314 0.0601046 0.0354935 -0.0350288 -0.278866 -0.107705 0.00307476 -0.239439 0.327709 0.0892403 0.183302 0.0759194 -0.178233 -0.135074 0.197347 0.125385 -0.131875 -0.156495 0.324362 -0.113857 0.147947 -0.052139 -0.2115 0.040288 -0.143846 -0.160279 -0.055429 0.136447 -0.321469 0.0344593 0.285591 -0.0655393 -0.0445859 -0.0619653 -0.103048 -0.143987 -0.0431019 -0.00775679 -0.0818596 0.182368 0.158877 -0.0922055 0.124742 0.0932085 0.17907 0.260777 0.0305298 -0.146209 0.132159 -0.126743 0.260899 0.0323338 -0.170878 -0.217574 -0.00798972 0.151658 -0.00330085 0.182835 -0.0387524 -0.191111 -0.0910339 -0.216828 0.185649 0.30938 0.406562 -0.52648 0.0184468 -0.000761035 -0.249606 -0.172046 -0.153732 0.410984 0.21183 -0.171036 0.278404 -0.130098 -0.10836 0.00166948 -0.430213 0.466762 -0.028962 0.236807 -0.18352 -0.09417 0.0431221 -0.0546245 -0.0304284 0.2447 -0.329478 0.148865 0.0992371 -0.424293 0.089964 -0.0698224 0.104097 -0.189666 -0.161843 0.237315 0.123634 0.00238362 0.23731 6.93835e-05 -0.248748 0.144903 0.211326 -0.0711506 0.0263565 -0.0566313 -0.0868713 -0.293627 -0.300229 0.173619 0.336871 0.0616263 0.0487274 0.33584 0.121964 0.0891992 -0.0811391 0.186624 -0.0886175 0.0545336 0.200042 0.0810684 0.0363248 0.145221 0.122962 0.233791
21 0.173445 0.0627144 0.0270994 0.0059974 -0.205042 -0.0154936 0.0106036 -0.198116 0.34465 0.114651 0.109498 -0.0292394 -0.189782 -0.16243 0.116191 0.176258 -0.137243 -0.197285 0.342568 -0.224861 0.191531 -0.0435884 -0.164252 0.058293 -0.145998 -0.0735368 -0.0304665 0.20671 -0.362823 -0.040341 0.196016 -0.0368808 -0.0771615 0.00722088 -0.161423 -0.152593 0.0786248 0.0412634 -0.0972979 0.140591 0.287559 0.0487747 0.0872909 0.0551827 0.162 0.125892 -0.00439298 -0.170504 0.106948 -0.16181 0.301891 0.0338907 -0.192694 -0.144052 0.00192924 0.197102 0.0342326 0.156078 -0.00781603 -0.161338 0.0215577 -0.116172 0.134571 0.201204 0.393618 -0.392466 0.0115473 -0.0024698 -0.21302 -0.240053 -0.181441 0.440782 0.20632 -0.159862 0.267575 0.00354288 -0.0500742 0.0582794 -0.238647 0.441776 -0.0658877 0.225683 -0.201856 -0.136737 0.163505 -0.0561058 -0.059027 0.28475 -0.343801 0.116288 0.146612 -0.339975 0.0876134 -0.0756278 0.108205 -0.129266 -0.212611 0.26053 0.147499 0.031733 0.273468 0.0874578 -0.244108 0.064061 0.179916 -0.146932 -0.0204908 0.0872553 -0.168392 -0.312713 -0.174418 0.215034 0.297356 0.0881412 -0.0274601 0.277316 0.127083 0.0810263 -0.0906628 0.107279 -0.0431333 0.10294 0.157021 0.102483 -0.0138281 0.0856726 0.105949 0.254957
85 0.149649 0.0451872 0.0115876 0.0186004 -0.232734 -0.0572814 0.021672 -0.189634 0.331493 0.0686115 0.141713 0.0117718 -0.203379 -0.126066 0.145238 0.116001 -0.150792 -0.162203 0.33271 -0.141633 0.19654 -0.0520308 -0.241094 0.0333393 -0.140344 -0.114331 -0.0574786 0.172074 -0.303657 0.0523117 0.260899 -0.089635 -0.0367349 -0.0360635 -0.123477 -0.120968 -0.0443878 0.034098 -0.0425799 0.165771 0.203271 -0.0369642 0.141304 0.0616258 0.190051 0.18002 0.0345351 -0.128685 0.138532 -0.145273 0.246274 0.0343298 -0.173866 -0.16647 -0.0304721 0.155103 0.0253988 0.154156 -0.0186664 -0.215563 -0.0205951 -0.152034 0.151165 0.262736 0.382858 -0.482745 0.0123786 -0.00313723 -0.22274 -0.204847 -0.136473 0.458583 0.190081 -0.15966 0.278125 -0.0736762 -0.0725549 0.0448962 -0.343505 0.442986 -0.0542308 0.240645 -0.175135 -0.120405 0.0742736 -0.0375768 -0.0385548 0.279422 -0.365546 0.149649 0.119189 -0.383763 0.122191 -0.152625 0.0962973 -0.186321 -0.194429 0.224426 0.110693 0.00572591 0.263419 0.0637921 -0.255531 0.057249 0.204366 -0.15062 0.0121197 0.0220761 -0.11743 -0.295596 -0.261018 0.220437 0.350981 0.068966 0.0775345 0.295892 0.138432 0.0422756 -0.134998 0.204832 -0.0468296 0.0460907 0.18893 0.13132 0.0131541 0.127791 0.133398 0.241015
81 0.163245 0.0529314 0.0236895 -0.00480201 -0.266938 -0.06547 -0.00111529 -0.207107 0.340094 0.0836736 0.183561 0.0500174 -0.210004 -0.146449 0.185371 0.135796 -0.145873 -0.170695 0.358687 -0.137032 0.201547 -0.0271174 -0.268307 0.0214793 -0.151172 -0.131136 -0.0651466 0.166704 -0.320458 0.0435282 0.284202 -0.0680191 -0.0458115 -0.061755 -0.117798 -0.145834 -0.0359361 0.0126929 -0.0549631 0.180787 0.196531 -0.0619169 0.125942 0.0958661 0.204738 0.234846 0.0243581 -0.134712 0.148765 -0.145193 0.26877 0.0217804 -0.175686 -0.173669 -0.0352654 0.163954 0.0195103 0.18463 -0.0227883 -0.20201 -0.0332155 -0.186467 0.160238 0.288717 0.416307 -0.533456 0.0233609 -0.00186695 -0.24104 -0.209357 -0.158644 0.48979 0.22743 -0.185082 0.288889 -0.0822806 -0.108334 0.0442334 -0.39488 0.472055 -0.0372066 0.248675 -0.186779 -0.124138 0.0910153 -0.0430813 -0.0393958 0.287613 -0.389529 0.153875 0.112384 -0.420804 0.12645 -0.132065 0.112764 -0.196322 -0.210686 0.226619 0.109971 0.00627744 0.270196 0.0397108 -0.251384 0.0950593 0.221727 -0.131102 0.0141381 0.000248533 -0.111501 -0.314473 -0.283545 0.239471 0.349154 0.0771317 0.0618196 0.317262 0.15804 0.0504834 -0.128152 0.21511 -0.0625455 0.05648 0.20329 0.130646 0.0239105 0.147908 0.145563 0.258721
62 0.150122 0.063451 0.0595348 -0.0165211 -0.286534 -0.0719843 -0.0192338 -0.161614 0.17384 0.0181756 0.188359 0.127825 -0.185514 -0.0321733 0.214205 0.123594 -0.132154 -0.0804339 0.299658 -0.0547492 0.210866 0.0251721 -0.283109 -0.0152804 -0.167373 -0.157254 -0.0891031 0.120195 -0.251876 0.0810806 0.272735 -0.0919416 -0.00450668 -0.125966 -0.0639767 -0.142502 -0.103306 -0.0112689 0.0137819 0.16015 0.0645237 -0.166266 0.0400578 0.202872 0.149312 0.248576 0.0366383 -0.0870447 0.109927 -0.146342 0.170999 -0.0438072 -0.111841 -0.112619 -0.0600043 0.0896677 -0.0239309 0.184121 -0.0424431 -0.200029 0.0365391 -0.143006 0.135853 0.274879 0.332917 -0.471507 0.0477863 -0.0207638 -0.211295 -0.144314 -0.0229184 0.386892 0.220388 -0.176584 0.198953 -0.133948 -0.173231 0.0222905 -0.438955 0.384306 -0.0185461 0.21995 -0.145921 -0.0890935 0.00764864 -0.030763 0.0238961 0.179128 -0.300029 0.145574 0.0490925 -0.315711 0.111755 -0.147202 0.0397007 -0.209886 -0.197254 0.123643 0.0619555 -0.0126582 0.190459 0.0347176 -0.184076 0.0758575 0.17703 -0.11859 0.0310004 -0.117087 -0.0119714 -0.230572 -0.286532 0.1682 0.230534 0.0306731 0.0837239 0.304619 0.143589 0.0286318 -0.0890988 0.191907 -0.0708123 -0.0141886 0.180153 0.190891 -0.00672111 0.217578 0.169869 0.257913
16 0.092222 0.0810179 0.141849 0.0833993 -0.174847 0.0282193 0.0595174 -0.200101 0.112423 -0.0375399 0.00790084 0.00348957 -0.120033 0.0819531 0.0721602 0.133368 -0.102916 -0.0685851 0.302632 -0.109635 0.240294 0.0378174 -0.297659 -0.0337488 -0.262744 -0.113236 -0.147751 0.175288 -0.298536 0.0552372 0.242502 -0.0873443 -0.0149806 -0.130184 -0.040027 -0.115752 -0.131017 0.012541 0.00891227 0.171089 0.0210628 -0.115726 0.0700677 0.210656 0.125882 0.0600652 0.120484 0.0433779 0.101559 -0.194854 0.167221 -0.0917588 -0.191356 0.137623 -0.122789 0.0911519 -0.0593932 0.11965 0.0164284 -0.191533 0.169642 0.0254243 0.106953 0.145231 0.22893 -0.227518 0.010366 0.0620675 -0.067916 -0.148256 0.178519 0.257229 0.205656 -0.10609 0.105578 0.0122911 -0.187419 0.0977717 -0.269715 0.276283 -0.138637 0.178703 -0.0931756 -0.0203168 0.0114069 0.0433719 0.0503621 0.176731 -0.192044 0.172101 0.03111 -0.149728 0.124707 -0.232103 -0.00347627 -0.089453 -0.248343 0.0423344 -0.0399458 -0.0338705 0.185785 0.103587 -0.17579 -0.0924825 0.147076 -0.143885 0.0255849 -0.110035 0.0545308 -0.137926 -0.205853 0.0190881 0.110742 0.0658142 -0.00376947 0.218682 0.142191 0.00952137 -0.160829 0.146583 0.070644 -0.125275 0.0379889 0.368839 -0.218383 0.12372 0.13328 0.228443
52 0.129534 0.0690269 0.0893869 -0.0231458 -0.279193 -0.0537782 -0.0205244 -0.172653 0.13063 -0.000882804 0.16896 0.129331 -0.167414 -0.00948626 0.220212 0.132173 -0.116041 -0.0644754 0.310377 -0.0420192 0.212748 0.0408488 -0.308468 -0.0262528 -0.195748 -0.181188 -0.112632 0.115748 -0.250672 0.0851527 0.268079 -0.0730631 0.00290786 -0.161964 -0.0352743 -0.154987 -0.103784 -0.0158596 0.0121418 0.167408 0.0197091 -0.185133 0.02974 0.245626 0.143913 0.258173 0.0504923 -0.0419479 0.11062 -0.142004 0.151983 -0.0637809 -0.116606 -0.0518486 -0.0819528 0.0779112 -0.0378976 0.178664 -0.0331845 -0.175811 0.0567277 -0.128801 0.133424 0.247206 0.313572 -0.441392 0.0517869 0.003949 -0.182469 -0.124513 0.0128598 0.363358 0.234664 -0.16964 0.18008 -0.121321 -0.209808 0.0250141 -0.431727 0.368795 -0.0359017 0.204381 -0.131658 -0.0581955 9.32962e-05 -0.000198315 0.0369151 0.161318 -0.272007 0.14756 0.0275656 -0.279537 0.117794 -0.149731 0.0315743 -0.181553 -0.207204 0.0839955 0.0343628 -0.00965724 0.181997 0.0241007 -0.161776 0.0714785 0.168467 -0.0924577 0.0366661 -0.156416 0.0222602 -0.192331 -0.274531 0.128161 0.193686 0.0308972 0.0627336 0.292183 0.159767 0.0200069 -0.0940224 0.180089 -0.0558117 -0.0362857 0.160888 0.232573 -0.0374639 0.214582 0.17053 0.255444
63 0.2093 0.094986 0.129049 -0.112998 -0.416644 -0.17729 -0.0843569 -0.213627 0.0759252 0.0186161 0.231083 0.251206 -0.186695 -0.018164 0.36071 0.139901 -0.0890524 -0.044273 0.354761 0.060935 0.150125 0.028734 -0.329547 -0.0199526 -0.230344 -0.309289 -0.0823209 0.0694959 -0.258906 0.104971 0.340435 -0.0591247 0.0292294 -0.242959 0.0232966 -0.179307 -0.0679446 -0.0218003 -0.0225007 0.170153 -0.0360599 -0.316161 -0.0864894 0.385084 0.122846 0.448948 -0.0207795 -0.0908097 0.094998 -0.105714 0.116359 -0.00841682 -0.0800883 -0.144807 -0.0665909 0.0729203 -0.0960012 0.223733 -0.0720297 -0.18052 -0.0185624 -0.261379 0.208975 0.329939 0.343913 -0.614949 0.0592313 -0.0225867 -0.248568 -0.0897415 -0.0516473 0.397254 0.329862 -0.216803 0.277138 -0.25734 -0.31131 -0.0984934 -0.584526 0.468676 -0.0127152 0.189919 -0.208118 -0.0578089 -0.00232047 0.0294357 0.0330543 0.155248 -0.251341 0.14931 -0.0648972 -0.307182 0.0656379 -0.0588419 0.0457027 -0.247646 -0.22773 0.0892593 0.0653427 -0.00397167 0.127301 -0.0702862 -0.160666 0.232141 0.211551 -0.0199506 0.0661496 -0.259287 0.0530918 -0.210002 -0.334208 0.130593 0.2212 0.0160423 0.0655611 0.378541 0.186202 0.0761022 -0.00251923 0.195571 -0.145243 -0.0078659 0.249326 0.199788 0.0459058 0.334919 0.227043 0.305582
5 0.098684 0.0369138 0.0069128 0.108208 -0.1656 0.0215093 0.0519036 -0.0674318 0.21132 -0.0115104 0.116533 -0.000960945 -0.202642 0.0406065 0.0501053 0.0781797 -0.176622 -0.061432 0.209457 -0.0823495 0.312608 -0.0160841 -0.278955 0.00402345 -0.109078 -0.0757034 -0.115289 0.194474 -0.187873 0.100035 0.18409 -0.194456 -0.0027359 -0.0591041 -0.15499 -0.0605081 -0.220579 0.0556617 0.0987226 0.154545 0.111756 -0.0730218 0.171841 0.0530873 0.134832 0.0133275 0.109312 -0.0505661 0.0971968 -0.213589 0.128126 -0.0782529 -0.111527 -0.0467807 -0.0742319 0.0456916 0.0711849 0.104277 -0.0419949 -0.265275 0.16174 0.0155628 0.0633514 0.189109 0.244985 -0.307266 0.0532267 -0.00456766 -0.152313 -0.177879 0.0939094 0.361644 0.0559775 -0.102744 0.102249 -0.00862026 -0.0114116 0.130826 -0.277042 0.274221 -0.0821977 0.243294 -0.0900253 -0.0864063 -0.0966089 -0.0403791 0.0630593 0.140533 -0.303933 0.184218 0.151621 -0.222481 0.202634 -0.319693 -0.0288537 -0.191648 -0.182278 0.0960969 0.0367128 -0.0357895 0.215239 0.195829 -0.198076 -0.158003 0.119612 -0.276692 0.0591176 -0.0289098 -0.0375389 -0.210591 -0.244378 0.165499 0.247991 -0.0036123 0.175512 0.243882 0.115011 -0.0620196 -0.20594 0.220934 0.0500348 -0.0561112 0.109728 0.291257 -0.0982464 0.14698 0.164538 0.196065
60 0.122489 0.104507 0.181883 0.0759204 -0.197511 -0.018919 0.0683977 -0.270065 0.146868 -0.0195322 -0.0114124 -0.0215198 -0.126582 0.0650674 0.0910628 0.149213 -0.101332 -0.10689 0.368799 -0.121208 0.201037 -0.0163712 -0.293341 -0.0152014 -0.303397 -0.159973 -0.127944 0.212255 -0.369612 0.0544137 0.305257 -0.0688412 -0.0135421 -0.137085 -0.0407277 -0.130183 -0.0745146 0.0480684 -0.0336244 0.181716 0.0573928 -0.127862 0.0311352 0.236667 0.137842 0.121988 0.100614 0.0123908 0.103491 -0.184144 0.210154 -0.0375889 -0.216782 0.123009 -0.109001 0.111628 -0.0922503 0.137546 0.0255572 -0.193246 0.154614 -0.0187056 0.158666 0.175702 0.265493 -0.280429 -0.0197359 0.0740788 -0.0751843 -0.150982 0.126821 0.282989 0.271711 -0.123538 0.179168 -0.00789844 -0.225382 0.0551321 -0.28679 0.380491 -0.173478 0.173204 -0.168878 -0.000557362 0.0453523 0.0777454 0.0381182 0.239666 -0.207232 0.186431 0.020665 -0.168857 0.0858067 -0.208114 0.0378419 -0.0837504 -0.253652 0.0986763 -0.0237809 -0.0262907 0.210315 0.0709283 -0.23542 -0.0228171 0.20597 -0.0959075 0.0155035 -0.113342 0.0544341 -0.155259 -0.20862 0.00158648 0.171777 0.0874499 -0.0321652 0.25876 0.154443 0.0646301 -0.135879 0.149485 0.0501273 -0.109736 0.0655725 0.377974 -0.226308 0.131949 0.157303 0.262462
87 0.135333 0.0631063 0.0481669 0.0123177 -0.172291 -0.0679353 0.0360981 -0.175922 0.264545 0.0622499 0.0926805 -0.0172581 -0.155954 -0.102562 0.127232 0.111489 -0.106022 -0.143257 0.289805 -0.121841 0.129328 -0.0852563 -0.161426 0.0392677 -0.122965 -0.115043 -0.0265774 0.164118 -0.272636 0.0386725 0.22528 -0.055938 -0.0126849 -0.0309912 -0.0716667 -0.106514 0.0124654 0.0557935 -0.059348 0.144075 0.180689 -0.0383292 0.0732378 0.0691845 0.147327 0.177665 -0.0014473 -0.109476 0.108769 -0.0992682 0.205032 0.0627427 -0.146686 -0.115208 -0.0134414 0.106053 -0.00349572 0.120138 0.00182289 -0.147481 -0.0100037 -0.13141 0.158699 0.195022 0.312025 -0.367076 -0.0115843 0.0155137 -0.15685 -0.138944 -0.134096 0.361208 0.202032 -0.121378 0.25395 -0.0430629 -0.0794307 0.00154133 -0.245789 0.403082 -0.0559997 0.178469 -0.208332 -0.0633351 0.0781927 0.00674104 -0.0292348 0.249825 -0.267402 0.121048 0.0786888 -0.279586 0.0710408 -0.0892353 0.0946703 -0.12016 -0.134681 0.202139 0.103945 0.0155591 0.212324 0.0387189 -0.233782 0.0875712 0.200811 -0.0525545 0.00622291 0.0230477 -0.0784929 -0.200314 -0.164215 0.145864 0.290042 0.0503982 0.0350328 0.240861 0.103341 0.0759312 -0.0763772 0.143118 -0.0462221 0.0347122 0.160816 0.109337 -0.00125496 0.0960852 0.118423 0.191985
19 0.118483 0.0882714 0.130515 0.0598659 -0.204411 -0.0168641 0.0618963 -0.217756 0.17056 -0.0116426 0.0643927 0.0044548 -0.15768 0.0289785 0.127527 0.132898 -0.124649 -0.0920607 0.343681 -0.0898293 0.232712 -0.0253205 -0.310051 -0.0141223 -0.242846 -0.170767 -0.122118 0.200117 -0.309024 0.0886591 0.287134 -0.0988 0.00716548 -0.140512 -0.044438 -0.121791 -0.116211 0.0410642 0.00400509 0.18962 0.0652851 -0.137462 0.0748278 0.207633 0.164215 0.155862 0.0931238 -0.00926863 0.115494 -0.166631 0.177437 -0.0395773 -0.180573 0.0444695 -0.105633 0.0821611 -0.0448146 0.142299 0.00248695 -0.207672 0.12384 -0.0455285 0.157454 0.191414 0.294132 -0.342732 0.00518316 0.0508259 -0.114434 -0.138825 0.0693996 0.354282 0.232465 -0.133792 0.18477 -0.0300415 -0.192252 0.0599418 -0.328163 0.392516 -0.132329 0.207635 -0.164231 -0.0191971 -0.00189509 0.0632225 0.0413211 0.222099 -0.25665 0.191434 0.0487062 -0.223142 0.128398 -0.232769 0.0261387 -0.133934 -0.229324 0.100226 0.00688341 -0.0236979 0.226959 0.0882341 -0.240533 -0.0233861 0.208715 -0.117515 0.0327304 -0.110182 0.0252501 -0.172357 -0.234597 0.0719483 0.225596 0.0578825 0.0434617 0.270036 0.156698 0.0320339 -0.150293 0.192551 0.0260846 -0.0930554 0.110853 0.33911 -0.152305 0.153757 0.170433 0.251917
64 0.102001 0.0902995 0.155168 0.0610842 -0.184837 -0.0326516 0.0709853 -0.227063 0.133111 -0.0129197 0.00961176 -0.0127149 -0.115629 0.0529649 0.095842 0.117344 -0.097129 -0.0890071 0.322626 -0.0833518 0.178553 -0.034902 -0.26316 -0.0171153 -0.250794 -0.161073 -0.106827 0.187434 -0.306688 0.0720048 0.284616 -0.0785858 0.00796534 -0.132731 -0.0263552 -0.103547 -0.0819765 0.0520239 -0.0182383 0.165136 0.0449983 -0.136512 0.0418871 0.203283 0.137946 0.13756 0.0882027 0.00667403 0.0905403 -0.145977 0.162038 -0.0223256 -0.182088 0.0845254 -0.0982822 0.084362 -0.0654643 0.123862 0.0169637 -0.181837 0.121497 -0.0305577 0.155769 0.168026 0.244841 -0.278754 -0.0158385 0.0685087 -0.0757903 -0.11381 0.0867566 0.273083 0.23058 -0.11218 0.169745 -0.0227417 -0.202219 0.0393303 -0.274416 0.355126 -0.148454 0.156778 -0.159723 0.00432695 0.0106073 0.0797742 0.0329032 0.209844 -0.199319 0.17841 0.0178607 -0.168509 0.0893995 -0.194162 0.0272917 -0.0878379 -0.207352 0.0872071 -0.0116805 -0.025156 0.189404 0.0625464 -0.226133 -0.00916337 0.204287 -0.0765284 0.0248758 -0.116618 0.0457364 -0.128786 -0.199232 0.018762 0.189859 0.0656361 0.00420624 0.241158 0.142985 0.0492251 -0.123954 0.16237 0.0421102 -0.103829 0.0814188 0.325033 -0.180315 0.117813 0.148476 0.221063
28 0.0962094 0.089707 0.150861 0.079612 -0.171566 0.0015249 0.0750958 -0.215759 0.130036 -0.0317459 0.00529182 -0.0221044 -0.125972 0.0673841 0.086575 0.12267 -0.113464 -0.0741008 0.321682 -0.083525 0.218933 -0.0183787 -0.291327 -0.0233616 -0.256482 -0.152119 -0.13166 0.196704 -0.293911 0.0878599 0.278321 -0.0930842 0.0112828 -0.139156 -0.0318607 -0.105249 -0.127263 0.0410372 0.00680443 0.174617 0.031074 -0.131825 0.070908 0.208868 0.1373 0.105109 0.109497 0.0259474 0.103436 -0.163767 0.151238 -0.0512986 -0.187699 0.108588 -0.119615 0.0745552 -0.0587654 0.119258 0.0158011 -0.199073 0.149327 -0.00351524 0.145911 0.161311 0.242589 -0.265618 -0.00290604 0.0757602 -0.0706721 -0.122293 0.128083 0.282046 0.213994 -0.111165 0.154509 -0.00541434 -0.19389 0.065965 -0.271745 0.335203 -0.156527 0.177972 -0.140804 -0.00314575 -0.0118836 0.0813203 0.0422601 0.202996 -0.20324 0.181701 0.0324364 -0.163656 0.118022 -0.237 0.0119117 -0.0948169 -0.220093 0.0678219 -0.0281304 -0.0295042 0.20089 0.0909404 -0.222621 -0.05955 0.186271 -0.107589 0.0352587 -0.118558 0.0576124 -0.133125 -0.20595 0.0228034 0.178505 0.0609117 0.0207907 0.235778 0.147296 0.0212925 -0.155831 0.171629 0.0596395 -0.120344 0.0707235 0.365766 -0.194755 0.124826 0.153944 0.227774
65 0.113101 0.0877833 0.147805 0.0628845 -0.206179 -0.0139914 0.0584176 -0.218098 0.157232 -0.0206935 0.0409698 0.00405791 -0.149613 0.0513228 0.116257 0.135071 -0.118445 -0.0889111 0.344955 -0.0951052 0.233389 -0.00805004 -0.313082 -0.0235695 -0.262487 -0.165172 -0.138053 0.194907 -0.313128 0.0802076 0.287335 -0.0963899 0.00114751 -0.144472 -0.0465665 -0.122448 -0.12232 0.0408609 0.00645354 0.181488 0.0509133 -0.137922 0.0726753 0.216754 0.149257 0.135739 0.103708 0.00965858 0.110149 -0.183501 0.174183 -0.0592065 -0.185689 0.075231 -0.109505 0.0864221 -0.050247 0.139765 0.00495871 -0.204489 0.139953 -0.0233812 0.149799 0.183895 0.273166 -0.317712 0.00942137 0.0563727 -0.104426 -0.141921 0.110094 0.328622 0.226358 -0.129418 0.164245 -0.0225306 -0.199884 0.0707199 -0.317349 0.3692 -0.145222 0.196925 -0.151807 -0.0187739 0.00104895 0.0640782 0.041828 0.210965 -0.242192 0.190888 0.0383819 -0.200545 0.132854 -0.235111 0.0145158 -0.125075 -0.234937 0.0895317 -0.0105515 -0.0267753 0.218218 0.0888614 -0.229992 -0.0390935 0.193137 -0.12615 0.03389 -0.118707 0.0449326 -0.16595 -0.23955 0.0549118 0.19785 0.0640542 0.0283728 0.263072 0.158101 0.0280548 -0.154867 0.185667 0.045081 -0.104901 0.0978884 0.362003 -0.176486 0.145377 0.160499 0.253944
20 0.0930165 0.0892858 0.161749 0.0525508 -0.192859 0.00829339 0.0494673 -0.22974 0.116072 -0.0269388 0.0247016 0.0125947 -0.125008 0.0630157 0.113011 0.148431 -0.0966823 -0.0704402 0.336398 -0.0856771 0.217637 0.0165004 -0.3144 -0.0375884 -0.275344 -0.159269 -0.144929 0.179714 -0.307437 0.0668669 0.267889 -0.0629761 -0.00324241 -0.165581 -0.0167506 -0.132496 -0.106225 0.015436 -0.00691073 0.181216 0.0155344 -0.144198 0.0522106 0.238987 0.142419 0.126452 0.110516 0.0355811 0.103116 -0.169062 0.163387 -0.07563 -0.192044 0.128524 -0.121592 0.0847319 -0.0688204 0.128864 0.0194348 -0.169777 0.142333 -0.0133161 0.138382 0.157575 0.249692 -0.278298 0.0051305 0.0765083 -0.0807754 -0.130894 0.131201 0.292117 0.244458 -0.119258 0.139877 -0.00784431 -0.229916 0.073501 -0.296949 0.327284 -0.14204 0.176728 -0.125805 -0.000643638 0.0176522 0.0739542 0.0483961 0.191234 -0.204973 0.175239 0.0120473 -0.17285 0.117091 -0.213346 0.0136618 -0.0918699 -0.246165 0.0554702 -0.0335907 -0.0192995 0.198911 0.0714481 -0.191614 -0.0400176 0.183131 -0.101965 0.0347057 -0.135416 0.0694807 -0.13576 -0.2196 0.0252888 0.135456 0.0702009 -0.00330509 0.239352 0.161564 0.0240748 -0.145583 0.156768 0.0473117 -0.115319 0.0697904 0.365837 -0.19911 0.132283 0.146154 0.235228
46 0.0808828 0.058289 0.0552323 0.0551417 -0.153196 0.0229342 0.0482776 -0.120344 0.195129 -0.0040481 0.0932919 -0.0112865 -0.169322 -0.0134944 0.121189 0.102866 -0.136907 -0.0692273 0.27564 -0.0774012 0.241131 -0.0275419 -0.275439 -0.0048455 -0.133503 -0.134584 -0.115032 0.173685 -0.211396 0.0982475 0.205471 -0.114559 0.0176284 -0.111381 -0.0473386 -0.100433 -0.133293 0.0368513 0.0291379 0.160616 0.0891004 -0.084444 0.130142 0.125957 0.154354 0.131981 0.0774219 -0.0256503 0.116723 -0.138324 0.134531 -0.0322286 -0.127417 -0.00749145 -0.0842243 0.0527059 0.0209953 0.102261 -0.00177966 -0.181811 0.0834146 -0.0451805 0.12933 0.162738 0.27881 -0.322996 0.0319022 0.0370599 -0.124096 -0.121352 0.0111323 0.375556 0.142585 -0.109194 0.166783 -0.0123617 -0.111909 0.0802662 -0.270027 0.324697 -0.0826983 0.212319 -0.133093 -0.0469966 -0.0236137 0.0386797 0.0281965 0.185508 -0.278804 0.162192 0.0834121 -0.240015 0.168245 -0.228426 0.0103392 -0.132062 -0.16542 0.0865405 0.0356819 0.0043219 0.216612 0.116016 -0.199673 -0.0453828 0.161109 -0.126909 0.0523221 -0.040691 -0.018338 -0.146361 -0.197194 0.143187 0.23693 0.0147599 0.106371 0.230841 0.134333 -0.0181329 -0.173402 0.197263 0.017259 -0.0446049 0.134453 0.259205 -0.0716905 0.136359 0.146678 0.192155
78 0.165704 0.0619276 0.0580127 -0.0240157 -0.294901 -0.098101 -0.0292645 -0.163667 0.144864 0.0309521 0.163075 0.132657 -0.166451 -0.0323068 0.208369 0.107366 -0.097097 -0.0739181 0.272269 -0.0245996 0.167785 0.00615528 -0.239937 0.00410391 -0.164399 -0.175982 -0.071724 0.10014 -0.244174 0.0557141 0.246868 -0.080235 -0.00709128 -0.118726 -0.0537334 -0.135417 -0.0639539 -0.0022026 -0.0183735 0.139891 0.0471537 -0.173577 0.0114376 0.210992 0.111169 0.252887 0.0161172 -0.0935496 0.0972892 -0.133732 0.142669 -0.0152141 -0.106372 -0.12117 -0.0426072 0.0917152 -0.035453 0.171795 -0.0575967 -0.188038 0.0110963 -0.162919 0.139779 0.256502 0.293324 -0.446367 0.0326875 -0.0156672 -0.199552 -0.124271 -0.0267781 0.332756 0.218233 -0.155715 0.212154 -0.140752 -0.157704 -0.00756177 -0.403685 0.368722 -0.0249491 0.183153 -0.152554 -0.076988 0.0116 -0.0299505 0.020598 0.152267 -0.245601 0.136248 0.0251222 -0.275985 0.0739239 -0.0993415 0.0409802 -0.189039 -0.186538 0.118752 0.0746533 -0.00589679 0.152358 0.00326928 -0.15854 0.106841 0.165165 -0.0985107 0.0390211 -0.118349 -0.00691526 -0.209864 -0.260562 0.130221 0.217978 0.0300228 0.0525085 0.302567 0.125306 0.0520847 -0.0529844 0.16044 -0.0798999 0.00457332 0.175652 0.162061 0.00338984 0.223519 0.164052 0.238302
76 0.215221 0.0874521 0.0988138 -0.0922492 -0.425135 -0.15565 -0.098877 -0.227713 0.142754 0.0393056 0.258569 0.250005 -0.191937 -0.0478165 0.333769 0.164172 -0.096549 -0.0735197 0.358609 -0.0220198 0.16666 0.0768509 -0.323357 -0.0156338 -0.237209 -0.229036 -0.0852036 0.0750781 -0.318898 0.0558257 0.323361 -0.0413217 -0.03129 -0.177064 -0.0378724 -0.209085 -0.0465968 -0.0511848 -0.0403037 0.178245 0.0225593 -0.261636 -0.0604342 0.329166 0.142373 0.392075 -0.00685387 -0.109044 0.125862 -0.144725 0.199228 -0.0433543 -0.111616 -0.153414 -0.0446567 0.128374 -0.0829131 0.253156 -0.0672599 -0.185946 -0.00732722 -0.245689 0.167562 0.352023 0.385203 -0.612254 0.0515501 -0.04127 -0.269725 -0.155671 -0.0550337 0.411326 0.333398 -0.236845 0.250971 -0.224437 -0.277295 -0.043354 -0.590113 0.462116 0.0145821 0.2136 -0.175604 -0.101037 0.0673815 -0.0497153 0.0231997 0.183599 -0.295933 0.142255 -0.00962351 -0.364677 0.0629909 -0.0503329 0.0758472 -0.247072 -0.258377 0.134017 0.0833898 -0.00919909 0.167116 -0.0634378 -0.163505 0.214444 0.202738 -0.0691837 0.0336228 -0.199304 0.0110075 -0.282044 -0.346663 0.170859 0.209564 0.0522065 0.0243718 0.377246 0.178802 0.0811535 -0.0169086 0.186333 -0.150751 0.0143894 0.225871 0.171904 0.0298655 0.309846 0.207158 0.32653
14 0.112209 0.0896032 0.142033 0.049339 -0.208233 -0.00879622 0.0476022 -0.219708 0.165652 -0.0106872 0.0607361 0.00578598 -0.154091 0.0213851 0.142451 0.146742 -0.116481 -0.0869693 0.358074 -0.0939537 0.225688 -0.013405 -0.315834 -0.0149571 -0.249882 -0.175748 -0.136094 0.194604 -0.308997 0.0845065 0.283885 -0.0765661 0.00237136 -0.152111 -0.0264033 -0.135025 -0.097785 0.0328166 -0.00605842 0.188591 0.0579064 -0.141602 0.0629313 0.221625 0.159427 0.171566 0.091115 0.00343187 0.120332 -0.158904 0.179039 -0.0410899 -0.188909 0.061744 -0.112591 0.0850481 -0.0525609 0.141692 0.0145256 -0.187157 0.116347 -0.0522113 0.161239 0.181253 0.30156 -0.342769 0.00743382 0.0650579 -0.109664 -0.132839 0.0622193 0.356219 0.2504 -0.137095 0.185887 -0.0200567 -0.211999 0.0596194 -0.326739 0.387586 -0.130543 0.201053 -0.163607 -0.0196346 0.0192232 0.0719538 0.0378297 0.228974 -0.255149 0.179117 0.0388449 -0.218892 0.130991 -0.212171 0.0291712 -0.117006 -0.230896 0.0922285 0.00229155 -0.0146464 0.226342 0.0744305 -0.226934 -0.00989102 0.204131 -0.0951414 0.0352879 -0.114964 0.028437 -0.162186 -0.230941 0.0776043 0.205137 0.0589694 0.0286634 0.268422 0.171104 0.0303884 -0.154386 0.180802 0.0226099 -0.0866285 0.115256 0.336885 -0.15576 0.147964 0.167538 0.251787
59 0.0853128 0.0871697 0.153813 0.0516686 -0.173121 -7.51727e-06 0.0552499 -0.211632 0.113906 -0.0271164 0.0185179 -0.00254041 -0.114754 0.0566455 0.110362 0.130595 -0.0934313 -0.0714124 0.321734 -0.0750386 0.193023 -0.000585397 -0.28473 -0.0262106 -0.251021 -0.155376 -0.136518 0.172122 -0.282408 0.0687543 0.257756 -0.067037 0.00311063 -0.15484 -0.00759146 -0.116149 -0.0925629 0.0274805 -0.00368773 0.166498 0.019736 -0.134649 0.0496999 0.222233 0.137696 0.136241 0.101663 0.0299494 0.102562 -0.146603 0.155453 -0.0558211 -0.173174 0.112465 -0.117701 0.0715347 -0.0661447 0.121078 0.0190636 -0.160348 0.130398 -0.0166739 0.144269 0.144723 0.237751 -0.257512 -0.00422233 0.0708261 -0.063533 -0.111625 0.105518 0.277531 0.231165 -0.112013 0.139942 -0.00731774 -0.213191 0.0565978 -0.272351 0.321439 -0.137508 0.159501 -0.132107 0.00781241 0.0120189 0.0854502 0.0429629 0.191407 -0.195143 0.170182 0.0145944 -0.157677 0.11144 -0.193812 0.0205371 -0.0790423 -0.212326 0.0534359 -0.0270832 -0.0164492 0.186323 0.0680048 -0.19564 -0.0274995 0.180372 -0.074933 0.0282148 -0.123799 0.0589327 -0.116831 -0.192023 0.0173299 0.148713 0.061475 -0.00173756 0.224656 0.148936 0.0284293 -0.139322 0.152409 0.0418188 -0.107162 0.0715543 0.340459 -0.177899 0.123315 0.143816 0.220765
43 0.120633 0.0493718 0.0391773 0.0751517 -0.193819 0.022598 0.0172141 -0.122009 0.187761 -0.00229537 0.0913776 0.0283306 -0.181743 0.0253189 0.0723585 0.120728 -0.134838 -0.0749977 0.249947 -0.124127 0.275213 0.04286 -0.276393 -0.00865701 -0.1674 -0.0710179 -0.115983 0.167162 -0.255075 0.0362429 0.180919 -0.126588 -0.0426964 -0.0621039 -0.126469 -0.106405 -0.144246 0.0109496 0.0292269 0.148142 0.0987755 -0.0544161 0.112773 0.109772 0.116399 0.0351965 0.0908786 -0.0389141 0.0995705 -0.214168 0.178535 -0.0899918 -0.141729 -0.00226643 -0.0759609 0.0975573 0.0168611 0.12386 -0.0210202 -0.224508 0.138716 -0.00601364 0.0687041 0.188229 0.266311 -0.297973 0.0421983 -0.00229732 -0.151122 -0.205399 0.101461 0.326782 0.128188 -0.116734 0.111105 -0.0164942 -0.0723538 0.124243 -0.287637 0.264915 -0.0750432 0.224925 -0.0780638 -0.101783 0.00111394 -0.0510916 0.036706 0.159841 -0.267615 0.154419 0.108114 -0.225185 0.147911 -0.234447 -0.00241521 -0.153576 -0.228404 0.0999162 0.0285337 -0.0223893 0.203824 0.142147 -0.165328 -0.105677 0.109859 -0.234997 0.0324022 -0.0352683 -0.033962 -0.222097 -0.232538 0.128436 0.175553 0.0401337 0.0691722 0.244684 0.113711 -0.0222237 -0.166189 0.163365 0.0323959 -0.044138 0.0896938 0.268091 -0.120694 0.14112 0.135905 0.224787
18 0.0769093 0.0800392 0.140647 0.086749 -0.156361 0.0346028 0.0718297 -0.191761 0.10972 -0.0476927 0.0103058 -0.0126675 -0.129013 0.0879692 0.0775632 0.127931 -0.118271 -0.0615805 0.309797 -0.0875085 0.261556 0.0167673 -0.318065 -0.0400872 -0.248531 -0.131892 -0.160127 0.190321 -0.278084 0.0833204 0.256572 -0.104498 0.00784776 -0.149019 -0.035841 -0.106864 -0.16485 0.0296608 0.0358296 0.179361 0.0113301 -0.126076 0.0938219 0.212047 0.139753 0.075826 0.128593 0.0505879 0.105931 -0.185601 0.145808 -0.0954971 -0.180025 0.14228 -0.137058 0.0655766 -0.0449225 0.108218 0.0144265 -0.20103 0.176181 0.0318488 0.120097 0.140597 0.234405 -0.231959 0.0114545 0.0730969 -0.0673322 -0.134505 0.173256 0.286336 0.194302 -0.105618 0.112161 0.0115768 -0.188431 0.108385 -0.272492 0.287523 -0.149433 0.190606 -0.0981765 -0.00680429 -0.0278495 0.0703541 0.065371 0.178043 -0.208514 0.186017 0.0384005 -0.153646 0.151785 -0.269786 -0.00973343 -0.0935452 -0.231448 0.0319327 -0.0408276 -0.0297585 0.196397 0.122092 -0.195251 -0.107619 0.161339 -0.144579 0.037534 -0.12483 0.0634325 -0.120838 -0.217767 0.0272974 0.138854 0.0481443 0.0400219 0.222632 0.146857 -0.00989547 -0.182468 0.17321 0.0769266 -0.135117 0.0480926 0.393954 -0.212489 0.128386 0.146484 0.221373
-1395389249 0.00293088 0.0599407 0.095228 0.0432902 -0.0304158 0.0932977 0.0561964 -0.107247 0.0595727 -0.037576 -0.00177676 -0.0509272 -0.0742442 0.013085 0.0834831 0.100696 -0.0706734 -0.0236352 0.225876 -0.0602661 0.176761 0.00626021 -0.214113 -0.0307762 -0.139959 -0.0993013 -0.129371 0.122616 -0.14004 0.0698707 0.119151 -0.020933 0.0305726 -0.129746 0.0484905 -0.0871358 -0.0736837 0.0104563 0.0150354 0.123569 -0.00357357 -0.0556059 0.0766807 0.145 0.108795 0.0891161 0.0802369 0.0755599 0.0893129 -0.0759551 0.0673457 -0.0514788 -0.113826 0.150216 -0.111621 0.00845584 -0.0159883 0.0415676 0.0479019 -0.0541793 0.105552 0.0200185 0.0937086 0.0221015 0.16129 -0.111119 -0.00128228 0.0962215 0.00313783 -0.0350487 0.061671 0.222021 0.140848 -0.0490185 0.0854346 0.0708037 -0.157098 0.0903956 -0.111208 0.182354 -0.0858261 0.12442 -0.0856573 0.0280215 0.0115934 0.115928 0.0353132 0.132371 -0.134927 0.104275 0.00572344 -0.089888 0.136391 -0.163263 0.000555216 -0.00564162 -0.123534 -0.015383 -0.0274127 0.0246699 0.152716 0.0769996 -0.114477 -0.0564972 0.118893 -0.0210164 0.0320341 -0.0534093 0.0462985 -0.00413765 -0.0732829 0.0411743 0.0753581 0.0210673 0.0206629 0.097858 0.124123 -0.0274569 -0.144974 0.105802 0.0548197 -0.091732 0.0421172 0.255238 -0.124601 0.0485803 0.0866366 0.110212
27 0.0944181 0.0931125 0.152323 0.0528165 -0.176117 -0.00995003 0.0614823 -0.215598 0.135992 -0.0182828 0.0270903 -0.0145075 -0.121713 0.0406817 0.112125 0.131287 -0.107196 -0.0824207 0.334108 -0.0872276 0.197555 -0.0264833 -0.281816 -0.0217473 -0.248334 -0.162144 -0.125543 0.187142 -0.296063 0.0814869 0.27126 -0.0742841 0.0122274 -0.15063 -0.012431 -0.118608 -0.0869342 0.0405256 -0.00636657 0.176926 0.0411505 -0.130253 0.0519532 0.214461 0.146658 0.141333 0.0934766 0.0170265 0.0974638 -0.147785 0.161141 -0.0388266 -0.175829 0.0976481 -0.112088 0.0785192 -0.0560863 0.126338 0.0172485 -0.171889 0.130465 -0.0257029 0.155352 0.153866 0.251469 -0.280857 -0.00647043 0.0691693 -0.0743734 -0.115077 0.0836285 0.295112 0.231376 -0.112312 0.16338 -0.00549257 -0.209686 0.0488736 -0.275094 0.351719 -0.144481 0.171795 -0.158796 0.0038086 0.0102243 0.0893289 0.0333645 0.207386 -0.209081 0.172814 0.0196008 -0.173229 0.110423 -0.206127 0.0256645 -0.0908524 -0.208323 0.0759205 -0.0132094 -0.0175766 0.203279 0.0709691 -0.220383 -0.0225357 0.200076 -0.0734907 0.0307594 -0.117955 0.0462265 -0.123013 -0.193293 0.0349735 0.176736 0.0565504 0.00949787 0.234868 0.154675 0.0339633 -0.137114 0.157609 0.0470824 -0.103202 0.082115 0.338717 -0.177453 0.119411 0.147456 0.223081
67 0.121242 0.0688096 0.0910627 0.0396451 -0.200218 -0.0342764 0.0321564 -0.186171 0.183233 0.0170906 0.0778226 0.0123456 -0.147623 -0.00766787 0.116512 0.120491 -0.116158 -0.101981 0.294816 -0.0951236 0.194084 -0.0172061 -0.252244 -5.09314e-06 -0.193347 -0.129626 -0.0880078 0.163825 -0.279491 0.0526406 0.24414 -0.0823154 -0.0169424 -0.0956202 -0.0689274 -0.112489 -0.0758577 0.0364998 -0.0151177 0.158579 0.0933951 -0.0929774 0.0667855 0.154836 0.138083 0.140911 0.0636499 -0.0467027 0.0969299 -0.149549 0.178319 -0.0261596 -0.153639 -0.0149734 -0.0663953 0.0974613 -0.0254743 0.133097 -0.00629513 -0.182488 0.0825457 -0.0658514 0.130245 0.193462 0.275323 -0.340889 0.00949713 0.0293926 -0.130049 -0.147885 0.0152628 0.323698 0.200187 -0.127905 0.176965 -0.0354273 -0.140042 0.0422682 -0.294494 0.352342 -0.0955658 0.187709 -0.151854 -0.0498698 0.0210931 0.0174812 0.0119657 0.201772 -0.248946 0.155388 0.0618726 -0.231799 0.102039 -0.165894 0.0401947 -0.127815 -0.198518 0.126696 0.0354396 -0.0128325 0.19814 0.0699554 -0.208836 0.00348515 0.171947 -0.11116 0.0195863 -0.0688492 -0.0161063 -0.186712 -0.212561 0.0990538 0.2141 0.0549686 0.0285877 0.249493 0.127435 0.0414334 -0.12168 0.154892 0.00444698 -0.0366873 0.116087 0.244005 -0.0940123 0.127807 0.14143 0.224704
66 0.114939 0.0669705 0.079178 0.0484006 -0.196939 -0.0275234 0.0485604 -0.183505 0.220171 0.00897083 0.0885442 -0.000831323 -0.1779 -0.0166409 0.125559 0.114932 -0.13665 -0.102725 0.311469 -0.0916502 0.227504 -0.0344397 -0.28074 0.000508945 -0.184617 -0.144831 -0.105493 0.184805 -0.273864 0.0886561 0.263315 -0.113432 0.00666941 -0.0997629 -0.0706986 -0.111217 -0.113169 0.0465677 0.00298352 0.170964 0.10773 -0.105521 0.105219 0.142274 0.166074 0.152162 0.0689103 -0.0493999 0.11438 -0.153572 0.18073 -0.0164108 -0.163174 -0.0300046 -0.0823523 0.0845143 -0.00905867 0.130555 -0.0098588 -0.213766 0.0806577 -0.0745582 0.152362 0.206323 0.308029 -0.371556 0.0179928 0.0330442 -0.143725 -0.151414 0.0130051 0.379347 0.1871 -0.134871 0.19875 -0.0447403 -0.133035 0.0582086 -0.319456 0.383585 -0.0988851 0.215088 -0.156099 -0.0497153 0.00293399 0.0242593 0.0233284 0.219525 -0.287507 0.173592 0.0826467 -0.264068 0.134272 -0.217892 0.033692 -0.151443 -0.193904 0.130895 0.0387555 -0.0135188 0.222335 0.0920287 -0.233697 -0.00992791 0.195909 -0.13106 0.032971 -0.0595781 -0.0149008 -0.190804 -0.235391 0.121176 0.264433 0.0445487 0.0793189 0.272221 0.141573 0.0198331 -0.150341 0.205584 0.00696901 -0.0509969 0.136812 0.267529 -0.0878814 0.141121 0.159128 0.225486
74 0.0288709 0.0661106 0.110695 0.0904526 -0.0731678 0.0511099 0.114359 -0.130107 0.135572 -0.0541327 0.0212273 -0.0823448 -0.14015 0.0414985 0.0934574 0.0761559 -0.135423 -0.0482627 0.279784 -0.0413616 0.249874 -0.0817969 -0.298656 -0.0174285 -0.156508 -0.157851 -0.149989 0.206789 -0.172362 0.160878 0.233637 -0.129923 0.0783199 -0.15401 0.0203946 -0.0681531 -0.184264 0.0691339 0.0648986 0.177799 0.0309765 -0.116183 0.14703 0.149883 0.170118 0.123798 0.113699 0.0503107 0.117324 -0.113797 0.0799906 -0.0244692 -0.138181 0.0948668 -0.134901 -0.0126825 0.00867715 0.0583172 0.0333362 -0.171571 0.132109 0.0118791 0.159066 0.10451 0.22766 -0.233502 0.00313891 0.0923533 -0.0361993 -0.04856 0.0795614 0.336688 0.136333 -0.0688478 0.150801 0.0377358 -0.152443 0.0885099 -0.204697 0.319235 -0.134917 0.198418 -0.150885 0.0315718 -0.0788287 0.132689 0.0616786 0.186714 -0.232185 0.182677 0.0548152 -0.162776 0.197222 -0.301803 -0.0120424 -0.0846163 -0.140039 0.0216447 -0.0164426 -0.00515124 0.215047 0.13804 -0.228079 -0.0968421 0.193101 -0.0761511 0.069552 -0.0755212 0.0455522 -0.0392125 -0.163672 0.0704911 0.232409 0.00100605 0.137981 0.190208 0.143328 -0.0442596 -0.215462 0.229721 0.0796395 -0.132681 0.104355 0.364283 -0.137074 0.108011 0.157563 0.15434
54 0.119066 0.0675059 0.101518 0.0535119 -0.197635 -0.0392643 0.0438759 -0.191135 0.167016 0.00120471 0.0557576 0.0149687 -0.136515 0.0288919 0.0936213 0.113042 -0.10422 -0.0922464 0.289785 -0.0891629 0.189228 -0.0128541 -0.246009 -0.00352319 -0.209686 -0.129365 -0.0980033 0.161506 -0.27728 0.0563572 0.250479 -0.0896192 -0.0114555 -0.0997147 -0.0711614 -0.101649 -0.0922202 0.0339016 -0.00368576 0.155995 0.0659729 -0.108202 0.0667656 0.162147 0.12975 0.112455 0.0811475 -0.0339152 0.0937845 -0.158343 0.167657 -0.0315774 -0.159884 0.0100407 -0.0764739 0.0949068 -0.0331118 0.12738 -0.00516153 -0.195119 0.0958319 -0.0489337 0.125143 0.185739 0.2478 -0.311139 0.00353531 0.028075 -0.118938 -0.148441 0.0603062 0.291627 0.188289 -0.117058 0.163962 -0.0443213 -0.143731 0.0475743 -0.292462 0.329532 -0.113612 0.172432 -0.131218 -0.0379977 0.00819492 0.0175747 0.0279948 0.185894 -0.222034 0.158798 0.0540678 -0.204952 0.098579 -0.188171 0.0272608 -0.122637 -0.202305 0.105636 0.0152432 -0.0252932 0.186427 0.0735434 -0.199004 -0.0211148 0.170593 -0.128045 0.0262932 -0.0870722 0.0131901 -0.174975 -0.222919 0.0608892 0.199611 0.0601083 0.0262687 0.246301 0.125752 0.0366395 -0.121452 0.161971 0.0222637 -0.0629903 0.0955326 0.271069 -0.123136 0.133996 0.135752 0.217985
53 0.129852 0.068054 0.0981149 0.061198 -0.228649 -0.0477326 0.0419736 -0.191934 0.175645 3.87722e-05 0.0686243 0.0294857 -0.151261 0.0391635 0.0902172 0.108341 -0.12261 -0.0851488 0.288777 -0.0862624 0.215694 -0.010951 -0.278504 -0.00642949 -0.220162 -0.134149 -0.106813 0.1732 -0.288667 0.0649979 0.266136 -0.122339 -0.0158487 -0.100894 -0.0953063 -0.103861 -0.133262 0.0346721 0.010297 0.162291 0.0676517 -0.12295 0.0784472 0.162223 0.126301 0.102417 0.0948066 -0.0367517 0.0888965 -0.185168 0.170579 -0.0503424 -0.163508 -0.00914068 -0.0795397 0.0987179 -0.0329071 0.142529 -0.0225334 -0.227853 0.104799 -0.0430109 0.123746 0.21501 0.266545 -0.344808 0.021135 0.0167179 -0.139419 -0.16591 0.0847409 0.3054 0.181496 -0.12946 0.156793 -0.0623565 -0.132514 0.0599121 -0.330332 0.333962 -0.117099 0.194661 -0.118812 -0.0549752 -0.0163572 -0.00299434 0.0310058 0.181478 -0.246269 0.178361 0.0686884 -0.220426 0.10783 -0.213417 0.0133192 -0.156103 -0.218824 0.113222 0.016404 -0.0417155 0.186975 0.0885715 -0.211413 -0.0373723 0.166164 -0.166207 0.0297976 -0.0995086 0.00905952 -0.206427 -0.262269 0.068313 0.211251 0.0591849 0.0498585 0.27796 0.129229 0.0246587 -0.134764 0.179635 0.0206996 -0.0676727 0.101549 0.28761 -0.135946 0.153798 0.148827 0.23938
