41 128
30 -0.132682 0.159697 -0.104049 0.244114 0.00219275 -0.169758 -0.0675734 0.13822 0.173795 -0.0162058 -0.128318 0.0163964 -0.218397 0.0176453 0.0664601 0.0598151 0.0586499 0.0122199 0.0438703 -0.00671143 0.131273 0.0350568 -0.272249 0.148392 -0.162943 0.0245178 -0.0706912 -0.0963478 -0.158548 0.126309 -0.0150418 0.0824741 -0.122348 -0.104753 -0.12442 -0.0036262 0.00581466 0.263469 -0.175381 -0.236945 -0.233186 0.123539 -0.216102 -0.00272755 0.108033 0.178382 0.0986625 0.27461 -0.0189151 -0.134817 -0.110464 -0.0537971 0.246451 0.107051 -0.163046 -0.0734457 -0.145146 0.015369 0.0136665 0.109375 -0.182865 0.055321 -0.0468779 -0.179577 -0.0291401 -0.110418 -0.223798 0.250509 -0.0206888 0.0807408 -0.0132933 -0.0361048 -0.098187 0.271814 0.143504 0.129307 -0.166225 0.20553 -0.100907 -0.165579 -0.0969837 0.0208977 0.0758649 0.0562249 -0.17243 -0.402586 -0.141567 -0.0890927 0.0418782 0.0749433 -0.215761 -0.0267307 0.0833471 -0.202907 -0.215024 -0.215759 0.0695848 0.140261 -0.225012 0.115295 0.24773 0.10177 0.0998586 0.0764728 -0.0874525 4.23833e-05 -0.17978 0.10903 0.1599 0.112238 -0.216981 0.111701 -0.0441068 0.0274814 0.124935 -0.00623247 -0.187791 -0.0531506 -0.0610998 0.103611 -0.231531 0.252611 0.122575 -0.0621903 -0.0494538 -0.176468 -0.0301381 -0.0499218
23 -0.24097 0.0582745 -0.0314342 0.0942217 -0.0182653 -0.248741 -0.00706035 0.0683403 0.0772917 0.113125 -0.0760841 -0.00769837 -0.218377 -0.0319393 0.135152 0.162473 0.0799274 -0.15452 0.0619523 -0.0335916 0.0784282 -0.0681794 -0.313625 0.254911 -0.10062 0.0684095 -0.125976 -0.14706 -0.189433 0.125931 -0.166806 0.111197 -0.141528 -0.103361 -0.197723 0.134053 0.0480419 0.217599 -0.111458 -0.105248 -0.206035 0.200886 -0.187224 0.100846 0.16037 -0.00236818 0.189504 0.310793 -0.0348764 -0.177399 -0.0255064 0.0213713 0.213924 0.021135 -0.0932942 0.0751447 -0.143614 0.0218771 0.0219609 0.101979 -0.204694 0.042737 -0.084989 -0.181364 0.0208153 -0.220628 -0.175596 0.227477 0.110348 0.165013 0.0242764 0.0233525 -0.0835358 0.200527 0.133266 -0.00468091 -0.152288 0.17605 -0.197618 -0.0996473 -0.127154 0.0617161 0.0607251 0.139595 -0.153747 -0.28511 -0.182457 -0.266107 0.194436 0.0658951 -0.33962 0.0156316 0.0361702 -0.343542 -0.187197 -0.2362 0.062647 0.183121 -0.230844 0.0886379 0.323753 0.0660857 0.172194 -0.105494 0.0550626 0.101556 -0.214358 0.265429 0.176114 0.200305 -0.149902 0.207651 -0.0324273 -0.0653124 0.172969 0.091149 -0.143034 0.013289 0.126015 0.19224 -0.294727 0.135361 0.0914963 0.00844808 0.032069 -0.172161 -0.010157 -0.14396
16 -0.133027 0.194827 -0.11142 0.252215 0.100942 -0.180202 -0.118951 0.199578 0.202781 -0.044469 -0.102728 0.0513874 -0.262535 0.0624452 0.0965373 0.0729566 0.0626681 0.0628152 0.131447 0.0491956 0.169553 0.0481328 -0.324786 0.197789 -0.151235 -0.0413555 -0.0465745 -0.101226 -0.193438 0.137533 0.0397477 0.0589257 -0.0916327 -0.139502 -0.140735 0.00150175 -0.0176565 0.367319 -0.246179 -0.27198 -0.353729 0.0836075 -0.298457 -0.0277855 0.124413 0.266545 0.176925 0.375784 0.0303347 -0.131959 -0.181341 -0.0252207 0.261131 0.172987 -0.227952 -0.116449 -0.163974 0.0184306 0.0135614 0.0540334 -0.269798 0.0669494 -0.0455335 -0.150671 -0.0825078 -0.129977 -0.267706 0.22035 -0.0679026 0.0440988 -0.0224249 -0.0793597 -0.0423673 0.360727 0.170901 0.176002 -0.197612 0.280736 -0.150944 -0.232426 -0.106313 0.0354094 0.018935 -0.0132154 -0.158996 -0.530285 -0.0976744 -0.10863 0.0885217 0.106279 -0.267896 -0.0794984 0.109095 -0.262761 -0.289275 -0.211091 0.0110343 0.210967 -0.27157 0.168147 0.275888 0.0795726 0.0916059 0.115249 -0.148936 -0.0168655 -0.153267 0.17396 0.150874 0.0944677 -0.232367 0.128127 -0.101759 0.0236952 0.163084 -0.0297668 -0.288958 -0.0188338 -0.113607 0.119622 -0.20485 0.335305 0.106054 -0.102017 -0.0808223 -0.272281 -0.0576323 -0.129327
20 -0.200533 0.138667 -0.257118 0.186279 0.118066 -0.234522 -0.00332781 0.115787 0.102492 0.0340302 -0.0645895 0.0837798 -0.299864 -0.0549227 0.07162 -0.00608344 -0.012575 -0.0741508 -0.0506175 0.00114118 0.156642 0.0949019 -0.340387 0.155772 -0.125187 0.0973026 0.0098099 -0.141697 -0.191536 0.183428 0.0576368 -0.015436 -0.166462 -0.197177 -0.16268 0.0536688 0.0235635 0.250491 -0.178133 -0.119577 -0.31308 0.107 -0.255347 0.0900715 0.0784076 0.193582 0.128576 0.257364 0.0546107 -0.13455 -0.178317 0.058891 0.217107 0.106001 -0.082348 0.0460797 -0.193191 -0.103037 0.0273726 0.0809575 -0.251695 0.158758 -0.0724714 -0.1271 0.0569938 -0.140439 -0.249521 0.184516 0.110361 0.0654045 0.0387249 0.0156392 -0.1168 0.212913 0.0777765 0.0858673 -0.127343 0.195582 -0.0738248 -0.160019 -0.052598 0.0933595 0.0377671 0.164064 -0.129243 -0.4175 -0.0925866 -0.0824979 0.0574306 0.0125399 -0.161351 -0.0183685 0.0540289 -0.209981 -0.190594 -0.144841 0.0520399 0.124916 -0.193751 0.114925 0.366921 0.159196 0.136568 -0.0205922 -0.0298187 0.0156625 -0.0716466 0.148934 0.136798 0.0864143 -0.223312 0.236209 -0.0260168 -0.0401173 0.0728711 0.0329989 -0.221071 -0.0588704 0.00615119 0.110104 -0.193729 0.251138 0.0716225 0.00903765 -0.0242572 -0.269551 -0.0209826 -0.0797556
33 -0.139987 0.0237653 -0.269003 0.127757 0.13956 -0.242349 -0.0497442 0.0802776 0.116583 0.0581707 0.0117911 0.0606095 -0.339386 -0.0537334 0.167749 -0.00386541 -0.113993 -0.0763146 0.110005 -0.0448084 0.0785852 -0.0328732 -0.369035 0.24403 -0.097097 0.0245824 -0.0219317 -0.174589 -0.147504 0.174637 -0.0907548 -0.0131 -0.0753396 -0.23622 -0.263528 0.111933 0.107974 0.31309 -0.144437 -0.0537145 -0.321451 0.0323539 -0.378212 0.192227 0.182554 0.125519 0.184266 0.290689 -0.00448166 -0.199665 -0.220728 0.0187917 0.0968855 0.0242252 -0.0745496 0.11414 -0.136832 -0.0916558 -0.0306166 0.0433378 -0.310516 0.187392 -0.105885 -0.109157 -0.0603202 -0.238102 -0.189058 0.139548 0.0504384 0.188753 0.0370382 0.0634866 -0.0751309 0.120375 0.139409 0.0499193 -0.0886993 0.215958 -0.14354 -0.181034 0.0194825 0.116682 -0.09032 0.193296 -0.19709 -0.434116 -0.109755 -0.11541 0.0967957 -0.0189886 -0.227161 -0.0395348 0.0177243 -0.3105 -0.30443 -0.13787 0.015032 0.234961 -0.329527 0.17619 0.409834 0.102983 0.217998 -0.081636 -0.0035538 0.12571 -0.094933 0.177022 0.150734 0.152936 -0.201785 0.29595 -0.0837092 -0.149489 0.1391 0.0841463 -0.261148 -0.0668963 0.0873843 0.165316 -0.173314 0.23398 0.0857655 0.0486953 -0.0135381 -0.276491 -0.0628924 -0.126298
26 -0.178475 0.0894934 -0.199064 0.15138 0.120706 -0.228849 -0.0452803 0.11822 0.120091 0.0410605 -0.0365916 0.0753438 -0.298312 -0.0177153 0.139017 0.0403936 -0.0136436 -0.0575891 0.0662064 0.0079189 0.135865 0.0195114 -0.340108 0.232281 -0.11079 0.0248927 -0.0212208 -0.144579 -0.18381 0.157924 -0.0256177 0.0101496 -0.102404 -0.195413 -0.197311 0.0883499 0.0306597 0.305421 -0.183543 -0.113586 -0.335017 0.0712752 -0.301236 0.0985126 0.12981 0.162943 0.173455 0.320649 0.0345296 -0.157346 -0.185181 0.0368303 0.188204 0.0820328 -0.10933 0.0337562 -0.17095 -0.0638441 0.000308281 0.0493237 -0.279318 0.12566 -0.0746913 -0.127198 -0.0157415 -0.194406 -0.233637 0.169828 0.0467435 0.105398 0.0319859 0.00777759 -0.0768086 0.2129 0.131039 0.0727467 -0.136284 0.224869 -0.144674 -0.174658 -0.0506055 0.0877044 -0.0150605 0.125738 -0.152468 -0.429242 -0.0909775 -0.125131 0.107644 0.0272697 -0.24142 -0.0332734 0.0462824 -0.285367 -0.253232 -0.155256 0.015699 0.200122 -0.256344 0.160781 0.362846 0.109311 0.151699 -0.0241436 -0.0294643 0.0500607 -0.110255 0.189773 0.144344 0.124275 -0.198195 0.236909 -0.0781491 -0.0807073 0.133318 0.0432737 -0.259961 -0.0334041 0.0186843 0.156936 -0.192958 0.249435 0.0748442 0.00351934 -0.0176982 -0.269874 -0.0445379 -0.132791
0 0.297666 -0.341093 -0.853794 0.296454 0.073679 -0.269425 -0.289364 -0.0928256 0.310793 -0.133231 0.157963 0.164401 -0.816077 -0.0961957 0.295748 -0.291361 -0.74182 0.188728 0.407146 -0.433651 -0.0304587 -0.274841 -0.541024 0.377828 -0.29776 -0.184262 -0.0526871 -0.393697 0.0623237 0.29196 -0.472403 -0.102523 0.0527369 -0.652233 -0.518072 0.197593 0.502418 0.456077 0.0250136 -0.0265012 -0.249297 -0.227505 -1.10948 0.543565 0.574594 0.226419 0.07173 0.18516 -0.38113 -0.618432 -0.736667 -0.310733 -0.253563 -0.18718 0.0223912 0.332872 0.0127188 -0.382274 -0.266544 0.0590126 -0.498572 0.444997 -0.402951 -0.162708 -0.428788 -0.440209 -0.116387 0.0981864 -0.148536 0.647044 -0.0259705 0.283981 -0.250835 -0.341799 0.307068 0.208418 0.154891 0.284933 -0.0750463 -0.377053 0.426095 0.284782 -0.387635 0.508082 -0.68762 -0.803806 -0.136894 0.151455 -0.0825527 -0.264559 -0.0958492 0.00297263 0.012949 -0.483204 -0.901107 -0.108909 0.0174503 0.457307 -1.05025 0.43026 0.702879 0.208598 0.653028 -0.0280359 -0.177962 0.416747 -0.0856276 -0.214715 0.313339 0.333744 -0.477278 0.512785 -0.239515 -0.415467 0.110658 0.234349 -0.471793 -0.400778 0.169192 0.173592 -0.211247 0.426272 0.339975 0.189614 -0.0168192 -0.469089 -0.107271 0.0756415
25 -0.20716 0.100481 -0.264034 0.132338 0.158273 -0.235092 0.0276566 0.0930133 0.0699744 0.0908027 -0.0228403 0.0311644 -0.270384 -0.10689 0.117137 -0.0363332 -0.0757884 -0.125031 -0.0159543 0.0105174 0.090015 0.0373087 -0.362152 0.164327 -0.0727483 0.122554 -0.00317392 -0.143734 -0.168122 0.175039 0.0152863 -0.0428468 -0.118561 -0.176485 -0.236491 0.0640088 0.0805479 0.245712 -0.144584 -0.0421921 -0.308307 0.0609422 -0.235531 0.180005 0.0999131 0.125164 0.152345 0.218734 0.0489852 -0.133965 -0.152452 0.0615441 0.112428 0.0409018 -0.0458996 0.111578 -0.174685 -0.098758 0.00264947 0.0678459 -0.249932 0.209108 -0.0659175 -0.0865525 0.0309652 -0.189893 -0.178068 0.149058 0.12166 0.133039 0.0645922 0.0624149 -0.0809874 0.159111 0.076128 0.0202267 -0.0912195 0.185813 -0.0843522 -0.137167 -0.000226011 0.109684 -0.0332656 0.200545 -0.131015 -0.354253 -0.1218 -0.076955 0.0453101 -0.0232251 -0.157875 -0.0483415 2.708e-05 -0.206176 -0.179839 -0.126893 0.0498778 0.152085 -0.184444 0.120962 0.39632 0.128283 0.150854 -0.11317 0.0292063 0.0855605 -0.0650625 0.18198 0.115957 0.104597 -0.183989 0.272747 -0.00468495 -0.107603 0.0980831 0.062418 -0.186598 -0.0703924 0.0728482 0.121122 -0.129845 0.206404 0.0499473 0.0602716 -0.0210258 -0.230057 -0.0504558 -0.111122
24 -0.188301 0.0677206 -0.168127 0.149298 0.0777505 -0.212733 -0.0274314 0.111159 0.166464 0.0430651 -0.0384144 0.0895594 -0.250929 -0.00178397 0.162919 0.0428738 0.0266323 -0.0823208 0.0533972 0.0078949 0.14359 0.0310184 -0.275124 0.222573 -0.0952839 0.00337882 0.0371184 -0.127051 -0.153569 0.154353 -0.0478213 0.0214512 -0.110898 -0.177622 -0.167382 0.0737909 -0.0316354 0.314989 -0.224435 -0.102081 -0.311374 0.0602413 -0.251932 0.0510751 0.102657 0.155389 0.12888 0.338459 0.0363638 -0.126651 -0.146559 0.0287255 0.226837 0.056643 -0.0945219 -0.0288488 -0.150491 -0.0255732 0.00986775 0.039574 -0.215749 0.0745181 -0.0269733 -0.140893 0.00377492 -0.162009 -0.274542 0.208731 -0.0131893 0.0893737 0.0269597 -0.0102573 -0.0960399 0.172907 0.162998 0.0570902 -0.159683 0.190918 -0.12686 -0.159552 -0.0604635 0.0420609 -0.00487121 0.0882907 -0.149341 -0.393706 -0.0851992 -0.0994717 0.0512591 0.0318087 -0.254042 0.012072 0.058434 -0.273009 -0.203216 -0.136072 0.0289348 0.193814 -0.224239 0.162572 0.306928 0.0898324 0.116079 0.00159382 -0.0192502 -0.00572149 -0.152917 0.159281 0.138109 0.10715 -0.169048 0.210493 -0.118184 -0.0839596 0.134229 0.0136726 -0.262255 -0.0102757 -0.00624727 0.201511 -0.168421 0.227999 0.0954038 0.0196615 -0.00048844 -0.209172 -0.0427846 -0.0865815
14 -0.317179 0.192249 -0.160229 0.226533 0.1299 -0.311673 0.0608853 0.117924 0.0626851 0.0921431 -0.0948473 -0.0196976 -0.258778 -0.0766582 0.0597191 0.0549852 -0.015526 -0.0439048 -0.000958401 0.100425 0.137599 0.0293701 -0.461975 0.232985 -0.160546 0.178325 -0.14025 -0.175515 -0.212775 0.0963261 0.0111382 -0.00702469 -0.185649 -0.147912 -0.253411 0.111342 0.174573 0.227203 -0.130939 -0.139735 -0.375598 0.141422 -0.159242 0.20204 0.110176 0.123401 0.211489 0.277663 0.0372364 -0.14043 -0.124961 0.0444329 0.177641 0.109017 -0.154048 0.131887 -0.335174 -0.0985291 0.0415332 0.0675099 -0.26557 0.151509 -0.107944 -0.114503 0.0876893 -0.271461 -0.207449 0.137822 0.144046 0.139678 0.0998214 0.0777003 -0.0739977 0.332661 0.0560031 0.0505481 -0.107343 0.296863 -0.162305 -0.113802 -0.0738113 0.195212 0.119399 0.188634 -0.11453 -0.340702 -0.156023 -0.12369 0.159453 -0.00295384 -0.223853 -0.0628087 -0.0276065 -0.197538 -0.20696 -0.196618 0.0737993 0.12515 -0.166811 0.138327 0.466508 0.150105 0.10447 -0.148949 0.00977605 0.0738212 -0.130552 0.269498 0.14738 0.142021 -0.235461 0.191272 0.0911668 -0.0183531 0.183447 0.040142 -0.135943 -0.0886624 0.0561027 0.107861 -0.207034 0.251551 0.0626169 -0.00713378 0.00589784 -0.237892 -0.0430851 -0.209311
5 -0.188934 0.166167 -0.0848948 0.247993 -0.0520165 -0.227525 -0.0601561 0.134837 0.161063 0.0299699 -0.163812 -0.0261522 -0.25154 -0.0118286 0.0913091 0.116179 0.0894437 -0.0560512 0.0449257 -0.0408628 0.116592 -0.0143691 -0.338931 0.196676 -0.187817 0.0635287 -0.146651 -0.121212 -0.19744 0.160036 -0.102841 0.148817 -0.158635 -0.0910367 -0.172308 0.0245325 0.0377554 0.271998 -0.160954 -0.255887 -0.215702 0.213871 -0.232188 0.0295722 0.162574 0.114875 0.132239 0.301301 -0.0640454 -0.184262 -0.0728437 -0.0678124 0.281632 0.0848007 -0.162604 -0.0322295 -0.158245 0.0394566 0.0216138 0.175385 -0.197591 0.0648072 -0.0741849 -0.234698 -0.0248559 -0.159581 -0.213091 0.325976 0.0360306 0.152154 -0.022008 -0.0192997 -0.132188 0.291208 0.164002 0.103984 -0.190109 0.215862 -0.142452 -0.168988 -0.135222 0.0205848 0.104519 0.113228 -0.217894 -0.418339 -0.220558 -0.187843 0.0932927 0.0951049 -0.299469 -0.0143345 0.0878857 -0.281825 -0.237447 -0.292198 0.109136 0.164592 -0.277745 0.101555 0.300572 0.103257 0.157017 0.0287224 -0.0426507 0.0579267 -0.248637 0.176824 0.213079 0.186239 -0.245728 0.157333 -0.029308 0.0194747 0.165526 0.0431371 -0.168078 -0.0490443 0.0139307 0.133987 -0.331969 0.239326 0.140999 -0.0553201 -0.0460739 -0.183828 -0.0227065 -0.057719
17 -0.168275 0.00239364 -0.248833 0.0990218 0.119728 -0.220185 -0.00232954 0.0674191 0.117999 0.06819 0.0210641 0.112044 -0.275282 -0.0408325 0.169671 -0.0116365 -0.0550076 -0.106144 0.032309 -0.0162775 0.113926 0.024006 -0.278315 0.215793 -0.0699196 0.0263741 0.0727962 -0.151026 -0.133382 0.164243 -0.0531586 -0.0335846 -0.0901917 -0.222033 -0.188978 0.105869 0.0133237 0.276159 -0.177064 -0.00949781 -0.301385 0.0202164 -0.282196 0.125585 0.106186 0.120843 0.117996 0.279795 0.0404111 -0.137145 -0.18562 0.0580026 0.14664 0.0110029 -0.0296267 0.0595713 -0.13663 -0.0940515 -0.00427039 0.0177869 -0.224091 0.125913 -0.0509034 -0.105246 0.0160337 -0.187468 -0.243157 0.148013 0.0331919 0.114862 0.0555175 0.0374345 -0.104137 0.07328 0.133864 0.0199964 -0.100135 0.159365 -0.0982816 -0.138673 0.00566882 0.0746478 -0.0520755 0.150535 -0.140396 -0.349346 -0.0536371 -0.0702393 0.0449623 -0.0237018 -0.198486 0.0205134 0.0232354 -0.26084 -0.198212 -0.0822379 0.00963388 0.191191 -0.225666 0.162388 0.34414 0.105506 0.152345 -0.0564518 0.0200032 0.0340983 -0.0894509 0.135407 0.117692 0.101834 -0.15152 0.265105 -0.110231 -0.139315 0.09642 0.0450763 -0.252078 -0.0325993 0.0467717 0.194498 -0.122469 0.190569 0.0742197 0.0793522 0.0267112 -0.225564 -0.0429328 -0.0839264
1072693248 -0.101554 -0.158055 -0.367382 -0.0616527 0.260664 -0.236673 -0.0223764 -0.020399 0.0158803 0.133203 0.182036 0.111316 -0.371876 -0.101707 0.263726 -0.0718842 -0.281359 -0.156125 0.172841 -0.0713398 0.000765255 -0.101156 -0.358204 0.305688 0.0218296 -0.0066193 0.0536867 -0.218875 -0.0909865 0.16758 -0.163367 -0.131842 0.0216354 -0.327258 -0.336965 0.223746 0.173758 0.284697 -0.0694438 0.179195 -0.340435 -0.103491 -0.453578 0.354089 0.217158 0.0322632 0.231885 0.239028 0.0168853 -0.218946 -0.29701 0.10388 -0.106567 -0.0838285 0.0584507 0.287014 -0.0758343 -0.185685 -0.0848147 -0.0692076 -0.363109 0.265902 -0.13572 0.0121099 -0.0920132 -0.327294 -0.0981473 -0.0285864 0.103509 0.264758 0.0866799 0.150742 -0.0189451 -0.106369 0.113169 -0.0550198 0.0272019 0.170744 -0.159983 -0.145176 0.153461 0.187544 -0.266726 0.275958 -0.171437 -0.33484 -0.0187006 -0.0956622 0.123667 -0.121548 -0.189829 -0.0309262 -0.0651923 -0.356633 -0.329085 -0.000469046 -0.069635 0.294861 -0.358544 0.219093 0.471412 0.0737222 0.29248 -0.231259 0.0872778 0.226148 0.0289852 0.202304 0.0870681 0.159182 -0.117919 0.418119 -0.127865 -0.311598 0.112587 0.16354 -0.291449 -0.0523524 0.211484 0.203492 -0.0433471 0.14734 0.0276029 0.172281 0.0474662 -0.312273 -0.0859571 -0.191601
27 -0.16301 0.105381 -0.307135 0.177494 0.114579 -0.223822 0.000849437 0.0888651 0.100262 0.0576255 -0.0535832 0.0650276 -0.304792 -0.0858576 0.109493 -0.052746 -0.0672231 -0.0879217 -0.0459846 -0.034394 0.121469 0.0740781 -0.32559 0.14481 -0.115305 0.101738 0.0164818 -0.132779 -0.172323 0.201264 0.0214342 -0.0244931 -0.127935 -0.190426 -0.199247 0.0302337 0.0522828 0.260689 -0.167947 -0.0815957 -0.285243 0.0638951 -0.266776 0.139962 0.0875102 0.163069 0.0916624 0.205575 0.0352085 -0.146344 -0.191498 0.018587 0.16375 0.0460671 -0.0398389 0.0618442 -0.156844 -0.10707 -0.00427477 0.110339 -0.233617 0.197064 -0.0650229 -0.129849 0.0234361 -0.153722 -0.212837 0.210573 0.0902782 0.115724 0.0517351 0.0423866 -0.133212 0.140181 0.0972307 0.0703794 -0.0984419 0.179881 -0.044416 -0.161755 -0.0026184 0.0698415 -0.00884679 0.210459 -0.162893 -0.400588 -0.114645 -0.0350751 -0.00858268 -0.0150427 -0.137977 -0.0203039 0.0272256 -0.19134 -0.194755 -0.130975 0.0699434 0.142641 -0.215459 0.121222 0.374688 0.160749 0.164994 -0.0336084 -0.00888556 0.0478974 -0.0802975 0.107162 0.13181 0.097772 -0.216661 0.261363 -0.0306226 -0.0792101 0.0685571 0.0561742 -0.212542 -0.0945255 0.0247893 0.11467 -0.156753 0.242884 0.0774944 0.0471623 -0.042546 -0.226543 -0.0396224 -0.0390276
19 -0.12126 0.0868726 -0.216977 0.174296 0.0868296 -0.192487 -0.0685737 0.116833 0.153668 0.00714525 -0.0397358 0.0704608 -0.283799 -0.013907 0.131999 0.00975916 -0.0288477 -0.0369863 0.0677098 -0.0231321 0.121576 0.0233626 -0.297365 0.190172 -0.115227 0.00362452 0.000349896 -0.132966 -0.14688 0.165001 -0.0247746 0.0160701 -0.0910015 -0.187231 -0.177137 0.0477083 0.0196686 0.307301 -0.182935 -0.132047 -0.28886 0.0545705 -0.314773 0.0669315 0.130188 0.179739 0.13159 0.284984 0.0109882 -0.154219 -0.1917 -0.00128974 0.173325 0.0738736 -0.102932 -0.00527268 -0.1244 -0.0511353 -0.00850174 0.0584456 -0.249102 0.122301 -0.0652069 -0.132917 -0.0437409 -0.154707 -0.225621 0.189095 -0.00348407 0.108141 0.00806172 -0.00612105 -0.0871027 0.172188 0.147455 0.0954679 -0.129775 0.193935 -0.101017 -0.187368 -0.02658 0.0547687 -0.028636 0.106312 -0.175103 -0.442465 -0.0913934 -0.0792259 0.0437566 0.029106 -0.206353 -0.025259 0.0692453 -0.259471 -0.249916 -0.148952 0.0299008 0.191814 -0.275212 0.15164 0.313589 0.0998744 0.154096 0.0214076 -0.0595696 0.0407581 -0.111138 0.129255 0.142733 0.111246 -0.206492 0.215656 -0.0976942 -0.0682544 0.108116 0.0306692 -0.254442 -0.0481249 -0.00763339 0.142106 -0.180348 0.252907 0.102556 0.00452131 -0.0389144 -0.242048 -0.0482005 -0.0737094
11 -0.0981932 0.174177 -0.253746 0.280497 0.0740093 -0.210197 -0.0449412 0.0766564 0.0528822 -0.0183287 -0.129815 -0.0427805 -0.312511 -0.0675071 -0.0127831 -0.0338757 -0.142704 0.118128 0.0243679 -0.015398 0.0970852 0.022176 -0.399506 0.137822 -0.221826 0.127548 -0.210952 -0.1423 -0.158709 0.0991661 0.0186539 -0.0143592 -0.1247 -0.143787 -0.210451 0.0184356 0.26108 0.165316 -0.025596 -0.214698 -0.235827 0.0893145 -0.264213 0.214224 0.143077 0.170156 0.117805 0.10154 -0.0585554 -0.196017 -0.227919 -0.0997675 0.0661674 0.104814 -0.141109 0.133229 -0.241862 -0.139367 -0.0214116 0.132292 -0.25274 0.203912 -0.166715 -0.112361 -0.0297491 -0.196138 -0.0873454 0.125709 0.108188 0.173293 0.0480491 0.0769699 -0.0899695 0.259313 0.0403785 0.160818 -0.014702 0.287045 -0.063415 -0.155477 0.00351484 0.173842 0.0843489 0.221729 -0.191605 -0.379312 -0.154996 -0.00295389 0.0672187 -0.0301053 -0.0692684 -0.0934021 -0.0110257 -0.0997108 -0.30673 -0.183088 0.0868514 0.0963277 -0.28136 0.118838 0.392053 0.180513 0.163318 -0.0313669 -0.112534 0.115971 -0.0685757 0.0680628 0.139812 0.123894 -0.301678 0.12918 0.10881 0.032882 0.101572 0.0615203 -0.109558 -0.192235 -0.00630554 -0.0329406 -0.185531 0.291344 0.0909765 -0.0551266 -0.0875942 -0.228007 -0.0300658 -0.0959383
15 -0.243047 0.205093 -0.277426 0.173771 0.119724 -0.256639 0.0282414 0.109241 0.0132514 0.0959416 -0.118528 -0.012762 -0.301185 -0.155333 0.0326748 -0.0156405 -0.0236694 -0.164623 -0.130459 -0.0364608 0.102721 0.0899955 -0.412411 0.0950631 -0.118179 0.226292 -0.0888271 -0.131481 -0.250544 0.227932 0.0782392 0.00506048 -0.199596 -0.12937 -0.220759 0.0110428 0.0909814 0.18355 -0.109892 -0.128807 -0.251123 0.196499 -0.209875 0.169947 0.0832904 0.125436 0.14304 0.162877 0.0377569 -0.15907 -0.110149 0.0561984 0.17593 0.08391 -0.0450023 0.144632 -0.18799 -0.0891142 0.025031 0.187751 -0.258046 0.258527 -0.0995501 -0.147243 0.0763996 -0.143806 -0.153209 0.244161 0.268573 0.123756 0.0461445 0.0527508 -0.117517 0.248126 0.0215828 0.0532032 -0.110853 0.187527 -0.0516606 -0.139756 -0.0686336 0.0985762 0.056351 0.272327 -0.139342 -0.387438 -0.210981 -0.136901 0.0602652 0.0141937 -0.138334 -0.0693758 0.0230575 -0.18579 -0.152052 -0.220716 0.112703 0.0921273 -0.162865 0.0405817 0.427538 0.194132 0.184414 -0.106699 0.0235492 0.111487 -0.0673544 0.197611 0.144872 0.118005 -0.245112 0.280603 0.0869892 -0.0327027 0.0508958 0.0922243 -0.120783 -0.0906906 0.0889865 0.0482522 -0.236122 0.220954 0.0493655 0.0156626 -0.0731552 -0.245824 -0.0115217 -0.0878268
21 -0.245032 0.181537 -0.130221 0.123515 0.152249 -0.261112 -0.00285346 0.0815572 -0.047901 0.054213 -0.0881385 0.0327431 -0.285571 -0.0264528 -0.000653062 0.104042 0.0142667 -0.00739026 -0.0145082 0.057063 0.160494 0.0859696 -0.384496 0.201941 -0.142131 0.130597 -0.164324 -0.138613 -0.259103 0.0863548 0.0815724 -0.0136978 -0.162903 -0.14152 -0.155095 0.122532 0.131681 0.150118 -0.0779732 -0.138728 -0.320273 0.160013 -0.185109 0.154371 0.0734936 0.128771 0.226834 0.22415 0.0846059 -0.127908 -0.163122 0.0932167 0.180903 0.163473 -0.131466 0.167216 -0.274649 -0.119453 0.0405126 0.0596658 -0.303716 0.130633 -0.14301 -0.0864797 0.0802625 -0.206797 -0.154642 0.0727329 0.240756 0.0447032 0.0830972 0.0309547 -0.0286023 0.330455 -0.00600072 0.0992569 -0.0749702 0.278937 -0.161141 -0.115536 -0.117903 0.179155 0.122372 0.17051 -0.0410611 -0.323553 -0.0714557 -0.177829 0.254498 0.0274257 -0.17868 -0.0699163 -0.00493589 -0.199775 -0.213215 -0.160238 0.0124549 0.10264 -0.154944 0.0822836 0.395037 0.155825 0.126405 -0.0918643 -0.0377059 0.0591111 -0.0161839 0.259147 0.10074 0.104004 -0.216742 0.173547 0.0802393 0.029873 0.104893 0.069715 -0.156036 -0.0310421 0.032892 0.0362724 -0.218233 0.228976 -0.00749753 -0.0666309 -0.0278168 -0.300476 -0.00391657 -0.243946
13 -0.145441 0.216255 -0.21689 0.211535 0.149298 -0.184347 -0.0600062 0.173925 0.0998098 0.000741288 -0.103048 0.0358904 -0.280007 -0.021805 0.0525159 -0.00584811 0.0114045 -0.0221759 -0.00299041 0.0130653 0.140827 0.106503 -0.337985 0.121674 -0.123926 0.0718353 -0.0339613 -0.0988915 -0.214081 0.187219 0.114045 0.0118456 -0.11044 -0.139215 -0.15779 -0.0226942 0.0137848 0.290399 -0.198115 -0.202298 -0.322472 0.100306 -0.269824 0.040167 0.0738711 0.238492 0.156376 0.246553 0.0659789 -0.114749 -0.183242 0.0241488 0.212041 0.153246 -0.140764 -0.0139588 -0.16077 -0.0419845 0.0102989 0.109311 -0.282617 0.174484 -0.0556727 -0.113894 -0.0230681 -0.0996649 -0.196712 0.202607 0.0797511 0.0449401 -0.00205134 -0.0333813 -0.0665601 0.306034 0.0867764 0.138301 -0.148363 0.231137 -0.0802899 -0.206938 -0.0724391 0.0465086 0.00737978 0.106563 -0.12454 -0.484213 -0.111693 -0.0860468 0.0515844 0.07092 -0.15936 -0.0933751 0.0734936 -0.188209 -0.221095 -0.175673 0.0461188 0.143676 -0.20938 0.101425 0.311677 0.136945 0.117533 0.0485462 -0.0887425 0.0223976 -0.0617735 0.157818 0.116491 0.0726936 -0.237813 0.199066 -0.0319213 0.0154819 0.0784292 0.0214786 -0.235107 -0.0490837 -0.051767 0.0472425 -0.18621 0.29445 0.0488661 -0.0518787 -0.109086 -0.280101 -0.0444159 -0.0922761
22 -0.2771 0.202918 -0.189374 0.402758 0.0353037 -0.277334 0.0474897 0.162635 0.273962 0.0518845 -0.163417 -0.0388094 -0.211829 -0.0552861 0.156491 -0.0219694 0.00282129 0.0626173 0.0347175 0.111991 0.18789 0.0401028 -0.396038 0.231737 -0.227328 0.122857 -0.0684594 -0.132967 -0.146757 0.10983 -0.0209155 0.00998716 -0.159834 -0.104425 -0.250968 -0.0162822 0.121706 0.370037 -0.256875 -0.23173 -0.376061 0.0367506 -0.11728 0.133271 0.0921576 0.214942 0.0505593 0.313766 -0.00774261 -0.131627 -0.146416 -0.121132 0.25403 0.0641984 -0.193476 -0.0924741 -0.343712 -0.028638 0.0162567 0.124395 -0.139859 0.083373 0.00217486 -0.20907 0.0420899 -0.245301 -0.327819 0.323986 -0.125068 0.156733 0.112927 0.0305969 -0.166452 0.319575 0.211564 0.114049 -0.17707 0.326957 -0.0838643 -0.162742 -0.0435063 0.0795779 0.129481 0.113809 -0.227813 -0.403227 -0.201875 0.0783467 -0.0960593 -0.0218266 -0.229526 -0.0171983 -0.0151924 -0.113852 -0.20835 -0.207252 0.142409 0.178225 -0.191077 0.236271 0.40586 0.152247 0.034207 -0.00867227 -0.0683426 -0.0415625 -0.295233 0.0997736 0.182263 0.116419 -0.271865 0.0935055 0.0163202 -0.00543821 0.236086 -0.056058 -0.191123 -0.176706 -0.109733 0.193796 -0.12333 0.359547 0.172008 0.00318733 -0.0297033 -0.0855389 -0.0885362 -0.0587371
31 -0.11838 0.109845 -0.210258 0.224004 0.0568424 -0.198482 -0.0584966 0.102729 0.135848 -0.00505419 -0.0797864 0.0321929 -0.283112 -0.0193964 0.0806509 0.00234443 -0.0477566 0.0184142 0.0480827 -0.0212897 0.120851 0.02364 -0.317189 0.167881 -0.164773 0.0377313 -0.0649862 -0.132084 -0.145909 0.13803 -0.0206782 0.019714 -0.111543 -0.166145 -0.177577 0.0338154 0.0848688 0.257129 -0.139602 -0.173914 -0.255972 0.0706992 -0.276329 0.101588 0.134151 0.176004 0.109873 0.232869 -0.020459 -0.165877 -0.18478 -0.0410384 0.163672 0.0812363 -0.116337 0.0175532 -0.165975 -0.0681538 -0.00721512 0.0901372 -0.223193 0.123917 -0.0928409 -0.145168 -0.0290068 -0.158741 -0.194542 0.187931 0.0238116 0.126369 0.0176418 0.0193907 -0.104007 0.204174 0.121739 0.118296 -0.105586 0.218419 -0.0877432 -0.165589 -0.028103 0.0850888 0.0329289 0.134111 -0.186483 -0.407325 -0.114711 -0.0491577 0.0411435 0.0118311 -0.167241 -0.0326752 0.0471796 -0.199855 -0.256143 -0.166328 0.0551087 0.157956 -0.265742 0.13876 0.326281 0.126503 0.147019 0.0170378 -0.0793079 0.0454306 -0.11824 0.0996971 0.146047 0.113117 -0.234689 0.169971 -0.0328285 -0.0252102 0.113878 0.0270113 -0.201663 -0.0944265 -0.0208942 0.0888215 -0.187701 0.263952 0.108633 -0.0234926 -0.0442227 -0.21372 -0.0394604 -0.0643802
32 -0.26676 0.230475 -0.229489 0.364542 0.0968091 -0.277326 0.0460674 0.15474 0.179887 0.0719553 -0.162639 -0.0683723 -0.242445 -0.0949809 0.114007 -0.0409893 -0.0460532 0.0468613 0.00663467 0.0968285 0.163011 0.0570649 -0.44632 0.200875 -0.213419 0.171474 -0.122145 -0.134853 -0.182857 0.127914 0.0312439 -0.0213793 -0.158358 -0.0989373 -0.272953 -0.0199719 0.182814 0.325007 -0.197198 -0.216146 -0.371545 0.0528462 -0.136643 0.200287 0.0924706 0.202939 0.0938277 0.241923 0.00835324 -0.138826 -0.167279 -0.0936429 0.186341 0.0836351 -0.172412 0.00057381 -0.34124 -0.065429 0.00142235 0.147802 -0.20025 0.16744 -0.0413237 -0.173064 0.0377729 -0.252319 -0.246161 0.280277 -0.00697944 0.166007 0.121013 0.0547059 -0.132169 0.335506 0.144084 0.118484 -0.130971 0.33803 -0.0811417 -0.165085 -0.0293034 0.115612 0.102615 0.176948 -0.205205 -0.405341 -0.211638 0.0540013 -0.0534908 -0.0316165 -0.178983 -0.0691605 -0.0375324 -0.0984691 -0.222746 -0.209956 0.140025 0.160807 -0.191931 0.194773 0.447147 0.178637 0.0744497 -0.0561528 -0.0635761 0.0275274 -0.217686 0.130112 0.159148 0.117223 -0.283844 0.135751 0.0788514 -0.000421293 0.199919 -0.00909542 -0.160236 -0.192057 -0.0626304 0.117596 -0.122441 0.357528 0.12023 -0.00317752 -0.0690074 -0.133889 -0.0866367 -0.105076
28 -0.25012 0.279404 -0.279668 0.364799 0.0835219 -0.283216 0.0241958 0.161072 0.140684 0.0432615 -0.193857 -0.0511501 -0.30074 -0.121298 0.0340895 -0.0450237 -0.0368247 -0.000315895 -0.0789043 0.0301424 0.161358 0.102228 -0.470901 0.132225 -0.230977 0.217569 -0.136598 -0.136597 -0.224806 0.18695 0.0852165 0.00669461 -0.211559 -0.121001 -0.245869 -0.0410075 0.16079 0.26972 -0.167673 -0.25378 -0.324563 0.143647 -0.190408 0.169265 0.0918664 0.221957 0.100931 0.202899 5.13403e-05 -0.169508 -0.163054 -0.0663982 0.224682 0.118535 -0.151193 0.0380778 -0.303885 -0.0848989 0.0150096 0.207735 -0.232633 0.218107 -0.0877036 -0.192645 0.0544435 -0.189539 -0.228556 0.303348 0.110963 0.149015 0.0767124 0.0476111 -0.158173 0.356669 0.0882725 0.139112 -0.13625 0.299596 -0.0481196 -0.1827 -0.059983 0.115645 0.129095 0.231349 -0.209077 -0.466006 -0.242232 -0.00400615 -0.0281071 -0.00240356 -0.141593 -0.0806393 0.00967432 -0.117546 -0.219671 -0.257059 0.159748 0.108599 -0.206574 0.127732 0.45926 0.223364 0.122868 -0.0345651 -0.0715288 0.0481613 -0.16969 0.126832 0.17818 0.122845 -0.32693 0.179344 0.108869 0.0361695 0.130403 0.0229806 -0.144209 -0.187081 -0.0347626 0.0535049 -0.215622 0.349231 0.116462 -0.0260456 -0.0980907 -0.203288 -0.0511976 -0.0696443
536870912 -0.0972321 -0.139781 -0.285569 -0.0838934 0.233086 -0.222218 -0.0398963 -0.0186228 -0.0105078 0.111663 0.167539 0.103223 -0.342098 -0.0626907 0.23013 -0.0132603 -0.224558 -0.13262 0.181933 -0.0541151 0.00644554 -0.106512 -0.324114 0.299705 0.0188991 -0.0297409 0.0186515 -0.20084 -0.103549 0.126754 -0.162738 -0.106588 0.0234578 -0.286813 -0.293905 0.231362 0.156517 0.255826 -0.0560089 0.152447 -0.311712 -0.0711104 -0.421453 0.303491 0.205231 0.0176783 0.24498 0.240649 0.0266193 -0.197163 -0.266801 0.110332 -0.088185 -0.0539335 0.029549 0.265366 -0.0698999 -0.160109 -0.0714174 -0.075022 -0.351341 0.207284 -0.13649 0.0126816 -0.0912004 -0.304948 -0.077724 -0.0515058 0.105259 0.220478 0.0763013 0.124505 0.0113441 -0.0598391 0.0981028 -0.0417127 0.0198058 0.170035 -0.180787 -0.12558 0.109313 0.181302 -0.223806 0.227397 -0.132827 -0.305803 -0.00101557 -0.140218 0.181512 -0.0802395 -0.199869 -0.0389657 -0.0486949 -0.353619 -0.311308 -0.00567859 -0.082058 0.27298 -0.331209 0.188478 0.416968 0.0486133 0.264795 -0.204123 0.0730814 0.212052 0.0293067 0.222231 0.0735813 0.150673 -0.101251 0.365731 -0.123946 -0.267521 0.111006 0.15185 -0.270417 -0.0132582 0.19123 0.182789 -0.0624857 0.127148 0.0072373 0.132535 0.0436715 -0.308354 -0.0714964 -0.218353
2 -0.193576 0.208741 -0.186691 0.271801 -0.0362179 -0.229996 -0.0299448 0.130428 0.118112 0.0363716 -0.187055 -0.0299396 -0.281523 -0.0756925 0.0381472 0.04538 0.0522959 -0.0892723 -0.0710253 -0.0742934 0.118302 0.044922 -0.360568 0.123774 -0.201698 0.150008 -0.138186 -0.124556 -0.219455 0.212315 -0.0248705 0.116585 -0.205684 -0.101833 -0.176984 -0.0129162 0.0587386 0.22067 -0.141508 -0.252354 -0.19003 0.235441 -0.227321 0.0595538 0.126828 0.138773 0.0959883 0.211757 -0.0553752 -0.188418 -0.0867616 -0.0558893 0.270504 0.0899503 -0.114778 0.0176714 -0.163903 -0.0150235 0.0186627 0.232633 -0.20478 0.145165 -0.092857 -0.23544 0.0211906 -0.124416 -0.1927 0.350104 0.130275 0.142582 -0.00825058 0.00328967 -0.169873 0.2843 0.104753 0.106698 -0.16462 0.196704 -0.0721169 -0.163319 -0.119706 0.0260099 0.11859 0.1996 -0.220152 -0.427372 -0.250621 -0.146437 0.0380383 0.0692196 -0.210201 -0.0267007 0.0837641 -0.218152 -0.199837 -0.293324 0.151384 0.104924 -0.248642 0.0580746 0.342253 0.165324 0.172215 0.00968789 -0.0339859 0.0668677 -0.203716 0.130379 0.202963 0.165761 -0.281318 0.194605 0.0310517 0.0325389 0.0968194 0.0599624 -0.130882 -0.0978019 0.0309454 0.075279 -0.333421 0.244216 0.127833 -0.0358535 -0.0743473 -0.196367 -0.00530317 -0.0128126
9 -0.158111 0.237114 -0.243157 0.334178 0.070899 -0.239039 -0.00966784 0.104795 0.0735705 -0.00477946 -0.173308 -0.0631677 -0.296813 -0.0792307 -0.02579 -0.0339298 -0.0986079 0.115509 -0.0249339 0.0149503 0.130407 0.0632289 -0.431475 0.126119 -0.246437 0.176352 -0.220948 -0.136961 -0.183404 0.110088 0.063372 -0.00755443 -0.165999 -0.119854 -0.210675 -0.00793895 0.253646 0.178802 -0.0611409 -0.247667 -0.261053 0.117023 -0.202898 0.200792 0.113711 0.193227 0.101575 0.113775 -0.0386638 -0.180477 -0.204827 -0.0963995 0.127994 0.126617 -0.158676 0.104946 -0.296375 -0.129125 -0.00458009 0.167996 -0.234941 0.194416 -0.14812 -0.144849 0.0182322 -0.196045 -0.128064 0.179198 0.118391 0.150727 0.0703544 0.0679762 -0.113629 0.324126 0.0369525 0.172879 -0.0462503 0.307626 -0.058195 -0.153641 -0.035627 0.162423 0.136726 0.221526 -0.182858 -0.3871 -0.187263 0.0120477 0.039865 -0.0206061 -0.0781517 -0.0965391 -0.0181273 -0.06971 -0.269583 -0.209683 0.118034 0.0828996 -0.233107 0.112367 0.415683 0.205404 0.132816 -0.0337363 -0.113637 0.079209 -0.103118 0.0812799 0.145103 0.118307 -0.319415 0.107119 0.144556 0.069674 0.112646 0.0391465 -0.0998148 -0.202136 -0.0330386 -0.0291005 -0.194788 0.316255 0.0897847 -0.0674968 -0.09252 -0.20615 -0.031852 -0.0911451
12 -0.149949 0.203665 -0.232451 0.291192 0.0660843 -0.223039 -0.0227511 0.0993028 0.0683838 -0.0056456 -0.148064 -0.0342892 -0.292401 -0.071535 -0.015449 -0.0203976 -0.07818 0.0741264 -0.0250574 -0.00863825 0.126796 0.0578616 -0.397143 0.123383 -0.220957 0.152234 -0.18099 -0.131705 -0.179649 0.120974 0.0529884 0.00372601 -0.162396 -0.128875 -0.19364 0.00165452 0.198547 0.176984 -0.0715132 -0.226581 -0.239325 0.125545 -0.215716 0.16851 0.114519 0.182026 0.104724 0.134532 -0.0279383 -0.176048 -0.188851 -0.0722901 0.14377 0.115182 -0.137676 0.0934457 -0.249003 -0.115854 0.00011956 0.155527 -0.227677 0.179734 -0.136398 -0.143217 0.0152227 -0.173902 -0.140181 0.18346 0.12125 0.132854 0.0516214 0.0544465 -0.113074 0.288795 0.039481 0.155701 -0.0648298 0.27233 -0.0555958 -0.149224 -0.0362256 0.138237 0.112566 0.20861 -0.175227 -0.385293 -0.167991 -0.0198929 0.0519667 -0.00786766 -0.0886358 -0.0737288 0.00335455 -0.103902 -0.255487 -0.206817 0.104822 0.0792633 -0.235687 0.103368 0.387155 0.187862 0.141862 -0.0234956 -0.0950653 0.0746547 -0.0912047 0.0854453 0.147224 0.112256 -0.297289 0.130307 0.103564 0.0450591 0.0943577 0.0462516 -0.113092 -0.162941 -0.0184896 -0.0112409 -0.209669 0.290368 0.0911427 -0.0544326 -0.0776468 -0.214934 -0.0257963 -0.0841601
3 -0.170257 0.256185 -0.270369 0.292738 0.0331436 -0.233951 -0.047069 0.152105 0.0906931 0.0150417 -0.198819 -0.0253501 -0.340575 -0.0995249 -0.00396956 -0.0011838 0.00543766 -0.069294 -0.103381 -0.0847697 0.129486 0.0956441 -0.416572 0.0840017 -0.209089 0.180327 -0.144252 -0.121468 -0.253246 0.24877 0.0639768 0.0793818 -0.207771 -0.123559 -0.190724 -0.0491831 0.0813022 0.224505 -0.130539 -0.275049 -0.219153 0.233102 -0.28077 0.0888157 0.119212 0.199554 0.113694 0.178013 -0.0272835 -0.201692 -0.13962 -0.0484681 0.255547 0.130203 -0.120215 0.0468148 -0.169051 -0.0526466 0.016244 0.255572 -0.259077 0.228034 -0.121418 -0.213864 0.0127166 -0.1049 -0.175162 0.334302 0.194931 0.130134 -0.0163321 0.00442235 -0.161445 0.321884 0.0649312 0.146734 -0.1489 0.22004 -0.0431285 -0.203273 -0.103091 0.0514934 0.0995028 0.237097 -0.21599 -0.50583 -0.252372 -0.129274 0.0341707 0.0680282 -0.154902 -0.0694805 0.0841474 -0.195459 -0.230493 -0.298059 0.148278 0.094545 -0.263995 0.0432945 0.387391 0.209799 0.197002 0.0237639 -0.0735067 0.090103 -0.132489 0.123883 0.196637 0.141373 -0.325889 0.228656 0.0638725 0.0491495 0.0600408 0.071601 -0.152467 -0.121455 0.0132213 0.0129771 -0.327695 0.293751 0.11063 -0.054083 -0.121033 -0.26262 -0.00844544 -0.0219392
6 -0.141009 0.164464 -0.120101 0.261676 -0.0531332 -0.201258 -0.0834742 0.137725 0.175641 -0.000311173 -0.16491 -0.0154749 -0.261656 -0.0180532 0.074672 0.0780972 0.0652375 -0.0421411 0.0292431 -0.0673602 0.109878 0.00355008 -0.318855 0.158923 -0.190325 0.0499697 -0.121359 -0.111249 -0.180839 0.184064 -0.0749461 0.140592 -0.152215 -0.102268 -0.15694 -0.00273311 0.0274603 0.27238 -0.163474 -0.268665 -0.187287 0.195847 -0.264656 0.00716872 0.159849 0.147187 0.108238 0.270034 -0.0749984 -0.187735 -0.0938975 -0.0876274 0.26844 0.0851183 -0.151538 -0.0552855 -0.12426 0.0294677 0.0111448 0.185314 -0.201104 0.0860686 -0.0765242 -0.231665 -0.042322 -0.116999 -0.204121 0.335595 0.0285639 0.144236 -0.0432975 -0.0244639 -0.1395 0.270977 0.157091 0.121085 -0.182794 0.195882 -0.107703 -0.186316 -0.114096 -0.000750546 0.0772414 0.115389 -0.236433 -0.448462 -0.220052 -0.157987 0.051415 0.0961454 -0.255773 -0.0245409 0.103732 -0.262702 -0.241487 -0.287158 0.116068 0.154317 -0.296505 0.0916149 0.279242 0.114592 0.162147 0.0633207 -0.0667189 0.0527034 -0.229344 0.125102 0.207685 0.170614 -0.257451 0.158238 -0.0386549 0.0268431 0.129653 0.0419152 -0.174776 -0.0669302 -0.00305144 0.106115 -0.320409 0.249173 0.14937 -0.059811 -0.0702326 -0.185658 -0.021693 -0.0189464
4 -0.167387 0.215529 -0.303679 0.404976 0.0598627 -0.271207 -0.0108514 0.125797 0.162633 -0.00320964 -0.169863 -0.0796112 -0.33025 -0.0938397 0.035487 -0.0654617 -0.148715 0.126781 0.029384 0.0163351 0.132359 0.0188919 -0.493696 0.177491 -0.281776 0.167728 -0.203936 -0.169923 -0.158298 0.127296 -0.00581161 -0.0034461 -0.159344 -0.152551 -0.287952 -0.0124841 0.287676 0.266867 -0.102983 -0.268657 -0.310733 0.0747601 -0.256563 0.244034 0.170436 0.218595 0.0972643 0.167427 -0.0865579 -0.226046 -0.24202 -0.153967 0.125253 0.0941774 -0.182843 0.0807236 -0.315006 -0.128352 -0.02377 0.171345 -0.2395 0.222491 -0.14636 -0.172434 -0.0190842 -0.256718 -0.174326 0.236123 0.0336924 0.233332 0.0748172 0.0931985 -0.150351 0.311841 0.112094 0.171391 -0.0656364 0.34338 -0.0622965 -0.18968 0.00650047 0.175273 0.110094 0.244037 -0.271007 -0.458702 -0.234937 0.0560922 -0.0198498 -0.0489088 -0.117515 -0.0888237 -0.0203569 -0.100873 -0.336417 -0.238845 0.146033 0.141455 -0.314451 0.18617 0.480927 0.207883 0.1603 -0.0345246 -0.119567 0.0994363 -0.181289 0.0681383 0.194633 0.152484 -0.360504 0.141929 0.117468 0.0181242 0.170087 0.0275535 -0.139976 -0.249598 -0.0351815 0.0358704 -0.191287 0.375183 0.156852 -0.0331218 -0.0834176 -0.200935 -0.0657225 -0.0752281
7 -0.184755 0.220857 -0.272831 0.308507 0.109302 -0.267497 -0.0250645 0.132057 0.0940005 0.031859 -0.145327 -0.0567271 -0.331545 -0.0956234 0.0432476 -0.0301762 -0.103148 0.0349025 0.00848349 0.00469262 0.114521 0.0385068 -0.47692 0.172169 -0.215933 0.163911 -0.183076 -0.157553 -0.207293 0.16036 0.028905 -0.000639496 -0.147799 -0.149824 -0.271724 0.00284742 0.219749 0.260177 -0.107914 -0.230004 -0.315604 0.114113 -0.269653 0.215352 0.14767 0.187483 0.15091 0.189879 -0.0265017 -0.200343 -0.206604 -0.072709 0.132605 0.10972 -0.153219 0.104667 -0.266202 -0.104519 -0.00875136 0.167811 -0.288192 0.236984 -0.132986 -0.148199 -0.0201879 -0.224279 -0.149152 0.218498 0.113746 0.18706 0.0590383 0.0641214 -0.107656 0.315904 0.0767364 0.142298 -0.0815781 0.308891 -0.085685 -0.18672 -0.0258007 0.151374 0.0675807 0.237746 -0.216777 -0.457266 -0.212306 -0.0453966 0.0502692 -0.00434866 -0.14904 -0.109709 -0.00780337 -0.157513 -0.297696 -0.237436 0.113541 0.147937 -0.280699 0.13835 0.463289 0.189216 0.176497 -0.060312 -0.0778751 0.119791 -0.127632 0.144769 0.171138 0.143768 -0.315586 0.193449 0.0952173 0.0030004 0.141923 0.0625854 -0.154857 -0.179699 0.00660956 0.0273414 -0.214637 0.331716 0.1019 -0.0362602 -0.0987334 -0.250163 -0.0519324 -0.114749
29 -0.0921438 0.104886 -0.245877 0.239384 0.0731834 -0.19123 -0.0859408 0.118869 0.166032 -0.023175 -0.0695361 0.0406321 -0.311933 -0.01327 0.100958 -0.00849164 -0.0756878 0.0403213 0.0893033 -0.0406153 0.117635 0.00903282 -0.338586 0.182358 -0.166339 0.0129303 -0.0497594 -0.139604 -0.139831 0.158152 -0.0298986 0.0206884 -0.0946711 -0.194293 -0.192722 0.0243463 0.0906825 0.302119 -0.153396 -0.185187 -0.27744 0.0514526 -0.343115 0.0988685 0.162482 0.205749 0.11631 0.257523 -0.0370263 -0.186699 -0.22258 -0.0581777 0.150737 0.0776851 -0.128702 0.004541 -0.14328 -0.0656076 -0.0266646 0.0821643 -0.255532 0.143076 -0.0988106 -0.146738 -0.07303 -0.166404 -0.202977 0.196887 -0.0135571 0.145635 0.00238008 0.00990953 -0.10301 0.195154 0.145469 0.138899 -0.107794 0.231973 -0.0935272 -0.200477 -0.0120346 0.0821722 -0.00866306 0.129598 -0.214915 -0.473548 -0.120703 -0.0460995 0.0310383 0.0183188 -0.18317 -0.0491594 0.0610149 -0.228681 -0.309764 -0.178361 0.0475079 0.188808 -0.32306 0.163026 0.342718 0.12377 0.167972 0.0378856 -0.0979046 0.0604654 -0.121064 0.0889553 0.158656 0.124582 -0.250026 0.189868 -0.0609823 -0.0425176 0.115266 0.0267168 -0.243044 -0.0984596 -0.0292935 0.101666 -0.190117 0.289961 0.12141 -0.0207387 -0.0554577 -0.250324 -0.0493058 -0.0605104
18 -0.117096 0.0744475 -0.22191 0.166528 0.0960007 -0.204419 -0.0788839 0.107415 0.147768 0.0137772 -0.0313935 0.0698289 -0.313221 -0.0141241 0.130519 0.0155965 -0.0497559 -0.0333783 0.0898928 -0.0335652 0.106229 0.0030422 -0.325756 0.203351 -0.121905 -0.00634811 -0.0166915 -0.144667 -0.150358 0.167991 -0.0549837 0.0195573 -0.0830321 -0.203105 -0.200754 0.0619296 0.0502249 0.307467 -0.167358 -0.134809 -0.297127 0.061775 -0.352219 0.0921015 0.161338 0.17324 0.150466 0.291459 -0.00544138 -0.180063 -0.204248 -0.000974664 0.156086 0.0651699 -0.108946 0.0236392 -0.117531 -0.0572781 -0.0163344 0.0554886 -0.269353 0.140807 -0.0881435 -0.129786 -0.0639487 -0.171386 -0.213501 0.176718 0.00870563 0.134042 0.00410917 0.00949239 -0.0824601 0.171775 0.143645 0.0985196 -0.118725 0.209627 -0.122598 -0.190363 -0.019167 0.0759989 -0.0437273 0.120839 -0.194181 -0.457983 -0.105929 -0.101583 0.0684449 0.022276 -0.223374 -0.032372 0.0605934 -0.284423 -0.286256 -0.157222 0.0202937 0.206539 -0.31023 0.159243 0.34012 0.100637 0.182425 0.00370411 -0.0574395 0.0684251 -0.112748 0.142853 0.148516 0.130859 -0.21349 0.23261 -0.095192 -0.0850406 0.123475 0.0458897 -0.261824 -0.0491735 0.0159706 0.1374 -0.19118 0.256934 0.103322 -0.00017649 -0.0355068 -0.268339 -0.0484002 -0.0917932
805308412 -0.109349 -0.12782 -0.336425 -0.0569378 0.252736 -0.237313 -0.02309 -0.00980828 0.00796517 0.127138 0.164016 0.098691 -0.361122 -0.0884458 0.248883 -0.0522776 -0.249002 -0.150477 0.168501 -0.0575629 0.00556613 -0.0882112 -0.350037 0.294403 0.020188 -0.00893361 0.0404003 -0.205953 -0.10108 0.15447 -0.141933 -0.122285 0.0192389 -0.301007 -0.316853 0.211313 0.161526 0.275975 -0.0701726 0.160516 -0.333908 -0.0828504 -0.426645 0.33337 0.199516 0.0361028 0.241482 0.240375 0.0262316 -0.201476 -0.277059 0.10863 -0.0893052 -0.0633744 0.0398438 0.271378 -0.0843394 -0.169105 -0.0708517 -0.0657845 -0.357801 0.243322 -0.134341 0.010515 -0.081976 -0.310212 -0.0909049 -0.0305392 0.110663 0.240033 0.087826 0.135487 -0.0106237 -0.0653245 0.10176 -0.0479035 0.018279 0.173394 -0.161847 -0.14256 0.127145 0.177031 -0.243376 0.254337 -0.150974 -0.330464 -0.0198348 -0.108072 0.142168 -0.0987643 -0.19096 -0.042367 -0.0543286 -0.342945 -0.316746 -0.00869728 -0.0648165 0.280063 -0.332831 0.199891 0.452581 0.0642173 0.2765 -0.217692 0.0778557 0.213542 0.0214017 0.214928 0.0835848 0.149157 -0.119397 0.394987 -0.114717 -0.28367 0.114439 0.151074 -0.278805 -0.0431545 0.19174 0.184383 -0.0513419 0.144804 0.0137281 0.154027 0.0401533 -0.30971 -0.0791726 -0.203328
1 -0.177306 0.211516 -0.268469 0.316603 0.122646 -0.26844 -0.00815152 0.105457 0.0671152 0.0212232 -0.134451 -0.0603536 -0.320141 -0.0906959 0.0201944 -0.0387529 -0.143371 0.111975 0.0251675 0.0347562 0.119272 0.0377643 -0.476789 0.17748 -0.233473 0.163883 -0.223254 -0.158459 -0.188962 0.101852 0.041852 -0.0414795 -0.142805 -0.147882 -0.264544 0.0279416 0.291607 0.217144 -0.0658763 -0.219078 -0.32054 0.08015 -0.240494 0.264475 0.143997 0.184708 0.146639 0.146179 -0.0302826 -0.190748 -0.239328 -0.0870307 0.084678 0.113528 -0.168909 0.139532 -0.317991 -0.147021 -0.0143976 0.133982 -0.28092 0.227349 -0.159162 -0.120064 -0.00653881 -0.261137 -0.125148 0.150967 0.109805 0.186352 0.095329 0.094084 -0.0928994 0.322683 0.0494198 0.15385 -0.0343718 0.345564 -0.0880069 -0.163542 -0.00371803 0.200704 0.0916985 0.241089 -0.191913 -0.406117 -0.178934 0.00811821 0.066842 -0.0447097 -0.102396 -0.113106 -0.0441751 -0.10651 -0.315233 -0.198435 0.102777 0.124928 -0.270299 0.155467 0.473969 0.19506 0.156957 -0.0764562 -0.101838 0.117985 -0.0961129 0.120532 0.144531 0.130186 -0.324511 0.149585 0.134852 0.01963 0.148668 0.0496683 -0.128687 -0.208848 -0.0137079 -0.00225176 -0.170086 0.333078 0.0816457 -0.0430683 -0.0896973 -0.234323 -0.0543593 -0.148386
10 -0.121017 0.13585 -0.278833 0.240367 0.105003 -0.230043 -0.0169541 0.0557863 0.0392692 0.0246875 -0.0932384 -0.0436113 -0.313601 -0.0951078 0.0217079 -0.0575747 -0.173261 0.0694319 0.0208959 -0.0225858 0.0751 0.00783645 -0.416944 0.158625 -0.194506 0.146154 -0.188219 -0.151268 -0.150912 0.113866 -0.00112118 -0.0407336 -0.114618 -0.160994 -0.252856 0.0457967 0.278726 0.167736 -0.0262332 -0.14795 -0.24732 0.0600303 -0.260756 0.266913 0.144807 0.132952 0.126668 0.0959047 -0.0467545 -0.195834 -0.232121 -0.0753746 0.0276299 0.065841 -0.101327 0.177754 -0.237598 -0.15503 -0.0332469 0.122789 -0.254805 0.231482 -0.167604 -0.0944813 -0.0180834 -0.235442 -0.0780195 0.112934 0.130342 0.200045 0.0708739 0.110474 -0.0899798 0.207264 0.0345738 0.115608 -0.00366375 0.271641 -0.065871 -0.142321 0.0281022 0.182811 0.0412434 0.254839 -0.191645 -0.354669 -0.157896 0.00169368 0.0593759 -0.0599892 -0.0712348 -0.0868698 -0.0430508 -0.114866 -0.292487 -0.162129 0.0868783 0.112803 -0.274365 0.131478 0.429508 0.175955 0.183651 -0.0943487 -0.0680653 0.14257 -0.0592207 0.0869221 0.131055 0.130805 -0.278168 0.173494 0.11021 -0.0189401 0.100856 0.0785912 -0.115667 -0.194541 0.0370516 -0.001311 -0.152787 0.26442 0.0745121 -0.00743212 -0.0704415 -0.219628 -0.039753 -0.113123
256 -0.0728122 -0.157999 -0.349627 -0.0591387 0.256464 -0.228281 -0.0344537 -0.0345658 -0.0100081 0.112461 0.179413 0.0801423 -0.374237 -0.0970856 0.231094 -0.0681053 -0.311624 -0.105044 0.200864 -0.0693136 -0.0147066 -0.122698 -0.363297 0.301786 0.0102739 -0.00714875 -0.00721749 -0.21463 -0.0802607 0.133487 -0.170664 -0.136097 0.0379306 -0.314686 -0.341442 0.231826 0.229153 0.25155 -0.0192507 0.167523 -0.317585 -0.102353 -0.452592 0.384661 0.230199 0.0160168 0.242746 0.195504 -0.00368734 -0.229892 -0.304415 0.077108 -0.15411 -0.0791168 0.0395688 0.314646 -0.0816825 -0.199425 -0.0902703 -0.0688201 -0.36909 0.268151 -0.171259 0.0314923 -0.110349 -0.341814 -0.0463073 -0.0767102 0.113475 0.277789 0.0897586 0.167662 0.00522986 -0.0916103 0.091401 -0.0453624 0.0627568 0.18776 -0.165949 -0.130199 0.158073 0.218384 -0.256358 0.278821 -0.165749 -0.307699 -0.0175383 -0.0966709 0.155182 -0.126558 -0.160741 -0.0545003 -0.0836246 -0.338416 -0.354329 0.00158415 -0.0694291 0.287036 -0.37768 0.212558 0.469334 0.0658162 0.299555 -0.24154 0.068313 0.253319 0.0409469 0.197015 0.0778051 0.162323 -0.130781 0.388184 -0.0918658 -0.297182 0.115814 0.167358 -0.260602 -0.0743319 0.217372 0.158367 -0.0380042 0.13803 0.0159016 0.152369 0.0409733 -0.309721 -0.0799784 -0.211667
8 -0.163495 0.214154 -0.2466 0.328882 0.0802926 -0.244045 -0.0250769 0.120419 0.112055 -0.00025185 -0.152222 -0.0358484 -0.305767 -0.0665094 0.0252766 -0.0295171 -0.0906003 0.100247 0.0121883 0.0225408 0.142205 0.0485946 -0.431136 0.166223 -0.23869 0.140086 -0.180019 -0.144567 -0.184364 0.119426 0.038545 -0.00232291 -0.153813 -0.140286 -0.229969 0.00867199 0.219519 0.235952 -0.107861 -0.239996 -0.296219 0.0920282 -0.238773 0.188645 0.1253 0.203395 0.115555 0.177782 -0.028904 -0.186242 -0.217555 -0.0906007 0.144374 0.121274 -0.170251 0.0741531 -0.282659 -0.112158 -0.00213907 0.142591 -0.248523 0.18353 -0.12813 -0.147974 -0.00372103 -0.215803 -0.173837 0.198991 0.0697567 0.158674 0.0641539 0.0591433 -0.11836 0.311577 0.0803574 0.165969 -0.0769247 0.316853 -0.0736022 -0.176979 -0.0307142 0.153258 0.105376 0.195831 -0.201224 -0.428192 -0.177735 0.00345731 0.0397977 -0.0174674 -0.118124 -0.083815 -0.00638539 -0.117098 -0.291386 -0.20738 0.105938 0.121023 -0.263893 0.151757 0.425632 0.18734 0.133978 -0.020053 -0.111264 0.0677989 -0.128916 0.0994727 0.155341 0.12666 -0.311546 0.131682 0.0901844 0.0359592 0.13473 0.0296864 -0.146842 -0.184528 -0.0382539 0.0256723 -0.189054 0.333417 0.10262 -0.052913 -0.083441 -0.217082 -0.0462839 -0.103599
2124679825 -0.0556156 -0.132666 -0.272073 -0.0400759 0.183567 -0.186952 -0.0425321 -0.0199339 0.0234835 0.0796924 0.137799 0.0896341 -0.307099 -0.0562198 0.195223 -0.0350431 -0.225171 -0.0900469 0.166051 -0.0648273 0.00342853 -0.0970041 -0.283771 0.255374 -0.00321958 -0.0307174 0.0180996 -0.179231 -0.0681265 0.119237 -0.152926 -0.0886838 0.0213848 -0.264869 -0.262366 0.185561 0.1501 0.225987 -0.0471707 0.11824 -0.256111 -0.0724577 -0.385463 0.265748 0.19872 0.0284449 0.189637 0.200974 -0.00690349 -0.188695 -0.244827 0.0634067 -0.0796569 -0.0616935 0.019418 0.22009 -0.0578369 -0.142948 -0.0654811 -0.0612701 -0.291078 0.191471 -0.132101 0.00140123 -0.0962924 -0.260616 -0.074 -0.0304585 0.0625143 0.215122 0.0533709 0.112812 -0.0139524 -0.068303 0.097863 -0.0271582 0.0256801 0.146986 -0.143862 -0.123802 0.115996 0.155122 -0.197659 0.203134 -0.148976 -0.280734 -0.0137521 -0.0920764 0.127287 -0.0858421 -0.160343 -0.0263432 -0.0345978 -0.300499 -0.294697 -0.0121036 -0.0566071 0.244032 -0.320413 0.178598 0.362732 0.0511784 0.247388 -0.160513 0.0474304 0.183944 0.0074193 0.151168 0.0796748 0.1359 -0.109902 0.316317 -0.1056 -0.239029 0.0981523 0.127952 -0.232479 -0.0444766 0.162021 0.155395 -0.062924 0.125579 0.0316901 0.117863 0.0410553 -0.258645 -0.0649814 -0.159626
-2147481604 -0.0364332 0.00915076 -0.0986082 0.0501676 0.0375408 -0.0769361 -0.0185047 0.0194792 0.0360843 0.0137977 -0.00511807 0.0138782 -0.112897 -0.0242557 0.0462138 -0.0105378 -0.0524973 -0.00475778 0.0337316 -0.0185078 0.0234823 -0.00756946 -0.125064 0.0699639 -0.0453952 0.0149666 -0.0181574 -0.0587647 -0.0438136 0.0484561 -0.0287365 -0.00962038 -0.0281006 -0.0720071 -0.0836989 0.0334486 0.048824 0.0894618 -0.0329693 -0.0277575 -0.0918776 0.00965394 -0.123976 0.0691317 0.0633752 0.0456759 0.0496434 0.0719846 -0.0106128 -0.0693985 -0.0775844 -0.00588597 0.0207683 0.00322519 -0.0242544 0.0427475 -0.0478895 -0.0383126 -0.0136152 0.0187949 -0.093884 0.0666971 -0.0438139 -0.0349423 -0.0253738 -0.0752073 -0.0498764 0.0460461 0.0210918 0.0666395 0.0168653 0.0234309 -0.0283116 0.0332166 0.0414942 0.0209221 -0.0143751 0.0708973 -0.040075 -0.0586551 0.0110179 0.0448434 -0.0179131 0.0734534 -0.0730627 -0.138235 -0.0394868 -0.0169013 0.0250884 -0.0116831 -0.055945 -0.0136692 0.0045481 -0.0828363 -0.101106 -0.0440956 0.00755637 0.0675789 -0.113279 0.0560935 0.135888 0.041292 0.0764121 -0.0212655 -0.00773045 0.0419213 -0.0258215 0.0424564 0.0475336 0.0510499 -0.0789335 0.0896532 -0.0178615 -0.0373168 0.0391331 0.0284373 -0.0747391 -0.0363866 0.0245544 0.0425632 -0.0527011 0.0823616 0.0308671 0.0106323 -0.0084183 -0.0848645 -0.0162627 -0.034567
2124679838 -0.0614511 -0.0277986 -0.240154 0.0573999 0.111077 -0.160485 -0.0376532 0.0151127 0.0431951 0.0455327 0.0393741 0.0465531 -0.266122 -0.0613365 0.113929 -0.0385455 -0.155429 -0.0461192 0.0805569 -0.0599901 0.0241959 -0.0461874 -0.262654 0.170081 -0.0607849 0.0219494 -0.0216326 -0.138024 -0.0775007 0.121576 -0.0847703 -0.0441715 -0.0350198 -0.18943 -0.206266 0.100089 0.132683 0.18247 -0.0453648 0.00939936 -0.196457 -0.00277422 -0.296101 0.196315 0.152697 0.0623435 0.126161 0.148319 -0.0263542 -0.168 -0.189064 0.0055825 -0.00952174 -0.0159373 -0.0121787 0.149243 -0.0818678 -0.106882 -0.0456622 0.022023 -0.228043 0.170186 -0.108906 -0.0464896 -0.0578402 -0.184338 -0.0834052 0.0466356 0.065071 0.176314 0.0344447 0.079315 -0.0468569 0.0191423 0.0767993 0.0216007 -0.00704832 0.13822 -0.086569 -0.118315 0.0618294 0.114031 -0.0987645 0.17747 -0.149808 -0.276791 -0.0681656 -0.0556565 0.0698063 -0.0502768 -0.120145 -0.0272331 -0.00716981 -0.209809 -0.23899 -0.0724233 0.00596406 0.164659 -0.260278 0.127057 0.310446 0.0786531 0.190254 -0.0969295 0.00319037 0.131027 -0.0295551 0.0982973 0.0930098 0.111741 -0.145005 0.233228 -0.0468581 -0.132689 0.0753024 0.0896539 -0.17076 -0.0758733 0.095873 0.0933885 -0.0999045 0.142292 0.0530207 0.0599355 -0.00416295 -0.202218 -0.0420871 -0.0899118
